/*!
 * The following copyright notice may not be removed under any circumstances.
 * 
 * Copyright:
 * Copyright (c) 1992-95 ElseWare.  All rights reserved.
 * 
 * Trademark:
 * Albertus Extra Bold is a trademark of Monotype.
 */
Cufon.registerFont({"w":1360,"face":{"font-family":"Albertus Extra Bold","font-weight":700,"font-stretch":"normal","units-per-em":"2048","panose-1":"2 14 8 2 4 3 4 2 2 4","ascent":"1638","descent":"-410","x-height":"21","bbox":"-385 -2057 2574 533","underline-thickness":"105","underline-position":"-355","unicode-range":"U+0020-U+EFF9"},"glyphs":{" ":{"w":755},"!":{"d":"627,-1557v-83,159,-56,461,-60,715v-3,151,-87,290,-188,352v-101,-64,-185,-200,-188,-352v-4,-253,23,-556,-60,-715r496,0xm157,-199v0,-121,101,-222,222,-222v121,0,222,101,222,222v0,121,-101,222,-222,222v-121,0,-222,-101,-222,-222","w":755},"\"":{"d":"233,-903r-68,-662r355,0r-67,662r-220,0xm720,-903r-68,-662r355,0r-67,662r-220,0","w":1171},"#":{"d":"1294,-1573v-23,32,-50,109,-64,160r-371,1281v-13,44,-29,115,-29,160r-281,0v22,-33,51,-110,65,-160r371,-1281v13,-44,28,-113,28,-160r281,0xm826,-1573v-23,32,-50,109,-64,160r-371,1281v-13,44,-29,115,-29,160r-281,0v22,-33,51,-110,65,-160r371,-1281v13,-44,28,-113,28,-160r281,0xm1249,-902v-30,-9,-99,-15,-143,-15r-766,0v-48,0,-118,5,-151,15r68,-238v30,9,99,15,143,15r766,0v47,0,119,-5,151,-15xm1119,-454v-30,-9,-99,-15,-143,-15r-766,0v-48,0,-118,5,-151,15r68,-238v30,9,99,15,143,15r766,0v47,0,119,-5,151,-15"},"$":{"d":"1136,-1176v-142,-56,-316,-89,-507,-90v-114,-1,-201,47,-203,151v0,46,23,85,70,116v46,31,116,56,211,74v176,33,309,92,400,175v90,83,135,188,135,317v0,314,-236,438,-578,436v-232,-1,-304,-8,-474,-65r-18,-297v175,73,263,85,515,87v134,1,248,-43,248,-159v0,-47,-24,-87,-71,-119v-47,-32,-118,-57,-213,-75v-165,-31,-296,-91,-392,-180v-95,-88,-143,-193,-143,-314v-2,-261,208,-422,479,-422v204,0,333,50,526,39xm541,-1693r257,0r0,1893r-257,0r0,-1893"},"%":{"d":"460,-640v-253,0,-409,-202,-409,-466v0,-264,156,-467,409,-467v253,0,409,204,409,467v0,264,-156,466,-409,466xm366,-1304v-35,73,-35,323,0,396v39,81,149,81,188,0v35,-73,35,-323,0,-396v-39,-81,-149,-81,-188,0xm465,16v28,-30,69,-102,93,-149r644,-1291v21,-41,48,-105,56,-149r282,0v-27,31,-68,102,-92,149r-644,1291v-21,40,-49,106,-57,149r-282,0xm1545,16v-253,0,-409,-202,-409,-466v0,-264,156,-467,409,-467v253,0,409,204,409,467v0,264,-156,466,-409,466xm1451,-648v-35,73,-35,323,0,396v39,81,149,81,188,0v35,-73,35,-323,0,-396v-39,-81,-149,-81,-188,0","w":2001},"&":{"d":"77,-408v0,-166,71,-291,178,-360v-45,-52,-68,-113,-69,-183v-3,-225,168,-372,398,-372v217,0,398,132,398,337v0,96,-58,177,-131,217v133,57,211,104,312,171v56,-117,90,-271,100,-434v-66,5,-177,11,-218,26r0,-290r744,0r0,290v-37,-14,-145,-22,-210,-25v-18,230,-75,437,-157,612v86,62,205,163,300,193v100,31,130,48,219,52r-316,193v-177,-14,-251,-89,-381,-181v-126,112,-332,190,-555,190v-188,0,-337,-40,-447,-118v-110,-78,-165,-184,-165,-318xm452,-466v0,217,321,221,479,128r38,-22v-120,-92,-298,-168,-452,-241v-41,38,-65,85,-65,135xm584,-1098v-65,0,-115,54,-115,121v0,66,52,130,115,130v70,0,115,-61,115,-134v0,-67,-48,-117,-115,-117","w":1850},"'":{"d":"268,-903r-68,-662r355,0r-67,662r-220,0","w":755},"(":{"d":"255,-170v-134,-285,-133,-606,1,-890v67,-144,182,-314,346,-512r300,0v-139,180,-236,343,-294,486v-113,280,-113,664,0,944v58,143,155,306,294,486r-300,0v-164,-199,-280,-370,-347,-514","w":1020},")":{"d":"802,-1058v134,285,134,606,0,890v-67,144,-183,314,-347,512r-300,0v139,-180,237,-343,295,-486v113,-280,113,-664,0,-944v-58,-143,-156,-306,-295,-486r300,0v164,199,280,370,347,514","w":1020},"*":{"d":"824,-1558v-23,75,-43,139,-55,194r-22,97r83,-51v48,-31,104,-70,167,-116r95,278v-78,2,-145,4,-201,10r-98,11v75,65,158,123,238,183r-232,180v-27,-73,-53,-136,-76,-187r-46,-99r-46,98v-23,53,-48,115,-76,188r-232,-180v64,-45,119,-84,162,-120r76,-63r-97,-10v-57,-5,-124,-8,-202,-11r95,-278v97,72,159,112,251,167r-23,-96v-14,-55,-32,-120,-55,-195r294,0"},"+":{"d":"802,-2v33,-104,26,-283,26,-424v-143,0,-317,-6,-424,26r0,-398v105,32,283,26,424,26v0,-142,7,-318,-26,-424r398,0v-32,104,-26,284,-26,424v143,0,317,6,424,-26r0,398v-105,-32,-283,-26,-424,-26v1,142,-7,319,26,424r-398,0","w":2001},",":{"d":"608,-386v-65,339,-162,453,-367,683r-259,0v139,-234,203,-348,207,-683r419,0","w":755},"-":{"d":"460,-482v-125,0,-279,-6,-372,23r0,-352v92,29,248,23,372,23v66,0,164,-8,208,-23r0,352v-43,-15,-143,-23,-208,-23","w":755},".":{"d":"155,-199v0,-121,101,-222,222,-222v121,0,222,101,222,222v0,121,-101,222,-222,222v-121,0,-222,-101,-222,-222","w":755},"\/":{"d":"1032,-1565v-34,41,-83,139,-108,202r-480,1161v-24,54,-55,141,-60,202r-368,0v33,-41,81,-138,108,-202r480,-1161v23,-55,55,-143,60,-202r368,0","w":1020},"0":{"d":"232,-202v-114,-146,-170,-340,-170,-579v0,-235,58,-426,174,-575v116,-149,264,-224,445,-224v182,0,328,78,447,224v227,278,228,872,0,1150v-119,146,-265,223,-447,223v-185,0,-335,-73,-449,-219xm834,-412v70,-155,65,-582,0,-738v-71,-170,-235,-170,-306,0v-64,155,-68,589,0,740v37,84,86,127,153,127v66,0,115,-44,153,-129"},"1":{"d":"449,0v41,-102,55,-184,55,-329r0,-757r-237,2r0,-4r594,-492r0,1251v0,144,14,227,55,329r-467,0"},"2":{"d":"684,-1580v274,0,495,153,494,412v0,59,-18,124,-55,195v-93,179,-336,491,-473,684r161,0v204,-3,329,0,434,-60r-89,349r-1103,0r596,-848v71,-101,119,-174,143,-217v23,-43,35,-79,35,-107v1,-71,-62,-116,-136,-115v-150,2,-216,159,-187,331r-314,-118v-45,-308,185,-506,494,-506"},"3":{"d":"768,-500v-1,-160,-129,-244,-306,-233r282,-535v-220,1,-442,-13,-580,68r85,-357r999,0r-336,636v148,70,273,237,273,421v0,325,-239,522,-575,517v-228,-3,-326,-49,-488,-144r128,-251v83,61,134,105,244,109v157,5,274,-83,274,-231"},"4":{"d":"656,0v38,-123,26,-333,28,-498r-583,0r0,-303v248,-286,362,-436,573,-756r381,0r0,770v74,2,173,-6,224,-22r0,333v-50,-16,-152,-24,-224,-22v2,167,-10,372,28,498r-427,0xm713,-787r0,-415r-276,415r276,0"},"5":{"d":"622,-981v308,-28,532,199,533,479v2,328,-241,524,-581,519v-207,-3,-292,-40,-456,-118r113,-263v79,60,131,98,245,101v155,4,267,-87,266,-236v0,-146,-154,-237,-314,-237v-70,0,-144,19,-190,45v30,-364,19,-533,-40,-866r957,0r-69,337v-28,-24,-109,-49,-161,-48r-301,0"},"6":{"d":"682,17v-319,0,-566,-193,-560,-500v4,-195,76,-319,172,-466r289,-441v21,-32,41,-113,46,-167r515,0v-84,72,-132,148,-213,271r-208,317v301,-39,518,189,519,462v2,333,-219,524,-560,524xm682,-672v-113,0,-209,89,-209,200v0,107,100,198,209,198v115,0,209,-85,209,-198v0,-117,-90,-200,-209,-200"},"7":{"d":"212,0v42,-49,105,-165,140,-241r474,-1027v-247,5,-513,-25,-688,60r90,-349r1105,0r-658,1458v-10,21,-19,68,-16,99r-447,0"},"8":{"d":"680,17v-300,0,-548,-185,-548,-471v0,-148,66,-275,176,-358v-100,-79,-158,-193,-158,-327v0,-269,237,-441,520,-441v284,0,521,172,521,441v0,130,-51,239,-150,319v115,80,187,214,187,366v0,285,-249,471,-548,471xm472,-1124v0,94,97,163,198,163v102,0,199,-68,199,-163v0,-96,-97,-165,-199,-165v-102,0,-198,69,-198,165xm877,-466v0,-115,-82,-199,-197,-199v-114,0,-197,84,-197,199v0,114,83,198,197,198v114,0,197,-84,197,-198"},"9":{"d":"681,-1580v315,0,565,183,560,483v-3,206,-73,337,-172,488r-282,429v-23,33,-48,125,-54,180r-515,0v143,-142,293,-400,423,-591v-295,20,-520,-196,-521,-465v-2,-333,220,-524,561,-524xm681,-882v113,0,209,-91,209,-204v0,-109,-99,-203,-209,-203v-116,0,-210,88,-210,203v0,119,91,204,210,204"},":":{"d":"155,-199v0,-121,101,-222,222,-222v121,0,222,101,222,222v0,121,-101,222,-222,222v-121,0,-222,-101,-222,-222xm155,-887v0,-121,101,-222,222,-222v121,0,222,101,222,222v0,121,-101,222,-222,222v-121,0,-222,-101,-222,-222","w":755},";":{"d":"608,-387v-65,339,-162,454,-367,684r-259,0v139,-234,203,-349,207,-684r419,0xm164,-887v0,-121,101,-222,222,-222v121,0,222,101,222,222v0,121,-101,222,-222,222v-121,0,-222,-101,-222,-222","w":755},"<":{"d":"410,-553r0,-150r1225,-546r0,192r-966,429r966,436r0,192","w":2039},"=":{"d":"639,-175v-74,-1,-186,9,-236,26r0,-399v49,17,162,27,236,26r722,0v74,1,186,-9,236,-26r0,399v-49,-17,-162,-27,-236,-26r-722,0xm639,-689v-74,-1,-186,9,-236,26r0,-399v49,17,162,27,236,26r722,0v74,1,186,-9,236,-26r0,399v-49,-17,-162,-27,-236,-26r-722,0","w":2001},">":{"d":"1635,-553r-1225,553r0,-192r966,-436r-966,-429r0,-192r1225,546r0,150","w":2039},"?":{"d":"507,-1070v2,-125,-92,-223,-217,-219v-90,3,-132,42,-186,99r33,-357v112,-29,148,-39,269,-41v298,-5,529,206,524,499v-5,289,-210,417,-474,494v-107,31,-159,43,-218,84r0,-305v131,-38,267,-103,269,-254xm129,-199v0,-121,101,-222,222,-222v121,0,222,101,222,222v0,121,-101,222,-222,222v-121,0,-222,-101,-222,-222","w":982},"@":{"d":"531,-710v0,-248,161,-489,392,-487v105,0,191,35,260,105r0,-77r273,0r0,568v0,53,6,96,18,127v12,31,30,47,51,47v44,0,79,-34,105,-102v26,-68,38,-160,38,-275v0,-374,-254,-608,-633,-608v-377,0,-686,321,-686,700v0,431,294,701,731,701v124,0,308,-32,393,-70r0,257v-69,27,-236,37,-348,37v-609,0,-1045,-339,-1045,-925v0,-512,448,-924,966,-924v528,0,891,315,891,832v0,324,-154,575,-452,581v-110,2,-202,-76,-247,-175v-67,105,-181,175,-309,175v-232,0,-398,-239,-398,-487xm1197,-738v0,-157,-52,-255,-197,-255v-121,0,-196,146,-196,283v0,137,75,283,196,283v133,0,197,-157,197,-311","w":2001},"A":{"d":"-53,0v75,-100,118,-186,177,-329r422,-1019v27,-64,62,-156,73,-217r348,0v10,59,47,155,73,217r423,1019v62,143,101,229,175,329r-499,0v5,-72,-11,-111,-36,-181r-77,-214r-499,0r-71,214v-23,71,-38,108,-33,181r-476,0xm768,-1112r-149,444r310,0","w":1586},"B":{"d":"128,0v41,-102,55,-184,55,-329r0,-907v0,-144,-14,-227,-55,-329r539,0v186,0,332,35,437,104v105,69,157,165,157,288v0,149,-90,268,-217,323v170,58,299,200,299,399v0,145,-56,256,-167,334v-111,78,-270,117,-475,117r-573,0xm856,-1131v0,-132,-112,-180,-260,-174r0,369v153,4,260,-55,260,-195xm897,-494v0,-146,-134,-197,-301,-195r0,414v174,3,301,-62,301,-219","w":1435},"C":{"d":"943,-281v223,0,328,-87,460,-219r0,406v-195,84,-285,118,-531,122v-450,7,-784,-327,-784,-775v0,-488,368,-849,858,-841v188,3,243,17,431,54r0,407v-143,-97,-227,-148,-434,-151v-249,-4,-409,219,-409,480v0,290,140,517,409,517","w":1473},"D":{"d":"143,0v41,-102,55,-184,55,-329r0,-907v0,-144,-14,-227,-55,-329r468,0v506,-9,894,298,894,783v0,493,-362,790,-872,782r-490,0xm1059,-778v0,-299,-161,-519,-448,-518r0,990v287,10,448,-189,448,-472","w":1586},"E":{"d":"192,-1236v0,-144,-14,-227,-55,-329r968,0r-154,341v-62,-32,-237,-60,-346,-66r0,356r466,0r-189,343v-55,-27,-183,-55,-277,-63r0,378v255,-12,412,-50,590,-142r-173,418r-885,0v41,-102,55,-185,55,-329r0,-907","w":1246},"F":{"d":"152,0v41,-102,55,-184,55,-329r0,-907v0,-144,-14,-227,-55,-329r993,0r-154,341v-68,-35,-255,-63,-371,-68r0,374r468,0r-189,343v-55,-28,-186,-55,-279,-64v4,230,-21,482,55,639r-523,0","w":1171},"G":{"d":"1475,-227v0,72,20,108,54,158r0,8v-166,58,-357,85,-574,89v-475,8,-861,-303,-861,-759v0,-499,384,-865,888,-857v201,3,267,16,424,70r0,405v-97,-90,-262,-167,-433,-169v-263,-3,-433,228,-433,503v0,308,201,567,522,486v-1,-202,11,-401,-55,-536r523,0v-72,152,-55,380,-55,602","w":1586},"H":{"d":"132,0v41,-102,55,-184,55,-329r0,-907v0,-144,-14,-227,-55,-329r523,0v-73,153,-52,387,-55,611r459,0v-3,-223,18,-460,-55,-611r523,0v-41,102,-55,185,-55,329r0,907v0,144,14,227,55,329r-523,0v76,-159,51,-409,55,-641r-459,0v4,231,-21,483,55,641r-523,0","w":1662},"I":{"d":"140,0v41,-102,55,-184,55,-329r0,-907v0,-144,-14,-226,-55,-329r523,0v-41,102,-55,185,-55,329r0,907v0,144,14,227,55,329r-523,0","w":793},"J":{"d":"-69,283v292,-80,392,-272,392,-660r0,-912v-96,6,-254,18,-309,38r101,-314r677,0v-33,77,-56,248,-56,363r0,914v-3,417,-134,629,-531,629v-99,0,-191,-18,-275,-55","w":906},"K":{"d":"644,-1565v-69,145,-53,361,-55,574r361,-466v31,-40,51,-62,62,-108r531,0v-122,87,-200,180,-331,329r-339,385r410,522v120,147,188,237,306,329r-584,0v-108,-214,-279,-419,-416,-621v3,225,-19,468,55,621r-523,0v41,-102,55,-185,55,-329r0,-907v0,-144,-14,-227,-55,-329r523,0","w":1511},"L":{"d":"660,-1565v-41,102,-55,185,-55,329r0,957v233,-13,380,-53,546,-139r-173,418r-841,0v41,-102,55,-185,55,-329r0,-907v0,-144,-14,-227,-55,-329r523,0","w":1171},"M":{"d":"1340,0v41,-102,55,-185,55,-329r0,-576r-402,514r-402,-523r0,585v0,144,14,227,55,329r-525,0v41,-102,55,-185,55,-329r0,-1006r-196,-230r594,0v3,68,13,105,44,144r391,494r395,-494v36,-45,55,-77,60,-144r465,0v-75,187,-121,304,-121,526r0,710v0,144,14,227,55,329r-523,0","w":2001},"N":{"d":"1545,-1236v0,422,-27,883,51,1236r-464,0v-16,-57,-65,-145,-98,-194r-439,-648r0,513v0,144,14,227,55,329r-506,0v41,-102,55,-185,55,-329r0,-992r-207,-244r568,0v58,118,113,198,201,329r388,573r0,-573v0,-144,-14,-227,-55,-329r506,0v-41,102,-55,185,-55,329","w":1737},"O":{"d":"925,28v-478,0,-841,-336,-841,-807v0,-472,363,-809,841,-809v479,0,841,336,841,809v0,472,-362,807,-841,807xm1159,-278v95,-85,161,-297,161,-482v0,-337,-275,-558,-629,-522v-95,86,-161,298,-161,484v0,336,277,556,629,520","w":1850},"P":{"d":"138,0v41,-102,55,-184,55,-329r0,-907v0,-144,-14,-227,-55,-329r539,0v352,-3,592,154,592,485v0,332,-294,497,-663,484v3,219,-17,448,55,596r-523,0xm868,-1093v0,-130,-115,-208,-262,-197r0,419v149,7,262,-84,262,-222","w":1322},"Q":{"d":"921,-1588v479,0,841,336,841,809v0,275,-125,511,-315,649v113,177,272,331,463,412v-215,73,-428,55,-641,-55v-101,-52,-191,-119,-271,-202v-531,44,-918,-309,-918,-804v0,-472,363,-809,841,-809xm687,-1282v-92,82,-161,279,-161,453v0,348,270,587,629,551v103,-65,161,-269,161,-451v0,-350,-269,-589,-629,-553","w":1850},"R":{"d":"124,0v41,-102,55,-184,55,-329r0,-907v0,-144,-14,-227,-55,-329r543,0v352,-3,595,141,603,465v5,197,-140,353,-311,411r250,360v99,141,172,224,297,329r-429,0v-27,0,-73,-38,-139,-111v-120,-132,-243,-338,-346,-506v3,224,-19,465,55,617r-523,0xm865,-1090v0,-132,-123,-210,-273,-200r0,425v153,7,273,-85,273,-225","w":1435},"S":{"d":"627,-1588v110,0,259,28,338,62r0,364v-87,-69,-143,-115,-265,-120v-76,-3,-144,46,-141,117v4,103,52,134,128,195v114,92,200,174,253,253v53,78,79,159,79,242v0,294,-228,508,-527,503v-177,-3,-239,-21,-381,-75r0,-398v60,85,187,165,317,167v89,2,159,-61,156,-149v-5,-121,-54,-158,-141,-227v-111,-89,-195,-168,-246,-242v-51,-73,-77,-147,-77,-222v0,-278,223,-470,507,-470","w":1095},"T":{"d":"389,0v44,-105,61,-185,61,-329r0,-960v-186,5,-348,22,-468,71r112,-347r1221,0r-92,336v-62,-27,-247,-54,-360,-58r0,958v1,143,17,223,61,329r-535,0","w":1284},"U":{"d":"648,-1565v-41,102,-55,184,-55,329r0,562v0,131,19,230,57,294v38,64,97,96,174,96v174,0,227,-136,227,-333r0,-619v0,-144,-14,-227,-55,-329r523,0v-41,102,-55,185,-55,329r0,907v0,144,14,227,55,329r-427,0r9,-115v-106,92,-244,138,-414,138v-363,0,-507,-224,-507,-608r0,-651v0,-144,-14,-227,-55,-329r523,0","w":1662},"V":{"d":"137,-1236v-48,-129,-101,-207,-185,-329r565,0v-11,74,-11,118,7,181r255,851r293,-851v21,-61,26,-105,15,-181r507,0v-74,101,-116,187,-172,329r-492,1236r-352,0","w":1548},"W":{"d":"434,0r-329,-1236v-39,-140,-68,-224,-128,-329r527,0v-13,100,-13,163,6,253r132,624r176,-650v16,-60,38,-165,45,-227r291,0v7,64,27,171,41,227r174,679r154,-725v15,-68,9,-112,-8,-181r506,0v-61,105,-92,189,-129,329r-329,1236r-323,0r-247,-800r-236,800r-323,0","w":2001},"X":{"d":"-26,0v107,-94,170,-183,267,-329r309,-464r-270,-443v-86,-138,-152,-220,-267,-329r553,0v7,79,27,120,62,181r161,268v74,-118,168,-234,229,-360v13,-27,19,-57,23,-89r508,0v-99,93,-162,183,-260,329r-267,397r306,510v85,139,151,222,264,329r-567,0v-7,-79,-25,-121,-60,-181r-184,-311r-205,311v-41,61,-62,102,-73,181r-529,0","w":1548},"Y":{"d":"427,0v81,-172,49,-448,55,-695r-303,-541v-84,-145,-133,-233,-224,-329r515,0v10,59,21,94,46,144r177,366r204,-366v26,-47,40,-82,52,-144r474,0v-91,95,-146,183,-230,329r-298,517v7,253,-28,543,55,719r-523,0"},"Z":{"d":"706,-1292v-276,1,-421,52,-614,161r141,-434r1061,0r-655,1292v307,-6,486,-40,689,-145r-173,418r-1106,0"},"[":{"d":"164,310v28,-86,54,-218,54,-324r0,-1226v0,-106,-26,-238,-54,-324r727,1r0,241v-45,-14,-225,-22,-312,-26r0,1441r144,-6v86,-5,142,-12,168,-19r0,241","w":1020},"\\":{"d":"664,0v-5,-58,-37,-148,-60,-202r-480,-1161v-27,-65,-74,-159,-108,-202r368,0v4,59,38,149,60,202r480,1161v26,64,73,160,108,202r-368,0","w":1020},"]":{"d":"891,-1564v-28,86,-54,218,-54,324r0,1226v0,106,26,238,54,324r-727,-1r0,-241v45,14,224,22,312,25r0,-1441r-143,7v-87,5,-143,12,-169,19r0,-241","w":1020},"^":{"d":"99,-1087v187,-140,260,-228,359,-449r106,0v99,222,173,310,360,449r0,94v-182,-84,-303,-156,-414,-260v-110,105,-230,175,-411,260r0,-94","w":1020},"_":{"d":"0,512r0,-105r1020,0r0,105r-1020,0","w":1020},"`":{"d":"635,-1219v-109,-155,-174,-221,-313,-354r432,0v35,160,72,224,151,354r-270,0"},"a":{"d":"935,-743v0,257,-30,562,52,743r-420,0r0,-116r-177,138v-208,18,-369,-103,-369,-290v0,-199,161,-308,341,-366r197,-64v-3,-100,-66,-154,-173,-153v-117,1,-157,13,-247,49r70,-257v128,-37,176,-48,328,-50v234,-3,398,138,398,366xm347,-349v2,80,44,117,126,117v34,-1,63,-5,86,-14r0,-201r-163,0v-23,0,-50,70,-49,98","w":1020},"b":{"d":"79,0v41,-99,51,-183,52,-329r0,-910v-1,-114,-16,-176,-52,-263r490,-55v-39,78,-62,130,-62,230r0,365r142,-140v319,-53,538,161,538,455v0,377,-300,647,-680,647r-428,0xm807,-575v1,-154,-46,-279,-179,-279v-45,0,-85,10,-121,30r0,602v220,19,300,-134,300,-353","w":1246},"c":{"d":"441,-541v0,179,98,311,269,309v102,-1,190,-41,260,-88r-132,320v-97,15,-123,22,-215,23v-326,6,-566,-239,-566,-565v0,-337,274,-573,620,-567v116,2,154,11,247,45r-13,281v-74,-44,-113,-68,-211,-69v-167,-2,-259,134,-259,311","w":982},"d":{"d":"1096,-329v1,146,11,230,52,329r-420,0r0,-121r-139,143v-313,22,-537,-184,-539,-475v-2,-366,286,-687,670,-654v1,-162,-3,-287,-52,-395r490,-55v-57,124,-62,251,-62,461r0,767xm603,-888v-51,0,-90,32,-125,92v-63,109,-58,382,-4,486v50,97,180,111,246,25r0,-580v-32,-15,-71,-23,-117,-23","w":1208},"e":{"d":"432,-475v32,146,133,251,301,248v109,-1,214,-41,284,-91r-132,318v-106,15,-134,22,-232,23v-359,4,-597,-211,-597,-565v0,-314,202,-567,504,-567v336,0,505,278,445,634r-573,0xm559,-885v-96,1,-135,90,-141,199r274,0v5,-113,-29,-201,-133,-199","w":1057},"f":{"d":"604,-1305v-96,0,-109,109,-104,219r194,0r0,232r-194,0r0,525v1,145,11,229,52,329r-480,0v41,-100,51,-184,52,-329r0,-525r-136,0r118,-232r18,0v-15,-315,120,-480,423,-478v127,1,168,16,282,49r-70,273v-54,-37,-82,-63,-155,-63","w":755},"g":{"d":"518,-355v-20,0,-35,22,-35,39v0,9,13,16,38,22v25,6,56,10,93,10v151,0,262,21,332,62v70,41,105,105,105,194v0,280,-193,385,-497,384v-163,0,-286,-18,-371,-56v-85,-38,-127,-93,-127,-165v0,-81,80,-169,138,-213v-63,-10,-106,-45,-106,-98r0,-91r173,-148v-98,-52,-173,-159,-173,-279v0,-248,206,-415,462,-415v97,0,180,23,250,68r205,0v48,0,120,-5,152,-16r-40,238v-3,-2,-68,-3,-154,-3v87,293,-159,467,-445,467xm668,-705v0,-108,-49,-214,-145,-214v-78,0,-123,77,-123,162v0,108,50,212,145,212v77,0,123,-76,123,-160xm737,50v0,-143,-223,-99,-370,-111v2,-1,3,19,3,60v0,99,94,140,206,139v89,-1,161,-15,161,-88","w":1133},"h":{"d":"62,0v41,-99,52,-183,52,-329r0,-844v-1,-145,-11,-229,-52,-329r490,-55v-78,151,-59,423,-62,670r199,-208v32,-10,62,-15,90,-14v210,-1,327,116,326,326r0,454v1,145,11,229,52,329r-480,0v77,-163,47,-430,52,-666v2,-87,-26,-154,-103,-154v-53,0,-98,17,-136,49r0,442v1,145,11,229,52,329r-480,0","w":1208},"i":{"d":"60,0v84,-185,52,-496,52,-757v0,-145,-11,-229,-52,-329r490,0v-86,168,-62,489,-62,757v0,145,11,229,52,329r-480,0xm80,-1414v0,-122,101,-223,223,-223v122,0,223,101,223,223v0,122,-101,223,-223,223v-122,0,-223,-101,-223,-223","w":604},"j":{"d":"-89,340v119,-43,212,-237,212,-406r0,-691v-1,-145,-11,-229,-52,-329r490,0v-57,124,-62,251,-62,461r0,578v3,153,-72,336,-167,387r-421,0xm91,-1414v0,-122,101,-223,223,-223v122,0,223,101,223,223v0,122,-101,223,-223,223v-122,0,-223,-101,-223,-223","w":604},"k":{"d":"556,-1557v-96,199,-52,585,-62,887v74,-102,178,-204,234,-318v14,-29,19,-62,21,-98r492,0v-23,12,-65,50,-125,114v-60,64,-152,169,-276,314r-51,61r410,491v56,64,90,99,103,106r-491,0r-57,-98r-260,-355v-1,177,-3,336,52,453r-480,0v41,-99,51,-183,52,-329r0,-844v-1,-145,-11,-229,-52,-329","w":1284},"l":{"d":"59,0v41,-99,52,-183,52,-329r0,-844v-1,-145,-11,-229,-52,-329r490,-55v-57,123,-62,252,-62,461r0,767v1,145,11,229,52,329r-480,0","w":604},"m":{"d":"59,0v84,-185,52,-496,52,-757v0,-145,-11,-229,-52,-329r428,0r0,188r200,-196v190,-52,378,40,403,207r211,-207v26,-10,56,-15,90,-15v208,-1,325,116,324,324r0,456v1,145,11,229,52,329r-480,0v76,-162,47,-426,52,-660v2,-94,-36,-159,-123,-160v-43,0,-82,11,-115,34r0,457v1,145,11,229,52,329r-480,0v76,-162,47,-426,52,-660v2,-94,-36,-159,-123,-160v-43,0,-82,11,-115,34r0,457v1,145,11,229,52,329r-480,0","w":1813},"n":{"d":"61,0v84,-185,52,-496,52,-757v0,-145,-11,-229,-52,-329r428,0r0,208r200,-216v26,-10,56,-15,90,-15v208,-1,326,117,325,325r0,455v1,145,11,229,52,329r-480,0v76,-162,47,-426,52,-660v2,-94,-36,-159,-123,-160v-44,0,-83,11,-116,34r0,457v1,145,11,229,52,329r-480,0","w":1208},"o":{"d":"597,23v-310,0,-549,-215,-549,-520v0,-350,254,-612,603,-612v312,0,549,215,549,522v0,350,-254,610,-603,610xm700,-195v62,-56,116,-176,116,-288v0,-200,-136,-373,-304,-408v-54,51,-88,179,-88,290v0,196,118,372,276,406","w":1246},"p":{"d":"64,344v42,-105,58,-185,59,-329r0,-772v-1,-145,-11,-229,-52,-329r428,0r0,153r141,-165v335,-69,532,215,532,537v0,319,-194,586,-497,584v-65,0,-123,-13,-176,-39v-2,154,17,246,65,360r-500,0xm792,-526v-4,-164,-30,-296,-166,-296v-47,0,-90,20,-127,58r0,519v185,64,297,-97,293,-281","w":1208},"q":{"d":"649,344v66,-137,68,-292,65,-491r-188,170v-260,16,-484,-221,-484,-466v0,-407,362,-666,791,-666v89,0,163,3,223,7v60,4,89,9,86,16v-41,100,-51,184,-52,329r0,772v0,144,17,225,59,329r-500,0xm422,-573v3,181,44,314,201,314v34,0,64,-9,91,-25r0,-594v-189,-54,-295,118,-292,305","w":1208},"r":{"d":"64,0v84,-185,52,-496,52,-757v0,-145,-11,-229,-52,-329r428,0r0,201r194,-206v67,-26,121,-20,191,-6r-54,310v-100,-55,-193,-40,-283,39r-48,46v7,245,-27,532,52,702r-480,0","w":868},"s":{"d":"498,-1109v128,2,171,12,280,45r0,265v-50,-47,-138,-87,-227,-88v-47,-1,-89,25,-89,68v0,24,10,48,29,71v19,23,57,53,110,95v118,93,209,166,215,329v7,212,-187,351,-411,347v-158,-3,-206,-13,-350,-45r0,-288v84,66,139,111,259,115v58,2,123,-18,123,-64v0,-32,-11,-62,-32,-89v-21,-27,-61,-63,-120,-107v-73,-54,-126,-105,-159,-154v-33,-48,-49,-98,-49,-149v-2,-214,194,-355,421,-351","w":868},"t":{"d":"514,-386v1,86,40,120,128,120v84,0,118,-24,179,-64r-107,315v-84,25,-136,38,-234,38v-246,0,-341,-121,-342,-373r0,-510r-146,-1r522,-464r0,239r246,0r0,226r-246,0r0,474","w":831},"u":{"d":"542,-1086v-81,158,-58,448,-62,704v-1,89,34,150,116,151v42,0,80,-17,113,-50r0,-476v-1,-145,-11,-229,-52,-329r490,0v-43,87,-61,153,-62,276r0,547v1,114,16,176,52,263r-428,0r0,-123r-184,144v-266,22,-421,-107,-421,-361r0,-549v-3,-80,-22,-123,-52,-197r490,0","w":1208},"v":{"d":"125,-658v-46,-135,-82,-234,-109,-298v-27,-64,-50,-107,-70,-130r447,0v-6,104,14,165,44,271r145,520r146,-465v43,-143,74,-213,84,-326r310,0v-80,111,-121,233,-189,428r-230,658r-361,0","w":1133},"w":{"d":"316,0r-200,-658v-63,-194,-92,-313,-167,-428r444,0v-12,101,4,164,27,271r92,422r179,-693r306,0r171,718r90,-392v29,-132,52,-202,41,-326r321,0v-70,112,-107,234,-163,428r-190,658r-317,0r-152,-639r-165,639r-317,0","w":1624},"x":{"d":"-21,0v105,-75,165,-161,264,-299r187,-262r-71,-97v-105,-140,-184,-242,-239,-306v-55,-64,-98,-105,-127,-122r539,0v22,99,65,158,122,265v39,-74,113,-191,134,-265r491,0v-98,74,-159,161,-262,299r-172,231r95,128v108,143,189,248,242,312v53,64,91,103,114,116r-503,0v-23,-114,-97,-209,-160,-322r-48,94v-43,86,-70,137,-82,228r-524,0","w":1284},"y":{"d":"400,340r-455,0v158,-109,343,-335,456,-506r-239,-492v-70,-143,-123,-248,-158,-312v-35,-64,-61,-103,-77,-116r446,0v16,94,47,156,96,271r117,274r83,-219v44,-123,72,-193,73,-326r428,0v-70,110,-120,231,-202,428r-221,535v-67,166,-212,395,-347,463","w":1133},"z":{"d":"0,0v201,-334,304,-519,451,-858v-170,0,-265,13,-354,79r63,-307r770,0v-181,333,-274,517,-401,856v178,-7,284,-15,385,-82r-85,312r-829,0","w":944},"{":{"d":"647,99v4,174,61,189,249,185r0,192v-363,9,-485,-39,-493,-377r0,-266v-1,-180,-78,-259,-242,-280r0,-194v164,-22,242,-100,242,-280r0,-266v8,-337,130,-386,493,-377r0,192v-188,-4,-249,11,-249,185r0,266v-3,212,-61,319,-208,378v151,55,208,166,208,376r0,266","w":1020},"|":{"d":"458,512r0,-2048r105,0r0,2048r-105,0","w":1020},"}":{"d":"893,-447v-163,22,-241,100,-241,280r0,266v-8,337,-130,386,-493,377r0,-192v188,4,249,-11,249,-185r0,-266v4,-210,58,-322,208,-376v-149,-60,-208,-165,-208,-378r0,-266v-4,-174,-61,-189,-249,-185r0,-192v363,-9,485,39,493,377r0,266v1,179,78,258,241,280r0,194","w":1020},"~":{"d":"710,-553v-99,-4,-221,60,-264,121r-32,-66v54,-109,190,-240,327,-243v241,-6,399,132,645,135v102,1,223,-59,261,-124r37,56v-36,126,-177,256,-327,256v-201,0,-431,-127,-647,-135","w":2039},"\u00a0":{"w":755},"\u00a1":{"d":"131,467v83,-159,56,-461,60,-715v3,-151,87,-290,188,-352v101,64,185,200,188,352v4,253,-23,556,60,715r-496,0xm601,-891v0,121,-101,222,-222,222v-121,0,-222,-101,-222,-222v0,-121,101,-222,222,-222v121,0,222,101,222,222","w":755},"\u00a2":{"d":"487,-797v1,200,71,312,260,312v196,0,319,-51,477,-123r-131,347v-159,42,-214,57,-388,59v-368,1,-571,-220,-571,-593v0,-386,235,-598,627,-595v181,2,236,17,409,56r-13,293v-140,-49,-193,-68,-356,-70v-196,-2,-315,118,-314,314xm629,-1552r253,0r0,1531r-253,0r0,-1531"},"\u00a3":{"d":"808,-1315v-140,0,-198,86,-198,233v0,56,4,107,9,157r292,0r0,259r-269,0v2,154,1,265,-45,392r119,0v231,-3,374,0,502,-60r-42,334r-1052,0v102,-125,190,-351,166,-577r-8,-89r-168,0r0,-259r149,0r-1,-162v-4,-300,184,-504,480,-501v140,2,189,19,307,62r0,290v-64,-41,-151,-79,-241,-79"},"\u00a4":{"d":"679,-416v155,0,284,-129,284,-284v0,-155,-129,-284,-284,-284v-155,0,-284,129,-284,284v0,155,129,284,284,284xm951,-296v-152,105,-392,107,-544,0r-136,136r-132,-132r136,-136v-108,-152,-104,-392,-1,-545r-135,-135r132,-132r136,136v151,-107,393,-107,544,0r136,-136r132,132r-136,136v106,153,108,392,-1,543r137,137r-132,132"},"\u00a5":{"d":"877,-212v4,84,23,143,50,212r-481,0v28,-69,43,-130,51,-212r-237,0r0,-136r241,0r0,-113r-241,0r0,-136r241,0r0,-99r-273,-532v-78,-145,-124,-233,-208,-329r468,0v6,60,18,95,40,144r166,372r195,-372v25,-44,35,-82,45,-144r410,0v-77,92,-128,182,-207,329r-265,494r0,137r240,0r0,136r-240,0r0,113r240,0r0,136r-235,0"},"\u00a6":{"d":"458,461r0,-919r105,0r0,919r-105,0xm458,-564r0,-919r105,0r0,919r-105,0","w":1020},"\u00a7":{"d":"263,-1202v-2,-236,209,-391,458,-386v137,3,182,13,306,45r0,294v-92,-67,-163,-109,-296,-113v-77,-2,-146,42,-146,113v0,33,16,64,48,93v32,29,89,64,170,104v149,73,253,142,313,208v153,169,93,464,-80,579v50,61,74,130,74,207v0,248,-226,408,-490,402v-153,-3,-215,-33,-326,-97r0,-308v87,105,165,174,326,179v90,2,168,-50,168,-134v0,-39,-17,-72,-50,-101v-33,-29,-109,-74,-226,-136v-131,-69,-223,-133,-275,-193v-134,-155,-86,-403,69,-520r33,-25v-51,-65,-76,-135,-76,-211xm815,-438v74,-48,92,-161,19,-228v-50,-46,-210,-114,-290,-160v-70,51,-89,151,-14,216v50,43,201,123,285,172"},"\u00a8":{"d":"271,-1394v0,-96,79,-175,175,-175v96,0,175,79,175,175v0,96,-79,175,-175,175v-96,0,-175,-79,-175,-175xm741,-1394v0,-96,79,-175,175,-175v96,0,175,79,175,175v0,96,-79,175,-175,175v-96,0,-175,-79,-175,-175"},"\u00a9":{"d":"662,-861v53,0,115,-34,138,-67r58,62v-29,44,-122,80,-196,80v-145,0,-263,-127,-263,-274v0,-188,182,-333,375,-253v37,16,64,33,79,54r-58,62v-22,-32,-84,-63,-136,-63v-104,0,-185,94,-185,200v0,107,83,199,188,199xm628,-1529v261,0,478,217,478,478v0,260,-217,477,-478,477v-260,0,-477,-217,-477,-477v0,-261,217,-478,477,-478xm1041,-1051v0,-225,-188,-413,-413,-413v-225,0,-412,188,-412,413v0,225,187,412,412,412v225,0,413,-187,413,-412","w":1020},"\u00aa":{"d":"775,-1317v0,180,-22,392,36,519r-277,0r0,-70r-86,74v-155,51,-300,-60,-298,-204v3,-205,217,-233,377,-307v1,-107,-132,-137,-224,-95v-27,12,-55,33,-85,62r54,-199v87,-27,119,-35,224,-36v164,-2,279,96,279,256xm380,-1028v0,87,98,112,149,56r0,-150r-116,0v-17,2,-33,69,-33,94","w":944},"\u00ab":{"d":"547,-967v-65,95,-132,253,-187,370r78,169v32,66,76,158,109,202r-358,0v-29,-135,-106,-250,-155,-371r78,-169v27,-58,65,-146,77,-201r358,0xm1026,-967v-65,95,-132,253,-187,370r78,169v32,66,76,158,109,202r-358,0v-29,-135,-106,-250,-155,-371r78,-169v27,-58,65,-146,77,-201r358,0","w":1057},"\u00ac":{"d":"1193,-197v33,-106,25,-289,26,-433r-629,0v-74,-1,-186,9,-236,26r0,-399v49,17,162,27,236,26r976,0r0,544v-1,76,9,186,26,236r-399,0","w":2001},"\u00ad":{"d":"460,-482v-125,0,-279,-6,-372,23r0,-352v92,29,248,23,372,23v66,0,164,-8,208,-23r0,352v-43,-15,-143,-23,-208,-23","w":755},"\u00ae":{"d":"795,-1166v0,62,-39,116,-89,136r89,223r-91,0r-84,-212r-84,0r0,212r-75,0r0,-506r187,0v81,-2,147,66,147,147xm648,-1094v39,1,72,-33,72,-72v0,-39,-33,-72,-72,-72r-112,0r0,144r112,0xm628,-1524v261,0,478,217,478,478v0,260,-217,477,-478,477v-260,0,-477,-217,-477,-477v0,-261,217,-478,477,-478xm1041,-1046v0,-225,-188,-413,-413,-413v-225,0,-412,188,-412,413v0,225,187,412,412,412v225,0,413,-187,413,-412","w":1020},"\u00af":{"d":"0,-1526r0,-105r1020,0r0,105r-1020,0","w":1020},"\u00b0":{"d":"191,-1210v0,-206,171,-378,377,-378v207,0,378,171,378,378v0,206,-172,377,-378,377v-205,0,-377,-172,-377,-377xm568,-1053v86,0,158,-71,158,-157v0,-86,-72,-158,-158,-158v-86,0,-157,72,-157,158v0,86,71,157,157,157","w":1133},"\u00b1":{"d":"802,-2v33,-104,26,-283,26,-424v-143,0,-317,-6,-424,26r0,-398v105,32,283,26,424,26v0,-142,7,-318,-26,-424r398,0v-32,104,-26,284,-26,424v143,0,317,6,424,-26r0,398v-105,-32,-283,-26,-424,-26v1,142,-7,319,26,424r-398,0xm640,507v-74,-1,-186,9,-236,26r0,-399v49,17,162,27,236,26r722,0v74,1,186,-9,236,-26r0,399v-49,-17,-162,-27,-236,-26r-722,0","w":2001},"\u00b2":{"d":"489,-1573v179,0,335,83,337,245v0,51,-23,109,-66,175v-42,64,-140,178,-257,303v143,-2,267,11,381,-33r-65,241r-749,0v107,-111,379,-457,462,-577v30,-44,44,-79,44,-104v0,-38,-40,-61,-82,-60v-100,1,-129,77,-113,190r-228,-62v-28,-199,132,-318,336,-318","w":944},"\u00b3":{"d":"549,-935v0,-99,-106,-128,-222,-121r166,-293r-82,0v-117,0,-185,8,-269,36r58,-244r663,0r-210,371v88,42,168,142,168,248v0,182,-187,317,-381,312v-152,-4,-222,-30,-324,-95r94,-165v55,40,90,69,163,71v94,3,176,-37,176,-120","w":944},"\u00b4":{"d":"1101,-1573v-140,129,-204,197,-311,354r-269,0v79,-127,113,-194,149,-354r431,0"},"\u00b5":{"d":"482,23v-92,0,-158,-49,-181,-125r-134,464r-290,0r389,-1342r290,0r-160,552v-43,133,18,257,136,251v139,-7,184,-108,223,-244r162,-559r304,0r-284,980r-237,0r36,-127v-47,89,-138,150,-254,150","w":1208},"\u00b6":{"d":"296,-1045v-2,-304,264,-488,587,-481r260,0r0,80r-138,0r0,1772r-80,0r0,-1772r-98,0r0,1772r-80,0r0,-892v-260,-45,-449,-197,-451,-479"},"\u00b7":{"d":"155,-782v0,-121,101,-222,222,-222v121,0,222,101,222,222v0,121,-101,222,-222,222v-121,0,-222,-101,-222,-222","w":755},"\u00b8":{"d":"729,236v-2,-78,-75,-113,-167,-103r43,-115v16,-11,48,-18,75,-18v141,-3,248,98,247,236v-1,151,-179,283,-345,220v-31,-12,-59,-24,-83,-41r14,-129v24,23,83,52,123,53v55,1,94,-46,93,-103"},"\u00b9":{"d":"322,-642v27,-65,36,-120,36,-214r0,-418r-177,1r0,-2r423,-298r0,717v0,94,9,147,36,214r-318,0","w":944},"\u00ba":{"d":"454,-782v-222,0,-392,-152,-392,-369v0,-245,184,-422,430,-422v222,0,392,152,392,370v0,244,-184,421,-430,421xm529,-942v79,-76,101,-278,21,-379v-37,-47,-79,-79,-133,-92v-42,38,-73,130,-73,211v0,113,92,242,185,260","w":944},"\u00bb":{"d":"34,-226v65,-95,132,-253,187,-370r-78,-169v-32,-66,-76,-158,-109,-202r358,0v29,135,106,250,155,371r-78,169v-27,58,-65,146,-77,201r-358,0xm513,-226v65,-95,132,-253,187,-370r-78,-169v-32,-66,-76,-158,-109,-202r358,0v29,135,106,250,155,371r-78,169v-27,58,-65,146,-77,201r-358,0","w":1057},"\u2215":{"d":"683,-1596v-27,31,-68,102,-91,150r-640,1319v-21,41,-47,107,-55,150r-282,0v28,-31,68,-103,91,-150r640,-1319v20,-40,48,-106,55,-150r282,0","w":302},"\u2074":{"d":"425,-642v22,-69,20,-190,19,-284r-357,0r0,-194v87,-78,253,-283,337,-394v16,-23,25,-38,26,-43r249,0r0,448v48,1,111,-3,144,-14r0,211v-32,-11,-97,-15,-144,-14v0,95,-3,214,19,284r-293,0xm471,-1109r0,-226r-167,226r167,0","w":944},"\u00bc":{"d":"1456,-1596v-27,31,-68,102,-91,150r-640,1319v-21,41,-47,107,-55,150r-282,0v28,-31,68,-103,91,-150r640,-1319v20,-40,48,-106,55,-150r282,0xm281,-642v27,-65,36,-120,36,-214r0,-418r-177,1r0,-2r423,-298r0,717v0,94,9,147,36,214r-318,0xm1394,0v22,-69,20,-190,19,-284r-357,0r0,-194v87,-78,253,-283,337,-394v16,-23,25,-38,26,-43r249,0r0,448v48,1,111,-3,144,-14r0,211v-32,-11,-97,-15,-144,-14v0,95,-3,214,19,284r-293,0xm1440,-467r0,-226r-167,226r167,0","w":2001},"\u00bd":{"d":"1411,-1596v-27,31,-68,102,-91,150r-640,1319v-21,41,-47,107,-55,150r-282,0v28,-31,68,-103,91,-150r640,-1319v20,-40,48,-106,55,-150r282,0xm239,-642v27,-65,36,-120,36,-214r0,-418r-177,1r0,-2r423,-298r0,717v0,94,9,147,36,214r-318,0xm1417,-931v179,0,335,83,337,245v0,51,-23,109,-66,175v-42,64,-140,178,-257,303v143,-2,267,11,381,-33r-65,241r-749,0v107,-111,379,-457,462,-577v30,-44,44,-79,44,-104v0,-38,-40,-61,-82,-60v-100,1,-129,77,-113,190r-228,-62v-28,-199,132,-318,336,-318","w":2001},"\u00be":{"d":"1574,-1596v-27,31,-68,102,-91,150r-640,1319v-21,41,-47,107,-55,150r-282,0v28,-31,68,-103,91,-150r640,-1319v20,-40,48,-106,55,-150r282,0xm534,-935v0,-99,-106,-128,-222,-121r166,-293r-82,0v-117,0,-185,8,-269,36r58,-244r663,0r-210,371v88,42,168,142,168,248v0,182,-187,317,-381,312v-152,-4,-222,-30,-324,-95r94,-165v55,40,90,69,163,71v94,3,176,-37,176,-120xm1501,0v22,-69,20,-190,19,-284r-357,0r0,-194v87,-78,253,-283,337,-394v16,-23,25,-38,26,-43r249,0r0,448v48,1,111,-3,144,-14r0,211v-32,-11,-97,-15,-144,-14v0,95,-3,214,19,284r-293,0xm1547,-467r0,-226r-167,226r167,0","w":2001},"\u00bf":{"d":"527,-30v-2,125,92,223,217,219v90,-3,132,-42,186,-99r-33,357v-112,29,-148,39,-269,41v-298,5,-529,-206,-524,-499v5,-289,210,-417,474,-494v107,-31,159,-43,218,-84r0,305v-131,38,-267,103,-269,254xm905,-901v0,121,-101,222,-222,222v-121,0,-222,-101,-222,-222v0,-121,101,-222,222,-222v121,0,222,101,222,222","w":982},"\u00c0":{"d":"742,-1670v-123,-117,-190,-171,-329,-276r456,0v61,118,97,170,178,276r-305,0xm-53,0v75,-100,118,-186,177,-329r422,-1019v27,-64,62,-156,73,-217r348,0v10,59,47,155,73,217r423,1019v62,143,101,229,175,329r-499,0v5,-72,-11,-111,-36,-181r-77,-214r-499,0r-71,214v-23,71,-38,108,-33,181r-476,0xm768,-1112r-149,444r310,0","w":1586},"\u00c1":{"d":"1191,-1948v-138,105,-205,158,-326,278r-306,0v81,-106,117,-161,182,-278r450,0xm-53,0v75,-100,118,-186,177,-329r422,-1019v27,-64,62,-156,73,-217r348,0v10,59,47,155,73,217r423,1019v62,143,101,229,175,329r-499,0v5,-72,-11,-111,-36,-181r-77,-214r-499,0r-71,214v-23,71,-38,108,-33,181r-476,0xm768,-1112r-149,444r310,0","w":1586},"\u00c2":{"d":"333,-1670v110,-99,159,-154,244,-278r424,0v84,124,134,179,244,278r-305,0r-153,-135r-152,135r-302,0xm-53,0v75,-100,118,-186,177,-329r422,-1019v27,-64,62,-156,73,-217r348,0v10,59,47,155,73,217r423,1019v62,143,101,229,175,329r-499,0v5,-72,-11,-111,-36,-181r-77,-214r-499,0r-71,214v-23,71,-38,108,-33,181r-476,0xm768,-1112r-149,444r310,0","w":1586},"\u00c3":{"d":"628,-1737v-51,0,-90,26,-109,61r-237,0v56,-140,162,-224,348,-224v115,0,239,58,339,69v40,4,87,-36,98,-67r237,0v-58,133,-139,218,-307,224v-95,3,-320,-63,-369,-63xm-53,0v75,-100,118,-186,177,-329r422,-1019v27,-64,62,-156,73,-217r348,0v10,59,47,155,73,217r423,1019v62,143,101,229,175,329r-499,0v5,-72,-11,-111,-36,-181r-77,-214r-499,0r-71,214v-23,71,-38,108,-33,181r-476,0xm768,-1112r-149,444r310,0","w":1586},"\u00c4":{"d":"339,-1855v0,-96,79,-175,175,-175v96,0,175,79,175,175v0,96,-79,175,-175,175v-96,0,-175,-79,-175,-175xm897,-1855v0,-96,79,-175,175,-175v96,0,175,79,175,175v0,96,-79,175,-175,175v-96,0,-175,-79,-175,-175xm-53,0v75,-100,118,-186,177,-329r422,-1019v27,-64,62,-156,73,-217r348,0v10,59,47,155,73,217r423,1019v62,143,101,229,175,329r-499,0v5,-72,-11,-111,-36,-181r-77,-214r-499,0r-71,214v-23,71,-38,108,-33,181r-476,0xm768,-1112r-149,444r310,0","w":1586},"\u00c5":{"d":"793,-1614v-118,0,-217,-99,-217,-217v0,-119,98,-218,217,-218v120,0,218,98,218,218v0,119,-99,217,-218,217xm793,-1726v58,0,107,-47,107,-105v0,-59,-49,-106,-107,-106v-59,0,-106,47,-106,106v0,58,48,105,106,105xm-53,0v75,-100,118,-186,177,-329r422,-1019v27,-64,62,-156,73,-217r348,0v10,59,47,155,73,217r423,1019v62,143,101,229,175,329r-499,0v5,-72,-11,-111,-36,-181r-77,-214r-499,0r-71,214v-23,71,-38,108,-33,181r-476,0xm768,-1112r-149,444r310,0","w":1586},"\u00c6":{"d":"970,0v49,-112,57,-230,55,-395r-434,0v-45,98,-111,199,-143,305v-8,27,-10,57,-10,90r-474,0v79,-94,123,-185,195,-329r521,-1055v37,-78,66,-116,71,-181r1204,0r-154,341v-66,-34,-250,-62,-363,-68r0,358r483,0r-189,343v-59,-29,-196,-57,-294,-65r0,380v263,-10,424,-48,606,-142r-173,418r-901,0xm1025,-1252r-296,584r296,0r0,-584","w":2077},"\u00c7":{"d":"841,231v0,-87,-119,-113,-193,-76r45,-120v32,-20,97,-35,151,-35v122,0,208,96,207,220v-2,163,-164,316,-345,256v-32,-11,-63,-21,-92,-36r15,-142v28,18,83,44,121,45v56,1,91,-52,91,-112xm943,-281v223,0,328,-87,460,-219r0,406v-195,84,-285,118,-531,122v-450,7,-784,-327,-784,-775v0,-488,368,-849,858,-841v188,3,243,17,431,54r0,407v-143,-97,-227,-148,-434,-151v-249,-4,-409,219,-409,480v0,290,140,517,409,517","w":1473},"\u00c8":{"d":"552,-1670v-123,-117,-190,-171,-329,-276r456,0v61,118,97,170,178,276r-305,0xm192,-1236v0,-144,-14,-227,-55,-329r968,0r-154,341v-62,-32,-237,-60,-346,-66r0,356r466,0r-189,343v-55,-27,-183,-55,-277,-63r0,378v255,-12,412,-50,590,-142r-173,418r-885,0v41,-102,55,-185,55,-329r0,-907","w":1246},"\u00c9":{"d":"1001,-1948v-138,105,-205,158,-326,278r-306,0v81,-106,117,-161,182,-278r450,0xm192,-1236v0,-144,-14,-227,-55,-329r968,0r-154,341v-62,-32,-237,-60,-346,-66r0,356r466,0r-189,343v-55,-27,-183,-55,-277,-63r0,378v255,-12,412,-50,590,-142r-173,418r-885,0v41,-102,55,-185,55,-329r0,-907","w":1246},"\u00ca":{"d":"143,-1670v110,-99,159,-154,244,-278r424,0v84,124,134,179,244,278r-305,0r-153,-135r-152,135r-302,0xm192,-1236v0,-144,-14,-227,-55,-329r968,0r-154,341v-62,-32,-237,-60,-346,-66r0,356r466,0r-189,343v-55,-27,-183,-55,-277,-63r0,378v255,-12,412,-50,590,-142r-173,418r-885,0v41,-102,55,-185,55,-329r0,-907","w":1246},"\u00cb":{"d":"149,-1855v0,-96,79,-175,175,-175v96,0,175,79,175,175v0,96,-79,175,-175,175v-96,0,-175,-79,-175,-175xm707,-1855v0,-96,79,-175,175,-175v96,0,175,79,175,175v0,96,-79,175,-175,175v-96,0,-175,-79,-175,-175xm192,-1236v0,-144,-14,-227,-55,-329r968,0r-154,341v-62,-32,-237,-60,-346,-66r0,356r466,0r-189,343v-55,-27,-183,-55,-277,-63r0,378v255,-12,412,-50,590,-142r-173,418r-885,0v41,-102,55,-185,55,-329r0,-907","w":1246},"\u00cc":{"d":"321,-1670v-123,-117,-190,-171,-329,-276r456,0v61,118,97,170,178,276r-305,0xm142,0v41,-102,55,-184,55,-329r0,-907v0,-144,-14,-226,-55,-329r523,0v-41,102,-55,185,-55,329r0,907v0,144,14,227,55,329r-523,0","w":793},"\u00cd":{"d":"815,-1948v-138,105,-205,158,-326,278r-306,0v81,-106,117,-161,182,-278r450,0xm140,0v41,-102,55,-184,55,-329r0,-907v0,-144,-14,-226,-55,-329r523,0v-41,102,-55,185,-55,329r0,907v0,144,14,227,55,329r-523,0","w":793},"\u00ce":{"d":"-51,-1670v110,-99,159,-154,244,-278r424,0v84,124,134,179,244,278r-305,0r-153,-135r-152,135r-302,0xm148,0v41,-102,55,-184,55,-329r0,-907v0,-144,-14,-226,-55,-329r523,0v-41,102,-55,185,-55,329r0,907v0,144,14,227,55,329r-523,0","w":793},"\u00cf":{"d":"-60,-1855v0,-96,79,-175,175,-175v96,0,175,79,175,175v0,96,-79,175,-175,175v-96,0,-175,-79,-175,-175xm498,-1855v0,-96,79,-175,175,-175v96,0,175,79,175,175v0,96,-79,175,-175,175v-96,0,-175,-79,-175,-175xm133,0v41,-102,55,-184,55,-329r0,-907v0,-144,-14,-226,-55,-329r523,0v-41,102,-55,185,-55,329r0,907v0,144,14,227,55,329r-523,0","w":793},"\u00d0":{"d":"1581,-782v0,493,-365,790,-876,782r-490,0v75,-156,51,-398,55,-626r-169,0r0,-313r169,0v-4,-227,20,-472,-55,-626r468,0v508,-10,898,298,898,783xm683,-306v288,10,452,-188,452,-472v0,-301,-165,-517,-452,-519r0,358r203,0r0,313r-203,0r0,320","w":1662},"\u00d1":{"d":"707,-1737v-51,0,-90,26,-109,61r-237,0v56,-140,162,-224,348,-224v115,0,239,58,339,69v40,4,87,-36,98,-67r237,0v-58,133,-139,218,-307,224v-95,3,-320,-63,-369,-63xm1545,-1236v0,422,-27,883,51,1236r-464,0v-16,-57,-65,-145,-98,-194r-439,-648r0,513v0,144,14,227,55,329r-506,0v41,-102,55,-185,55,-329r0,-992r-207,-244r568,0v58,118,113,198,201,329r388,573r0,-573v0,-144,-14,-227,-55,-329r506,0v-41,102,-55,185,-55,329","w":1737},"\u00d2":{"d":"874,-1670v-123,-117,-190,-171,-329,-276r456,0v61,118,97,170,178,276r-305,0xm925,28v-478,0,-841,-336,-841,-807v0,-472,363,-809,841,-809v479,0,841,336,841,809v0,472,-362,807,-841,807xm1159,-278v95,-85,161,-297,161,-482v0,-337,-275,-558,-629,-522v-95,86,-161,298,-161,484v0,336,277,556,629,520","w":1850},"\u00d3":{"d":"1323,-1948v-138,105,-205,158,-326,278r-306,0v81,-106,117,-161,182,-278r450,0xm925,28v-478,0,-841,-336,-841,-807v0,-472,363,-809,841,-809v479,0,841,336,841,809v0,472,-362,807,-841,807xm1159,-278v95,-85,161,-297,161,-482v0,-337,-275,-558,-629,-522v-95,86,-161,298,-161,484v0,336,277,556,629,520","w":1850},"\u00d4":{"d":"465,-1670v110,-99,159,-154,244,-278r424,0v84,124,134,179,244,278r-305,0r-153,-135r-152,135r-302,0xm925,28v-478,0,-841,-336,-841,-807v0,-472,363,-809,841,-809v479,0,841,336,841,809v0,472,-362,807,-841,807xm1159,-278v95,-85,161,-297,161,-482v0,-337,-275,-558,-629,-522v-95,86,-161,298,-161,484v0,336,277,556,629,520","w":1850},"\u00d5":{"d":"760,-1737v-51,0,-90,26,-109,61r-237,0v56,-140,162,-224,348,-224v115,0,239,58,339,69v40,4,87,-36,98,-67r237,0v-58,133,-139,218,-307,224v-95,3,-320,-63,-369,-63xm925,28v-478,0,-841,-336,-841,-807v0,-472,363,-809,841,-809v479,0,841,336,841,809v0,472,-362,807,-841,807xm1159,-278v95,-85,161,-297,161,-482v0,-337,-275,-558,-629,-522v-95,86,-161,298,-161,484v0,336,277,556,629,520","w":1850},"\u00d6":{"d":"471,-1855v0,-96,79,-175,175,-175v96,0,175,79,175,175v0,96,-79,175,-175,175v-96,0,-175,-79,-175,-175xm1029,-1855v0,-96,79,-175,175,-175v96,0,175,79,175,175v0,96,-79,175,-175,175v-96,0,-175,-79,-175,-175xm925,28v-478,0,-841,-336,-841,-807v0,-472,363,-809,841,-809v479,0,841,336,841,809v0,472,-362,807,-841,807xm1159,-278v95,-85,161,-297,161,-482v0,-337,-275,-558,-629,-522v-95,86,-161,298,-161,484v0,336,277,556,629,520","w":1850},"\u00d7":{"d":"1015,-361r-188,188v-47,46,-113,122,-140,175r-267,-267v135,-79,250,-221,363,-328r-186,-185v-49,-49,-130,-120,-184,-148r281,-281v80,136,224,255,333,370r188,-188v47,-46,113,-122,140,-175r267,267v-135,79,-250,221,-363,328r186,185v48,50,129,119,184,148r-281,281v-80,-137,-225,-255,-333,-370","w":2001},"\u00d8":{"d":"184,-112r1344,-1453r138,112r-1344,1453xm925,28v-478,0,-841,-336,-841,-807v0,-472,363,-809,841,-809v479,0,841,336,841,809v0,472,-362,807,-841,807xm1159,-278v95,-85,161,-297,161,-482v0,-337,-275,-558,-629,-522v-95,86,-161,298,-161,484v0,336,277,556,629,520","w":1850},"\u00d9":{"d":"771,-1670v-123,-117,-190,-171,-329,-276r456,0v61,118,97,170,178,276r-305,0xm648,-1565v-41,102,-55,184,-55,329r0,562v0,131,19,230,57,294v38,64,97,96,174,96v174,0,227,-136,227,-333r0,-619v0,-144,-14,-227,-55,-329r523,0v-41,102,-55,185,-55,329r0,907v0,144,14,227,55,329r-427,0r9,-115v-106,92,-244,138,-414,138v-363,0,-507,-224,-507,-608r0,-651v0,-144,-14,-227,-55,-329r523,0","w":1662},"\u00da":{"d":"1220,-1948v-138,105,-205,158,-326,278r-306,0v81,-106,117,-161,182,-278r450,0xm648,-1565v-41,102,-55,184,-55,329r0,562v0,131,19,230,57,294v38,64,97,96,174,96v174,0,227,-136,227,-333r0,-619v0,-144,-14,-227,-55,-329r523,0v-41,102,-55,185,-55,329r0,907v0,144,14,227,55,329r-427,0r9,-115v-106,92,-244,138,-414,138v-363,0,-507,-224,-507,-608r0,-651v0,-144,-14,-227,-55,-329r523,0","w":1662},"\u00db":{"d":"362,-1670v110,-99,159,-154,244,-278r424,0v84,124,134,179,244,278r-305,0r-153,-135r-152,135r-302,0xm648,-1565v-41,102,-55,184,-55,329r0,562v0,131,19,230,57,294v38,64,97,96,174,96v174,0,227,-136,227,-333r0,-619v0,-144,-14,-227,-55,-329r523,0v-41,102,-55,185,-55,329r0,907v0,144,14,227,55,329r-427,0r9,-115v-106,92,-244,138,-414,138v-363,0,-507,-224,-507,-608r0,-651v0,-144,-14,-227,-55,-329r523,0","w":1662},"\u00dc":{"d":"368,-1855v0,-96,79,-175,175,-175v96,0,175,79,175,175v0,96,-79,175,-175,175v-96,0,-175,-79,-175,-175xm926,-1855v0,-96,79,-175,175,-175v96,0,175,79,175,175v0,96,-79,175,-175,175v-96,0,-175,-79,-175,-175xm648,-1565v-41,102,-55,184,-55,329r0,562v0,131,19,230,57,294v38,64,97,96,174,96v174,0,227,-136,227,-333r0,-619v0,-144,-14,-227,-55,-329r523,0v-41,102,-55,185,-55,329r0,907v0,144,14,227,55,329r-427,0r9,-115v-106,92,-244,138,-414,138v-363,0,-507,-224,-507,-608r0,-651v0,-144,-14,-227,-55,-329r523,0","w":1662},"\u00dd":{"d":"1086,-1948v-138,105,-205,158,-326,278r-306,0v81,-106,117,-161,182,-278r450,0xm427,0v81,-172,49,-448,55,-695r-303,-541v-84,-145,-133,-233,-224,-329r515,0v10,59,21,94,46,144r177,366r204,-366v26,-47,40,-82,52,-144r474,0v-91,95,-146,183,-230,329r-298,517v7,253,-28,543,55,719r-523,0"},"\u00de":{"d":"138,0v41,-102,55,-184,55,-329r0,-907v0,-144,-14,-226,-55,-329r510,0v-42,98,-59,168,-55,298v391,-20,673,135,676,486v3,300,-280,492,-601,484r-74,1v0,127,17,203,54,296r-510,0xm593,-572v148,5,275,-76,275,-210v0,-138,-118,-223,-275,-210r0,420","w":1322},"\u00df":{"d":"776,-1045v13,-135,-40,-260,-154,-260v-43,0,-75,21,-96,63v-21,41,-31,106,-31,194r0,719v1,145,11,229,52,329r-480,0v30,-75,52,-116,52,-197r0,-851v1,-340,163,-513,502,-516v279,-2,488,204,483,483r-6,182v-75,0,-136,16,-136,78v0,71,45,102,97,143v132,104,224,196,228,392v4,193,-182,313,-389,309v-123,-2,-159,-10,-281,-34r0,-273v52,54,94,85,183,89v90,4,143,-90,92,-167v-15,-22,-36,-49,-65,-78v-102,-104,-184,-181,-192,-335v-6,-110,51,-206,141,-270","w":1322},"\u00e0":{"d":"468,-1219v-109,-155,-174,-221,-313,-354r432,0v35,160,72,224,151,354r-270,0xm935,-743v0,257,-30,562,52,743r-420,0r0,-116r-177,138v-208,18,-369,-103,-369,-290v0,-199,161,-308,341,-366r197,-64v-3,-100,-66,-154,-173,-153v-117,1,-157,13,-247,49r70,-257v128,-37,176,-48,328,-50v234,-3,398,138,398,366xm347,-349v2,80,44,117,126,117v34,-1,63,-5,86,-14r0,-201r-163,0v-23,0,-50,70,-49,98","w":1020},"\u00e1":{"d":"928,-1573v-140,129,-204,197,-311,354r-269,0v79,-127,113,-194,149,-354r431,0xm935,-743v0,257,-30,562,52,743r-420,0r0,-116r-177,138v-208,18,-369,-103,-369,-290v0,-199,161,-308,341,-366r197,-64v-3,-100,-66,-154,-173,-153v-117,1,-157,13,-247,49r70,-257v128,-37,176,-48,328,-50v234,-3,398,138,398,366xm347,-349v2,80,44,117,126,117v34,-1,63,-5,86,-14r0,-201r-163,0v-23,0,-50,70,-49,98","w":1020},"\u00e2":{"d":"124,-1219v97,-130,141,-201,212,-354r338,0v69,155,113,225,212,354r-287,0r-94,-177r-94,177r-287,0xm935,-743v0,257,-30,562,52,743r-420,0r0,-116r-177,138v-208,18,-369,-103,-369,-290v0,-199,161,-308,341,-366r197,-64v-3,-100,-66,-154,-173,-153v-117,1,-157,13,-247,49r70,-257v128,-37,176,-48,328,-50v234,-3,398,138,398,366xm347,-349v2,80,44,117,126,117v34,-1,63,-5,86,-14r0,-201r-163,0v-23,0,-50,70,-49,98","w":1020},"\u00e3":{"d":"351,-1260v-37,0,-67,18,-81,43r-180,0v39,-125,109,-212,255,-212v106,0,220,41,323,45v28,0,64,-24,72,-45r180,0v-38,129,-105,212,-255,212v-98,0,-211,-43,-314,-43xm935,-743v0,257,-30,562,52,743r-420,0r0,-116r-177,138v-208,18,-369,-103,-369,-290v0,-199,161,-308,341,-366r197,-64v-3,-100,-66,-154,-173,-153v-117,1,-157,13,-247,49r70,-257v128,-37,176,-48,328,-50v234,-3,398,138,398,366xm347,-349v2,80,44,117,126,117v34,-1,63,-5,86,-14r0,-201r-163,0v-23,0,-50,70,-49,98","w":1020},"\u00e4":{"d":"95,-1394v0,-96,79,-175,175,-175v96,0,175,79,175,175v0,96,-79,175,-175,175v-96,0,-175,-79,-175,-175xm565,-1394v0,-96,79,-175,175,-175v96,0,175,79,175,175v0,96,-79,175,-175,175v-96,0,-175,-79,-175,-175xm935,-743v0,257,-30,562,52,743r-420,0r0,-116r-177,138v-208,18,-369,-103,-369,-290v0,-199,161,-308,341,-366r197,-64v-3,-100,-66,-154,-173,-153v-117,1,-157,13,-247,49r70,-257v128,-37,176,-48,328,-50v234,-3,398,138,398,366xm347,-349v2,80,44,117,126,117v34,-1,63,-5,86,-14r0,-201r-163,0v-23,0,-50,70,-49,98","w":1020},"\u00e5":{"d":"505,-1224v-105,0,-192,-87,-192,-192v0,-105,87,-193,192,-193v105,0,193,88,193,193v0,105,-88,192,-193,192xm505,-1343v40,0,74,-33,74,-73v0,-40,-34,-74,-74,-74v-40,0,-73,34,-73,74v0,40,33,73,73,73xm935,-743v0,257,-30,562,52,743r-420,0r0,-116r-177,138v-208,18,-369,-103,-369,-290v0,-199,161,-308,341,-366r197,-64v-3,-100,-66,-154,-173,-153v-117,1,-157,13,-247,49r70,-257v128,-37,176,-48,328,-50v234,-3,398,138,398,366xm347,-349v2,80,44,117,126,117v34,-1,63,-5,86,-14r0,-201r-163,0v-23,0,-50,70,-49,98","w":1020},"\u00e6":{"d":"566,-698v-2,-100,-67,-154,-173,-153v-117,1,-157,13,-247,49r70,-257v181,-61,436,-81,584,21v75,-47,161,-70,260,-71v336,-5,505,278,445,634r-573,0v32,146,133,251,301,248v109,-1,214,-41,284,-91r-132,318v-300,61,-587,2,-721,-186r-267,208v-208,18,-369,-103,-369,-290v0,-201,161,-307,341,-366xm354,-349v2,80,44,117,126,117v34,-1,63,-5,86,-14r0,-201r-163,0v-23,0,-50,70,-49,98xm1059,-885v-96,1,-135,90,-141,199r274,0v5,-113,-29,-201,-133,-199","w":1548},"\u00e7":{"d":"602,236v-2,-78,-75,-113,-167,-103r43,-115v16,-11,48,-18,75,-18v141,-3,248,98,247,236v-1,151,-180,283,-346,220v-31,-12,-58,-24,-82,-41r14,-129v24,23,83,52,123,53v55,1,94,-46,93,-103xm441,-541v0,179,98,311,269,309v102,-1,190,-41,260,-88r-132,320v-97,15,-123,22,-215,23v-326,6,-566,-239,-566,-565v0,-337,274,-573,620,-567v116,2,154,11,247,45r-13,281v-74,-44,-113,-68,-211,-69v-167,-2,-259,134,-259,311","w":982},"\u00e8":{"d":"519,-1219v-109,-155,-174,-221,-313,-354r432,0v35,160,72,224,151,354r-270,0xm432,-475v32,146,133,251,301,248v109,-1,214,-41,284,-91r-132,318v-106,15,-134,22,-232,23v-359,4,-597,-211,-597,-565v0,-314,202,-567,504,-567v336,0,505,278,445,634r-573,0xm559,-885v-96,1,-135,90,-141,199r274,0v5,-113,-29,-201,-133,-199","w":1057},"\u00e9":{"d":"979,-1573v-140,129,-204,197,-311,354r-269,0v79,-127,113,-194,149,-354r431,0xm432,-475v32,146,133,251,301,248v109,-1,214,-41,284,-91r-132,318v-106,15,-134,22,-232,23v-359,4,-597,-211,-597,-565v0,-314,202,-567,504,-567v336,0,505,278,445,634r-573,0xm559,-885v-96,1,-135,90,-141,199r274,0v5,-113,-29,-201,-133,-199","w":1057},"\u00ea":{"d":"175,-1219v97,-130,141,-201,212,-354r338,0v69,155,113,225,212,354r-287,0r-94,-177r-94,177r-287,0xm432,-475v32,146,133,251,301,248v109,-1,214,-41,284,-91r-132,318v-106,15,-134,22,-232,23v-359,4,-597,-211,-597,-565v0,-314,202,-567,504,-567v336,0,505,278,445,634r-573,0xm559,-885v-96,1,-135,90,-141,199r274,0v5,-113,-29,-201,-133,-199","w":1057},"\u00eb":{"d":"146,-1394v0,-96,79,-175,175,-175v96,0,175,79,175,175v0,96,-79,175,-175,175v-96,0,-175,-79,-175,-175xm616,-1394v0,-96,79,-175,175,-175v96,0,175,79,175,175v0,96,-79,175,-175,175v-96,0,-175,-79,-175,-175xm432,-475v32,146,133,251,301,248v109,-1,214,-41,284,-91r-132,318v-106,15,-134,22,-232,23v-359,4,-597,-211,-597,-565v0,-314,202,-567,504,-567v336,0,505,278,445,634r-573,0xm559,-885v-96,1,-135,90,-141,199r274,0v5,-113,-29,-201,-133,-199","w":1057},"\u0131":{"d":"60,0v84,-185,52,-496,52,-757v0,-145,-11,-229,-52,-329r490,0v-86,168,-62,489,-62,757v0,145,11,229,52,329r-480,0","w":604},"\u00ec":{"d":"257,-1219v-109,-155,-174,-221,-313,-354r432,0v35,160,72,224,151,354r-270,0xm54,0v84,-185,52,-496,52,-757v0,-145,-11,-229,-52,-329r490,0v-86,168,-62,489,-62,757v0,145,11,229,52,329r-480,0","w":604},"\u00ed":{"d":"723,-1573v-140,129,-204,197,-311,354r-269,0v79,-127,113,-194,149,-354r431,0xm60,0v84,-185,52,-496,52,-757v0,-145,-11,-229,-52,-329r490,0v-86,168,-62,489,-62,757v0,145,11,229,52,329r-480,0","w":604},"\u00ee":{"d":"-79,-1219v97,-130,141,-201,212,-354r338,0v69,155,113,225,212,354r-287,0r-94,-177r-94,177r-287,0xm62,0v84,-185,52,-496,52,-757v0,-145,-11,-229,-52,-329r490,0v-86,168,-62,489,-62,757v0,145,11,229,52,329r-480,0","w":604},"\u00ef":{"d":"-107,-1394v0,-96,79,-175,175,-175v96,0,175,79,175,175v0,96,-79,175,-175,175v-96,0,-175,-79,-175,-175xm363,-1394v0,-96,79,-175,175,-175v96,0,175,79,175,175v0,96,-79,175,-175,175v-96,0,-175,-79,-175,-175xm63,0v84,-185,52,-496,52,-757v0,-145,-11,-229,-52,-329r490,0v-86,168,-62,489,-62,757v0,145,11,229,52,329r-480,0","w":604},"\u00f0":{"d":"1200,-592v12,333,-271,615,-603,615v-328,0,-549,-234,-549,-564v0,-323,254,-564,576,-563r-299,-399r311,-54r316,395v108,131,241,374,248,570xm529,-888v-60,54,-109,177,-109,289v0,200,124,380,287,415v60,-54,109,-176,109,-287v0,-201,-123,-382,-287,-417xm256,-1275r681,-256r56,104r-681,256","w":1246},"\u00f1":{"d":"454,-1260v-37,0,-67,18,-81,43r-180,0v39,-125,109,-212,255,-212v106,0,220,41,323,45v28,0,64,-24,72,-45r180,0v-38,129,-105,212,-255,212v-98,0,-211,-43,-314,-43xm61,0v84,-185,52,-496,52,-757v0,-145,-11,-229,-52,-329r428,0r0,208r200,-216v26,-10,56,-15,90,-15v208,-1,326,117,325,325r0,455v1,145,11,229,52,329r-480,0v76,-162,47,-426,52,-660v2,-94,-36,-159,-123,-160v-44,0,-83,11,-116,34r0,457v1,145,11,229,52,329r-480,0","w":1208},"\u00f2":{"d":"587,-1219v-109,-155,-174,-221,-313,-354r432,0v35,160,72,224,151,354r-270,0xm597,23v-310,0,-549,-215,-549,-520v0,-350,254,-612,603,-612v312,0,549,215,549,522v0,350,-254,610,-603,610xm700,-195v62,-56,116,-176,116,-288v0,-200,-136,-373,-304,-408v-54,51,-88,179,-88,290v0,196,118,372,276,406","w":1246},"\u00f3":{"d":"1047,-1573v-140,129,-204,197,-311,354r-269,0v79,-127,113,-194,149,-354r431,0xm597,23v-310,0,-549,-215,-549,-520v0,-350,254,-612,603,-612v312,0,549,215,549,522v0,350,-254,610,-603,610xm700,-195v62,-56,116,-176,116,-288v0,-200,-136,-373,-304,-408v-54,51,-88,179,-88,290v0,196,118,372,276,406","w":1246},"\u00f4":{"d":"243,-1219v97,-130,141,-201,212,-354r338,0v69,155,113,225,212,354r-287,0r-94,-177r-94,177r-287,0xm597,23v-310,0,-549,-215,-549,-520v0,-350,254,-612,603,-612v312,0,549,215,549,522v0,350,-254,610,-603,610xm700,-195v62,-56,116,-176,116,-288v0,-200,-136,-373,-304,-408v-54,51,-88,179,-88,290v0,196,118,372,276,406","w":1246},"\u00f5":{"d":"470,-1260v-37,0,-67,18,-81,43r-180,0v39,-125,109,-212,255,-212v106,0,220,41,323,45v28,0,64,-24,72,-45r180,0v-38,129,-105,212,-255,212v-98,0,-211,-43,-314,-43xm597,23v-310,0,-549,-215,-549,-520v0,-350,254,-612,603,-612v312,0,549,215,549,522v0,350,-254,610,-603,610xm700,-195v62,-56,116,-176,116,-288v0,-200,-136,-373,-304,-408v-54,51,-88,179,-88,290v0,196,118,372,276,406","w":1246},"\u00f6":{"d":"214,-1394v0,-96,79,-175,175,-175v96,0,175,79,175,175v0,96,-79,175,-175,175v-96,0,-175,-79,-175,-175xm684,-1394v0,-96,79,-175,175,-175v96,0,175,79,175,175v0,96,-79,175,-175,175v-96,0,-175,-79,-175,-175xm597,23v-310,0,-549,-215,-549,-520v0,-350,254,-612,603,-612v312,0,549,215,549,522v0,350,-254,610,-603,610xm700,-195v62,-56,116,-176,116,-288v0,-200,-136,-373,-304,-408v-54,51,-88,179,-88,290v0,196,118,372,276,406","w":1246},"\u00f7":{"d":"806,-131v0,-105,89,-194,194,-194v105,0,194,89,194,194v0,105,-89,194,-194,194v-105,0,-194,-89,-194,-194xm639,-426v-74,-1,-186,9,-236,26r0,-399v49,17,162,27,236,26r722,0v74,1,186,-9,236,-26r0,399v-49,-17,-162,-27,-236,-26r-722,0xm806,-1068v0,-105,89,-194,194,-194v105,0,194,89,194,194v0,105,-89,194,-194,194v-105,0,-194,-89,-194,-194","w":2001},"\u00f8":{"d":"94,-63r944,-1061r116,90r-944,1061xm597,23v-310,0,-549,-215,-549,-520v0,-350,254,-612,603,-612v312,0,549,215,549,522v0,350,-254,610,-603,610xm701,-195v61,-54,114,-167,115,-274v3,-205,-131,-385,-300,-422v-52,48,-84,171,-84,276v0,200,111,385,269,420","w":1246},"\u00f9":{"d":"557,-1219v-109,-155,-174,-221,-313,-354r432,0v35,160,72,224,151,354r-270,0xm542,-1086v-81,158,-58,448,-62,704v-1,89,34,150,116,151v42,0,80,-17,113,-50r0,-476v-1,-145,-11,-229,-52,-329r490,0v-43,87,-61,153,-62,276r0,547v1,114,16,176,52,263r-428,0r0,-123r-184,144v-266,22,-421,-107,-421,-361r0,-549v-3,-80,-22,-123,-52,-197r490,0","w":1208},"\u00fa":{"d":"1017,-1573v-140,129,-204,197,-311,354r-269,0v79,-127,113,-194,149,-354r431,0xm542,-1086v-81,158,-58,448,-62,704v-1,89,34,150,116,151v42,0,80,-17,113,-50r0,-476v-1,-145,-11,-229,-52,-329r490,0v-43,87,-61,153,-62,276r0,547v1,114,16,176,52,263r-428,0r0,-123r-184,144v-266,22,-421,-107,-421,-361r0,-549v-3,-80,-22,-123,-52,-197r490,0","w":1208},"\u00fb":{"d":"213,-1219v97,-130,141,-201,212,-354r338,0v69,155,113,225,212,354r-287,0r-94,-177r-94,177r-287,0xm542,-1086v-81,158,-58,448,-62,704v-1,89,34,150,116,151v42,0,80,-17,113,-50r0,-476v-1,-145,-11,-229,-52,-329r490,0v-43,87,-61,153,-62,276r0,547v1,114,16,176,52,263r-428,0r0,-123r-184,144v-266,22,-421,-107,-421,-361r0,-549v-3,-80,-22,-123,-52,-197r490,0","w":1208},"\u00fc":{"d":"184,-1394v0,-96,79,-175,175,-175v96,0,175,79,175,175v0,96,-79,175,-175,175v-96,0,-175,-79,-175,-175xm654,-1394v0,-96,79,-175,175,-175v96,0,175,79,175,175v0,96,-79,175,-175,175v-96,0,-175,-79,-175,-175xm542,-1086v-81,158,-58,448,-62,704v-1,89,34,150,116,151v42,0,80,-17,113,-50r0,-476v-1,-145,-11,-229,-52,-329r490,0v-43,87,-61,153,-62,276r0,547v1,114,16,176,52,263r-428,0r0,-123r-184,144v-266,22,-421,-107,-421,-361r0,-549v-3,-80,-22,-123,-52,-197r490,0","w":1208},"\u00fd":{"d":"1015,-1573v-140,129,-204,197,-311,354r-269,0v79,-127,113,-194,149,-354r431,0xm400,340r-455,0v158,-109,343,-335,456,-506r-239,-492v-70,-143,-123,-248,-158,-312v-35,-64,-61,-103,-77,-116r446,0v16,94,47,156,96,271r117,274r83,-219v44,-123,72,-193,73,-326r428,0v-70,110,-120,231,-202,428r-221,535v-67,166,-212,395,-347,463","w":1133},"\u00fe":{"d":"63,344v42,-105,58,-185,59,-329r0,-1188v-1,-145,-11,-229,-52,-329r490,-55v-39,78,-62,130,-62,230r0,394r141,-165v320,-66,531,184,531,489v0,185,-46,335,-130,455v-122,174,-336,221,-542,133v-2,156,16,251,65,365r-500,0xm790,-522v-4,-165,-36,-292,-176,-292v-43,0,-82,17,-116,48r0,522v178,60,296,-100,292,-278","w":1208},"\u00ff":{"d":"182,-1394v0,-96,79,-175,175,-175v96,0,175,79,175,175v0,96,-79,175,-175,175v-96,0,-175,-79,-175,-175xm652,-1394v0,-96,79,-175,175,-175v96,0,175,79,175,175v0,96,-79,175,-175,175v-96,0,-175,-79,-175,-175xm400,340r-455,0v158,-109,343,-335,456,-506r-239,-492v-70,-143,-123,-248,-158,-312v-35,-64,-61,-103,-77,-116r446,0v16,94,47,156,96,271r117,274r83,-219v44,-123,72,-193,73,-326r428,0v-70,110,-120,231,-202,428r-221,535v-67,166,-212,395,-347,463","w":1133},"\u0100":{"d":"330,-1901r926,0r0,211r-926,0r0,-211xm-53,0v75,-100,118,-186,177,-329r422,-1019v27,-64,62,-156,73,-217r348,0v10,59,47,155,73,217r423,1019v62,143,101,229,175,329r-499,0v5,-72,-11,-111,-36,-181r-77,-214r-499,0r-71,214v-23,71,-38,108,-33,181r-476,0xm768,-1112r-149,444r310,0","w":1586},"\u0101":{"d":"95,-1471r820,0r0,229r-820,0r0,-229xm935,-743v0,257,-30,562,52,743r-420,0r0,-116r-177,138v-208,18,-369,-103,-369,-290v0,-199,161,-308,341,-366r197,-64v-3,-100,-66,-154,-173,-153v-117,1,-157,13,-247,49r70,-257v128,-37,176,-48,328,-50v234,-3,398,138,398,366xm347,-349v2,80,44,117,126,117v34,-1,63,-5,86,-14r0,-201r-163,0v-23,0,-50,70,-49,98","w":1020},"\u0102":{"d":"1155,-1966v-22,162,-174,273,-362,273v-187,0,-339,-111,-361,-273r170,0v62,98,321,99,383,0r170,0xm-53,0v75,-100,118,-186,177,-329r422,-1019v27,-64,62,-156,73,-217r348,0v10,59,47,155,73,217r423,1019v62,143,101,229,175,329r-499,0v5,-72,-11,-111,-36,-181r-77,-214r-499,0r-71,214v-23,71,-38,108,-33,181r-476,0xm768,-1112r-149,444r310,0","w":1586},"\u0103":{"d":"859,-1487v-22,161,-170,273,-354,273v-184,0,-332,-112,-354,-273r170,0v60,97,308,98,368,0r170,0xm935,-743v0,257,-30,562,52,743r-420,0r0,-116r-177,138v-208,18,-369,-103,-369,-290v0,-199,161,-308,341,-366r197,-64v-3,-100,-66,-154,-173,-153v-117,1,-157,13,-247,49r70,-257v128,-37,176,-48,328,-50v234,-3,398,138,398,366xm347,-349v2,80,44,117,126,117v34,-1,63,-5,86,-14r0,-201r-163,0v-23,0,-50,70,-49,98","w":1020},"\u0104":{"d":"1298,436v-180,50,-344,-61,-339,-225v4,-119,94,-182,193,-236r214,0v-71,47,-124,89,-159,127v-35,38,-53,71,-53,100v0,60,47,99,110,97v41,-1,86,-17,124,-33r-6,139v-23,13,-51,22,-84,31xm-53,0v75,-100,118,-186,177,-329r422,-1019v27,-64,62,-156,73,-217r348,0v10,59,47,155,73,217r423,1019v62,143,101,229,175,329r-499,0v5,-72,-11,-111,-36,-181r-77,-214r-499,0r-71,214v-23,71,-38,108,-33,181r-476,0xm768,-1112r-149,444r310,0","w":1586},"\u0105":{"d":"792,436v-180,50,-344,-61,-339,-225v4,-118,95,-183,194,-236r214,0v-71,47,-125,89,-160,127v-35,38,-53,71,-53,100v0,60,48,99,111,97v41,-1,86,-17,124,-33r-6,139v-23,13,-52,22,-85,31xm935,-743v0,257,-30,562,52,743r-420,0r0,-116r-177,138v-208,18,-369,-103,-369,-290v0,-199,161,-308,341,-366r197,-64v-3,-100,-66,-154,-173,-153v-117,1,-157,13,-247,49r70,-257v128,-37,176,-48,328,-50v234,-3,398,138,398,366xm347,-349v2,80,44,117,126,117v34,-1,63,-5,86,-14r0,-201r-163,0v-23,0,-50,70,-49,98","w":1020},"\u0106":{"d":"1344,-1948v-138,105,-205,158,-326,278r-306,0v81,-106,117,-161,182,-278r450,0xm943,-281v223,0,328,-87,460,-219r0,406v-195,84,-285,118,-531,122v-450,7,-784,-327,-784,-775v0,-488,368,-849,858,-841v188,3,243,17,431,54r0,407v-143,-97,-227,-148,-434,-151v-249,-4,-409,219,-409,480v0,290,140,517,409,517","w":1473},"\u0107":{"d":"1022,-1573v-140,129,-204,197,-311,354r-269,0v79,-127,113,-194,149,-354r431,0xm441,-541v0,179,98,311,269,309v102,-1,190,-41,260,-88r-132,320v-97,15,-123,22,-215,23v-326,6,-566,-239,-566,-565v0,-337,274,-573,620,-567v116,2,154,11,247,45r-13,281v-74,-44,-113,-68,-211,-69v-167,-2,-259,134,-259,311","w":982},"\u010c":{"d":"1355,-1976v-110,99,-159,154,-244,278r-424,0v-84,-124,-134,-179,-244,-278r305,0r153,135r152,-135r302,0xm943,-281v223,0,328,-87,460,-219r0,406v-195,84,-285,118,-531,122v-450,7,-784,-327,-784,-775v0,-488,368,-849,858,-841v188,3,243,17,431,54r0,407v-143,-97,-227,-148,-434,-151v-249,-4,-409,219,-409,480v0,290,140,517,409,517","w":1473},"\u010d":{"d":"998,-1573v-97,130,-141,201,-212,354r-338,0v-69,-155,-113,-225,-212,-354r287,0r94,177r94,-177r287,0xm441,-541v0,179,98,311,269,309v102,-1,190,-41,260,-88r-132,320v-97,15,-123,22,-215,23v-326,6,-566,-239,-566,-565v0,-337,274,-573,620,-567v116,2,154,11,247,45r-13,281v-74,-44,-113,-68,-211,-69v-167,-2,-259,134,-259,311","w":982},"\u010e":{"d":"1177,-1976v-110,99,-159,154,-244,278r-424,0v-84,-124,-134,-179,-244,-278r305,0r153,135r152,-135r302,0xm143,0v41,-102,55,-184,55,-329r0,-907v0,-144,-14,-227,-55,-329r468,0v506,-9,894,298,894,783v0,493,-362,790,-872,782r-490,0xm1059,-778v0,-299,-161,-519,-448,-518r0,990v287,10,448,-189,448,-472","w":1586},"\u010f":{"d":"1580,-1557v-31,193,-87,255,-202,384r-185,0v82,-131,121,-192,117,-384r270,0xm1096,-329v1,146,11,230,52,329r-420,0r0,-121r-139,143v-313,22,-537,-184,-539,-475v-2,-366,286,-687,670,-654v1,-162,-3,-287,-52,-395r490,-55v-57,124,-62,251,-62,461r0,767xm603,-888v-51,0,-90,32,-125,92v-63,109,-58,382,-4,486v50,97,180,111,246,25r0,-580v-32,-15,-71,-23,-117,-23","w":1624},"\u0110":{"d":"1581,-782v0,493,-365,790,-876,782r-490,0v75,-156,51,-398,55,-626r-169,0r0,-313r169,0v-4,-227,20,-472,-55,-626r468,0v508,-10,898,298,898,783xm683,-306v288,10,452,-188,452,-472v0,-301,-165,-517,-452,-519r0,358r203,0r0,313r-203,0r0,320","w":1662},"\u0111":{"d":"1098,-329v1,146,11,230,52,329r-409,0r0,-132r-150,154v-313,22,-537,-182,-539,-472v-3,-383,281,-671,670,-659v1,-162,-4,-285,-52,-393r490,-55v-57,124,-62,251,-62,461r0,767xm432,-555v3,188,41,332,200,332v34,0,64,-14,90,-40r0,-614v-200,-61,-293,126,-290,322xm490,-1331r753,0r0,122r-753,0r0,-122","w":1208},"\u0112":{"d":"140,-1901r926,0r0,211r-926,0r0,-211xm192,-1236v0,-144,-14,-227,-55,-329r968,0r-154,341v-62,-32,-237,-60,-346,-66r0,356r466,0r-189,343v-55,-27,-183,-55,-277,-63r0,378v255,-12,412,-50,590,-142r-173,418r-885,0v41,-102,55,-185,55,-329r0,-907","w":1246},"\u0113":{"d":"146,-1471r820,0r0,229r-820,0r0,-229xm432,-475v32,146,133,251,301,248v109,-1,214,-41,284,-91r-132,318v-106,15,-134,22,-232,23v-359,4,-597,-211,-597,-565v0,-314,202,-567,504,-567v336,0,505,278,445,634r-573,0xm559,-885v-96,1,-135,90,-141,199r274,0v5,-113,-29,-201,-133,-199","w":1057},"\u0116":{"d":"408,-1862v0,-107,88,-195,195,-195v107,0,195,88,195,195v0,107,-88,195,-195,195v-107,0,-195,-88,-195,-195xm192,-1236v0,-144,-14,-227,-55,-329r968,0r-154,341v-62,-32,-237,-60,-346,-66r0,356r466,0r-189,343v-55,-27,-183,-55,-277,-63r0,378v255,-12,412,-50,590,-142r-173,418r-885,0v41,-102,55,-185,55,-329r0,-907","w":1246},"\u0117":{"d":"383,-1388v0,-95,78,-173,173,-173v95,0,173,78,173,173v0,95,-78,173,-173,173v-95,0,-173,-78,-173,-173xm432,-475v32,146,133,251,301,248v109,-1,214,-41,284,-91r-132,318v-106,15,-134,22,-232,23v-359,4,-597,-211,-597,-565v0,-314,202,-567,504,-567v336,0,505,278,445,634r-573,0xm559,-885v-96,1,-135,90,-141,199r274,0v5,-113,-29,-201,-133,-199","w":1057},"\u0118":{"d":"957,436v-180,50,-344,-61,-339,-225v4,-119,94,-182,193,-236r214,0v-71,47,-124,89,-159,127v-35,38,-53,71,-53,100v0,60,47,99,110,97v41,-1,86,-17,124,-33r-6,139v-23,13,-51,22,-84,31xm192,-1236v0,-144,-14,-227,-55,-329r968,0r-154,341v-62,-32,-237,-60,-346,-66r0,356r466,0r-189,343v-55,-27,-183,-55,-277,-63r0,378v255,-12,412,-50,590,-142r-173,418r-885,0v41,-102,55,-185,55,-329r0,-907","w":1246},"\u0119":{"d":"814,436v-180,50,-344,-61,-339,-225v4,-118,95,-183,194,-236r214,0v-71,47,-125,89,-160,127v-35,38,-53,71,-53,100v0,60,48,99,111,97v41,-1,86,-17,124,-33r-6,139v-23,13,-52,22,-85,31xm432,-475v32,146,133,251,301,248v109,-1,214,-41,284,-91r-132,318v-106,15,-134,22,-232,23v-359,4,-597,-211,-597,-565v0,-314,202,-567,504,-567v336,0,505,278,445,634r-573,0xm559,-885v-96,1,-135,90,-141,199r274,0v5,-113,-29,-201,-133,-199","w":1057},"\u011a":{"d":"1075,-1976v-110,99,-159,154,-244,278r-424,0v-84,-124,-134,-179,-244,-278r305,0r153,135r152,-135r302,0xm192,-1236v0,-144,-14,-227,-55,-329r968,0r-154,341v-62,-32,-237,-60,-346,-66r0,356r466,0r-189,343v-55,-27,-183,-55,-277,-63r0,378v255,-12,412,-50,590,-142r-173,418r-885,0v41,-102,55,-185,55,-329r0,-907","w":1246},"\u011b":{"d":"924,-1573v-97,130,-141,201,-212,354r-338,0v-69,-155,-113,-225,-212,-354r287,0r94,177r94,-177r287,0xm432,-475v32,146,133,251,301,248v109,-1,214,-41,284,-91r-132,318v-106,15,-134,22,-232,23v-359,4,-597,-211,-597,-565v0,-314,202,-567,504,-567v336,0,505,278,445,634r-573,0xm559,-885v-96,1,-135,90,-141,199r274,0v5,-113,-29,-201,-133,-199","w":1057},"\u011e":{"d":"1344,-1966v-22,162,-174,273,-362,273v-187,0,-339,-111,-361,-273r170,0v62,98,321,99,383,0r170,0xm1475,-227v0,72,20,108,54,158r0,8v-166,58,-357,85,-574,89v-475,8,-861,-303,-861,-759v0,-499,384,-865,888,-857v201,3,267,16,424,70r0,405v-97,-90,-262,-167,-433,-169v-263,-3,-433,228,-433,503v0,308,201,567,522,486v-1,-202,11,-401,-55,-536r523,0v-72,152,-55,380,-55,602","w":1586},"\u011f":{"d":"904,-1487v-22,161,-170,273,-354,273v-184,0,-332,-112,-354,-273r170,0v60,97,308,98,368,0r170,0xm518,-355v-20,0,-35,22,-35,39v0,9,13,16,38,22v25,6,56,10,93,10v151,0,262,21,332,62v70,41,105,105,105,194v0,280,-193,385,-497,384v-163,0,-286,-18,-371,-56v-85,-38,-127,-93,-127,-165v0,-81,80,-169,138,-213v-63,-10,-106,-45,-106,-98r0,-91r173,-148v-98,-52,-173,-159,-173,-279v0,-248,206,-415,462,-415v97,0,180,23,250,68r205,0v48,0,120,-5,152,-16r-40,238v-3,-2,-68,-3,-154,-3v87,293,-159,467,-445,467xm668,-705v0,-108,-49,-214,-145,-214v-78,0,-123,77,-123,162v0,108,50,212,145,212v77,0,123,-76,123,-160xm737,50v0,-143,-223,-99,-370,-111v2,-1,3,19,3,60v0,99,94,140,206,139v89,-1,161,-15,161,-88","w":1133},"\u0122":{"d":"1085,133v-31,193,-87,255,-202,384r-185,0v82,-131,121,-192,117,-384r270,0xm1475,-227v0,72,20,108,54,158r0,8v-166,58,-357,85,-574,89v-475,8,-861,-303,-861,-759v0,-499,384,-865,888,-857v201,3,267,16,424,70r0,405v-97,-90,-262,-167,-433,-169v-263,-3,-433,228,-433,503v0,308,201,567,522,486v-1,-202,11,-401,-55,-536r523,0v-72,152,-55,380,-55,602","w":1586},"\u0123":{"d":"395,-1219v31,-193,87,-255,202,-384r185,0v-82,131,-121,192,-117,384r-270,0xm518,-355v-20,0,-35,22,-35,39v0,9,13,16,38,22v25,6,56,10,93,10v151,0,262,21,332,62v70,41,105,105,105,194v0,280,-193,385,-497,384v-163,0,-286,-18,-371,-56v-85,-38,-127,-93,-127,-165v0,-81,80,-169,138,-213v-63,-10,-106,-45,-106,-98r0,-91r173,-148v-98,-52,-173,-159,-173,-279v0,-248,206,-415,462,-415v97,0,180,23,250,68r205,0v48,0,120,-5,152,-16r-40,238v-3,-2,-68,-3,-154,-3v87,293,-159,467,-445,467xm668,-705v0,-108,-49,-214,-145,-214v-78,0,-123,77,-123,162v0,108,50,212,145,212v77,0,123,-76,123,-160xm737,50v0,-143,-223,-99,-370,-111v2,-1,3,19,3,60v0,99,94,140,206,139v89,-1,161,-15,161,-88","w":1133},"\u012a":{"d":"-62,-1901r926,0r0,211r-926,0r0,-211xm140,0v41,-102,55,-184,55,-329r0,-907v0,-144,-14,-226,-55,-329r523,0v-41,102,-55,185,-55,329r0,907v0,144,14,227,55,329r-523,0","w":793},"\u012b":{"d":"-107,-1471r820,0r0,229r-820,0r0,-229xm63,0v84,-185,52,-496,52,-757v0,-145,-11,-229,-52,-329r490,0v-86,168,-62,489,-62,757v0,145,11,229,52,329r-480,0","w":604},"\u012e":{"d":"560,436v-180,50,-344,-61,-339,-225v4,-119,94,-182,193,-236r214,0v-71,47,-124,89,-159,127v-35,38,-53,71,-53,100v0,60,47,99,110,97v41,-1,86,-17,124,-33r-6,139v-23,13,-51,22,-84,31xm140,0v41,-102,55,-184,55,-329r0,-907v0,-144,-14,-226,-55,-329r523,0v-41,102,-55,185,-55,329r0,907v0,144,14,227,55,329r-523,0","w":793},"\u012f":{"d":"458,436v-180,50,-344,-61,-339,-225v4,-118,95,-183,194,-236r214,0v-71,47,-125,89,-160,127v-35,38,-53,71,-53,100v0,60,48,99,111,97v41,-1,86,-17,124,-33r-6,139v-23,13,-52,22,-85,31xm60,0v84,-185,52,-496,52,-757v0,-145,-11,-229,-52,-329r490,0v-86,168,-62,489,-62,757v0,145,11,229,52,329r-480,0xm80,-1414v0,-122,101,-223,223,-223v122,0,223,101,223,223v0,122,-101,223,-223,223v-122,0,-223,-101,-223,-223","w":604},"\u0130":{"d":"206,-1862v0,-107,88,-195,195,-195v107,0,195,88,195,195v0,107,-88,195,-195,195v-107,0,-195,-88,-195,-195xm140,0v41,-102,55,-184,55,-329r0,-907v0,-144,-14,-226,-55,-329r523,0v-41,102,-55,185,-55,329r0,907v0,144,14,227,55,329r-523,0","w":793},"\u0136":{"d":"938,133v-31,193,-87,255,-202,384r-185,0v82,-131,121,-192,117,-384r270,0xm644,-1565v-69,145,-53,361,-55,574r361,-466v31,-40,51,-62,62,-108r531,0v-122,87,-200,180,-331,329r-339,385r410,522v120,147,188,237,306,329r-584,0v-108,-214,-279,-419,-416,-621v3,225,-19,468,55,621r-523,0v41,-102,55,-185,55,-329r0,-907v0,-144,-14,-227,-55,-329r523,0","w":1511},"\u0137":{"d":"789,133v-31,193,-87,255,-202,384r-185,0v82,-131,121,-192,117,-384r270,0xm556,-1557v-96,199,-52,585,-62,887v74,-102,178,-204,234,-318v14,-29,19,-62,21,-98r492,0v-23,12,-65,50,-125,114v-60,64,-152,169,-276,314r-51,61r410,491v56,64,90,99,103,106r-491,0r-57,-98r-260,-355v-1,177,-3,336,52,453r-480,0v41,-99,51,-183,52,-329r0,-844v-1,-145,-11,-229,-52,-329","w":1284},"\u0139":{"d":"859,-1948v-138,105,-205,158,-326,278r-306,0v81,-106,117,-161,182,-278r450,0xm660,-1565v-41,102,-55,185,-55,329r0,957v233,-13,380,-53,546,-139r-173,418r-841,0v41,-102,55,-185,55,-329r0,-907v0,-144,-14,-227,-55,-329r523,0","w":1171},"\u013a":{"d":"767,-1948v-138,105,-205,158,-326,278r-306,0v81,-106,117,-161,182,-278r450,0xm59,0v41,-99,52,-183,52,-329r0,-844v-1,-145,-11,-229,-52,-329r490,-55v-57,123,-62,252,-62,461r0,767v1,145,11,229,52,329r-480,0","w":604},"\u013b":{"d":"715,133v-31,193,-87,255,-202,384r-185,0v82,-131,121,-192,117,-384r270,0xm660,-1565v-41,102,-55,185,-55,329r0,957v233,-13,380,-53,546,-139r-173,418r-841,0v41,-102,55,-185,55,-329r0,-907v0,-144,-14,-227,-55,-329r523,0","w":1171},"\u013c":{"d":"446,133v-31,193,-87,255,-202,384r-185,0v82,-131,121,-192,117,-384r270,0xm76,0v41,-99,52,-183,52,-329r0,-844v-1,-145,-11,-229,-52,-329r490,-55v-57,123,-62,252,-62,461r0,767v1,145,11,229,52,329r-480,0","w":604},"\u013d":{"d":"1112,-1565v-31,193,-87,255,-202,384r-185,0v82,-131,121,-192,117,-384r270,0xm660,-1565v-41,102,-55,185,-55,329r0,957v233,-13,380,-53,546,-139r-173,418r-841,0v41,-102,55,-185,55,-329r0,-907v0,-144,-14,-227,-55,-329r523,0","w":1171},"\u013e":{"d":"971,-1557v-31,193,-87,255,-202,384r-185,0v82,-131,121,-192,117,-384r270,0xm59,0v41,-99,52,-183,52,-329r0,-844v-1,-145,-11,-229,-52,-329r490,-55v-57,123,-62,252,-62,461r0,767v1,145,11,229,52,329r-480,0","w":982},"\u0141":{"d":"778,-1565v-41,102,-55,185,-55,329r0,957v233,-13,380,-53,546,-139r-173,418r-841,0v41,-102,55,-185,55,-329r0,-907v0,-144,-14,-227,-55,-329r523,0xm16,-506r932,-794r148,178r-932,794","w":1284},"\u0142":{"d":"253,0v41,-99,52,-183,52,-329r0,-844v-1,-145,-11,-229,-52,-329r490,-55v-57,123,-62,252,-62,461r0,767v1,145,11,229,52,329r-480,0xm34,-526r786,-657r132,160r-786,657","w":982},"\u0143":{"d":"1270,-1948v-138,105,-205,158,-326,278r-306,0v81,-106,117,-161,182,-278r450,0xm1545,-1236v0,422,-27,883,51,1236r-464,0v-16,-57,-65,-145,-98,-194r-439,-648r0,513v0,144,14,227,55,329r-506,0v41,-102,55,-185,55,-329r0,-992r-207,-244r568,0v58,118,113,198,201,329r388,573r0,-573v0,-144,-14,-227,-55,-329r506,0v-41,102,-55,185,-55,329","w":1737},"\u0144":{"d":"1031,-1573v-140,129,-204,197,-311,354r-269,0v79,-127,113,-194,149,-354r431,0xm61,0v84,-185,52,-496,52,-757v0,-145,-11,-229,-52,-329r428,0r0,208r200,-216v26,-10,56,-15,90,-15v208,-1,326,117,325,325r0,455v1,145,11,229,52,329r-480,0v76,-162,47,-426,52,-660v2,-94,-36,-159,-123,-160v-44,0,-83,11,-116,34r0,457v1,145,11,229,52,329r-480,0","w":1208},"\u0145":{"d":"1002,133v-31,193,-87,255,-202,384r-185,0v82,-131,121,-192,117,-384r270,0xm1545,-1236v0,422,-27,883,51,1236r-464,0v-16,-57,-65,-145,-98,-194r-439,-648r0,513v0,144,14,227,55,329r-506,0v41,-102,55,-185,55,-329r0,-992r-207,-244r568,0v58,118,113,198,201,329r388,573r0,-573v0,-144,-14,-227,-55,-329r506,0v-41,102,-55,185,-55,329","w":1737},"\u0146":{"d":"738,133v-31,193,-87,255,-202,384r-185,0v82,-131,121,-192,117,-384r270,0xm61,0v84,-185,52,-496,52,-757v0,-145,-11,-229,-52,-329r428,0r0,208r200,-216v26,-10,56,-15,90,-15v208,-1,326,117,325,325r0,455v1,145,11,229,52,329r-480,0v76,-162,47,-426,52,-660v2,-94,-36,-159,-123,-160v-44,0,-83,11,-116,34r0,457v1,145,11,229,52,329r-480,0","w":1208},"\u0147":{"d":"1328,-1976v-110,99,-159,154,-244,278r-424,0v-84,-124,-134,-179,-244,-278r305,0r153,135r152,-135r302,0xm1545,-1236v0,422,-27,883,51,1236r-464,0v-16,-57,-65,-145,-98,-194r-439,-648r0,513v0,144,14,227,55,329r-506,0v41,-102,55,-185,55,-329r0,-992r-207,-244r568,0v58,118,113,198,201,329r388,573r0,-573v0,-144,-14,-227,-55,-329r506,0v-41,102,-55,185,-55,329","w":1737},"\u0148":{"d":"984,-1573v-97,130,-141,201,-212,354r-338,0v-69,-155,-113,-225,-212,-354r287,0r94,177r94,-177r287,0xm61,0v84,-185,52,-496,52,-757v0,-145,-11,-229,-52,-329r428,0r0,208r200,-216v26,-10,56,-15,90,-15v208,-1,326,117,325,325r0,455v1,145,11,229,52,329r-480,0v76,-162,47,-426,52,-660v2,-94,-36,-159,-123,-160v-44,0,-83,11,-116,34r0,457v1,145,11,229,52,329r-480,0","w":1208},"\u014c":{"d":"462,-1901r926,0r0,211r-926,0r0,-211xm925,28v-478,0,-841,-336,-841,-807v0,-472,363,-809,841,-809v479,0,841,336,841,809v0,472,-362,807,-841,807xm1159,-278v95,-85,161,-297,161,-482v0,-337,-275,-558,-629,-522v-95,86,-161,298,-161,484v0,336,277,556,629,520","w":1850},"\u014d":{"d":"214,-1471r820,0r0,229r-820,0r0,-229xm597,23v-310,0,-549,-215,-549,-520v0,-350,254,-612,603,-612v312,0,549,215,549,522v0,350,-254,610,-603,610xm700,-195v62,-56,116,-176,116,-288v0,-200,-136,-373,-304,-408v-54,51,-88,179,-88,290v0,196,118,372,276,406","w":1246},"\u0150":{"d":"1145,-1948v-139,105,-205,158,-326,278r-306,0v81,-106,117,-161,182,-278r450,0xm1652,-1948v-139,105,-205,158,-326,278r-306,0v81,-106,117,-161,182,-278r450,0xm925,28v-478,0,-841,-336,-841,-807v0,-472,363,-809,841,-809v479,0,841,336,841,809v0,472,-362,807,-841,807xm1159,-278v95,-85,161,-297,161,-482v0,-337,-275,-558,-629,-522v-95,86,-161,298,-161,484v0,336,277,556,629,520","w":1850},"\u0151":{"d":"814,-1565v-140,128,-204,195,-311,350r-269,0v79,-125,113,-192,149,-350r431,0xm1299,-1565v-140,128,-204,195,-311,350r-269,0v79,-125,113,-192,149,-350r431,0xm597,23v-310,0,-549,-215,-549,-520v0,-350,254,-612,603,-612v312,0,549,215,549,522v0,350,-254,610,-603,610xm700,-195v62,-56,116,-176,116,-288v0,-200,-136,-373,-304,-408v-54,51,-88,179,-88,290v0,196,118,372,276,406","w":1246},"\u0152":{"d":"75,-782v0,-510,411,-858,969,-802v64,6,100,19,153,19r1122,0r-154,341v-69,-36,-260,-63,-377,-68r0,358r497,0r-189,343v-60,-30,-209,-59,-308,-67r0,383v270,-10,434,-47,619,-143r-173,418r-1067,0r-164,18v-35,3,-60,5,-75,5v-482,10,-853,-332,-853,-805xm694,-1282v-98,88,-173,296,-173,481v0,338,284,554,641,518v99,-88,174,-295,174,-480v0,-338,-283,-555,-642,-519","w":2417},"\u0153":{"d":"31,-509v0,-347,261,-600,610,-600v140,0,258,40,355,121v87,-79,195,-119,325,-121v336,-5,505,278,445,634r-573,0v32,146,133,251,301,248v109,-1,214,-41,284,-91r-132,318v-249,48,-491,24,-642,-105v-110,86,-248,128,-413,128v-317,0,-560,-220,-560,-532xm705,-195v63,-57,112,-191,112,-311v0,-193,-144,-350,-311,-385v-57,53,-91,195,-91,313v0,169,147,356,290,383xm1320,-885v-96,1,-135,90,-141,199r274,0v5,-113,-29,-201,-133,-199","w":1813},"\u0154":{"d":"1146,-1948v-138,105,-205,158,-326,278r-306,0v81,-106,117,-161,182,-278r450,0xm124,0v41,-102,55,-184,55,-329r0,-907v0,-144,-14,-227,-55,-329r543,0v352,-3,595,141,603,465v5,197,-140,353,-311,411r250,360v99,141,172,224,297,329r-429,0v-27,0,-73,-38,-139,-111v-120,-132,-243,-338,-346,-506v3,224,-19,465,55,617r-523,0xm865,-1090v0,-132,-123,-210,-273,-200r0,425v153,7,273,-85,273,-225","w":1435},"\u0155":{"d":"872,-1573v-140,129,-204,197,-311,354r-269,0v79,-127,113,-194,149,-354r431,0xm64,0v84,-185,52,-496,52,-757v0,-145,-11,-229,-52,-329r428,0r0,201r194,-206v67,-26,121,-20,191,-6r-54,310v-100,-55,-193,-40,-283,39r-48,46v7,245,-27,532,52,702r-480,0","w":868},"\u0156":{"d":"955,133v-31,193,-87,255,-202,384r-185,0v82,-131,121,-192,117,-384r270,0xm124,0v41,-102,55,-184,55,-329r0,-907v0,-144,-14,-227,-55,-329r543,0v352,-3,595,141,603,465v5,197,-140,353,-311,411r250,360v99,141,172,224,297,329r-429,0v-27,0,-73,-38,-139,-111v-120,-132,-243,-338,-346,-506v3,224,-19,465,55,617r-523,0xm865,-1090v0,-132,-123,-210,-273,-200r0,425v153,7,273,-85,273,-225","w":1435},"\u0157":{"d":"451,133v-31,193,-87,255,-202,384r-185,0v82,-131,121,-192,117,-384r270,0xm81,0v84,-185,52,-496,52,-757v0,-145,-11,-229,-52,-329r428,0r0,201r194,-206v67,-26,121,-20,191,-6r-54,310v-100,-55,-193,-40,-283,39r-48,46v7,245,-27,532,52,702r-480,0","w":868},"\u0158":{"d":"1126,-1976v-110,99,-159,154,-244,278r-424,0v-84,-124,-134,-179,-244,-278r305,0r153,135r152,-135r302,0xm124,0v41,-102,55,-184,55,-329r0,-907v0,-144,-14,-227,-55,-329r543,0v352,-3,595,141,603,465v5,197,-140,353,-311,411r250,360v99,141,172,224,297,329r-429,0v-27,0,-73,-38,-139,-111v-120,-132,-243,-338,-346,-506v3,224,-19,465,55,617r-523,0xm865,-1090v0,-132,-123,-210,-273,-200r0,425v153,7,273,-85,273,-225","w":1435},"\u0159":{"d":"826,-1573v-97,130,-141,201,-212,354r-338,0v-69,-155,-113,-225,-212,-354r287,0r94,177r94,-177r287,0xm73,0v84,-185,52,-496,52,-757v0,-145,-11,-229,-52,-329r428,0r0,201r194,-206v67,-26,121,-20,191,-6r-54,310v-100,-55,-193,-40,-283,39r-48,46v7,245,-27,532,52,702r-480,0","w":868},"\u015a":{"d":"1025,-1948v-138,105,-205,158,-326,278r-306,0v81,-106,117,-161,182,-278r450,0xm627,-1588v110,0,259,28,338,62r0,364v-87,-69,-143,-115,-265,-120v-76,-3,-144,46,-141,117v4,103,52,134,128,195v114,92,200,174,253,253v53,78,79,159,79,242v0,294,-228,508,-527,503v-177,-3,-239,-21,-381,-75r0,-398v60,85,187,165,317,167v89,2,159,-61,156,-149v-5,-121,-54,-158,-141,-227v-111,-89,-195,-168,-246,-242v-51,-73,-77,-147,-77,-222v0,-278,223,-470,507,-470","w":1095},"\u015b":{"d":"921,-1573v-140,129,-204,197,-311,354r-269,0v79,-127,113,-194,149,-354r431,0xm498,-1109v128,2,171,12,280,45r0,265v-50,-47,-138,-87,-227,-88v-47,-1,-89,25,-89,68v0,24,10,48,29,71v19,23,57,53,110,95v118,93,209,166,215,329v7,212,-187,351,-411,347v-158,-3,-206,-13,-350,-45r0,-288v84,66,139,111,259,115v58,2,123,-18,123,-64v0,-32,-11,-62,-32,-89v-21,-27,-61,-63,-120,-107v-73,-54,-126,-105,-159,-154v-33,-48,-49,-98,-49,-149v-2,-214,194,-355,421,-351","w":868},"\u015e":{"d":"552,231v0,-87,-119,-113,-193,-76r45,-120v32,-20,97,-35,151,-35v122,0,208,96,207,220v-2,163,-164,316,-345,256v-32,-11,-63,-21,-92,-36r15,-142v28,18,83,44,121,45v56,1,91,-52,91,-112xm627,-1588v110,0,259,28,338,62r0,364v-87,-69,-143,-115,-265,-120v-76,-3,-144,46,-141,117v4,103,52,134,128,195v114,92,200,174,253,253v53,78,79,159,79,242v0,294,-228,508,-527,503v-177,-3,-239,-21,-381,-75r0,-398v60,85,187,165,317,167v89,2,159,-61,156,-149v-5,-121,-54,-158,-141,-227v-111,-89,-195,-168,-246,-242v-51,-73,-77,-147,-77,-222v0,-278,223,-470,507,-470","w":1095},"\u015f":{"d":"445,236v-2,-78,-75,-113,-167,-103r43,-115v16,-11,48,-18,75,-18v141,-3,248,98,247,236v-1,151,-179,283,-345,220v-31,-12,-59,-24,-83,-41r14,-129v24,23,83,52,123,53v55,1,94,-46,93,-103xm498,-1109v128,2,171,12,280,45r0,265v-50,-47,-138,-87,-227,-88v-47,-1,-89,25,-89,68v0,24,10,48,29,71v19,23,57,53,110,95v118,93,209,166,215,329v7,212,-187,351,-411,347v-158,-3,-206,-13,-350,-45r0,-288v84,66,139,111,259,115v58,2,123,-18,123,-64v0,-32,-11,-62,-32,-89v-21,-27,-61,-63,-120,-107v-73,-54,-126,-105,-159,-154v-33,-48,-49,-98,-49,-149v-2,-214,194,-355,421,-351","w":868},"\u0160":{"d":"1062,-1976v-110,99,-159,154,-244,278r-424,0v-84,-124,-134,-179,-244,-278r305,0r153,135r152,-135r302,0xm606,-1588v110,0,259,28,338,62r0,364v-87,-69,-143,-115,-265,-120v-76,-3,-144,46,-141,117v4,103,52,134,128,195v114,92,200,174,253,253v53,78,79,159,79,242v0,294,-228,508,-527,503v-177,-3,-239,-21,-381,-75r0,-398v60,85,187,165,317,167v89,2,159,-61,156,-149v-5,-121,-54,-158,-141,-227v-111,-89,-195,-168,-246,-242v-51,-73,-77,-147,-77,-222v0,-278,223,-470,507,-470","w":1095},"\u0161":{"d":"819,-1573v-97,130,-141,201,-212,354r-338,0v-69,-155,-113,-225,-212,-354r287,0r94,177r94,-177r287,0xm498,-1109v128,2,171,12,280,45r0,265v-50,-47,-138,-87,-227,-88v-47,-1,-89,25,-89,68v0,24,10,48,29,71v19,23,57,53,110,95v118,93,209,166,215,329v7,212,-187,351,-411,347v-158,-3,-206,-13,-350,-45r0,-288v84,66,139,111,259,115v58,2,123,-18,123,-64v0,-32,-11,-62,-32,-89v-21,-27,-61,-63,-120,-107v-73,-54,-126,-105,-159,-154v-33,-48,-49,-98,-49,-149v-2,-214,194,-355,421,-351","w":868},"\u0162":{"d":"625,231v0,-87,-119,-113,-193,-76r45,-120v32,-20,97,-35,151,-35v122,0,208,96,207,220v-2,163,-164,316,-345,256v-32,-11,-63,-21,-92,-36r15,-142v28,18,83,44,121,45v56,1,91,-52,91,-112xm389,0v44,-105,61,-185,61,-329r0,-960v-186,5,-348,22,-468,71r112,-347r1221,0r-92,336v-62,-27,-247,-54,-360,-58r0,958v1,143,17,223,61,329r-535,0","w":1284},"\u0163":{"d":"463,236v-2,-78,-75,-113,-167,-103r43,-115v16,-11,48,-18,75,-18v141,-3,248,98,247,236v-1,151,-179,283,-345,220v-31,-12,-59,-24,-83,-41r14,-129v24,23,83,52,123,53v55,1,94,-46,93,-103xm514,-386v1,86,40,120,128,120v84,0,118,-24,179,-64r-107,315v-84,25,-136,38,-234,38v-246,0,-341,-121,-342,-373r0,-510r-146,-1r522,-464r0,239r246,0r0,226r-246,0r0,474","w":831},"\u0164":{"d":"1112,-1976v-110,99,-159,154,-244,278r-424,0v-84,-124,-134,-179,-244,-278r305,0r153,135r152,-135r302,0xm389,0v44,-105,61,-185,61,-329r0,-960v-186,5,-348,22,-468,71r112,-347r1221,0r-92,336v-62,-27,-247,-54,-360,-58r0,958v1,143,17,223,61,329r-535,0","w":1284},"\u0165":{"d":"989,-1560v-31,193,-87,255,-202,384r-185,0v82,-131,121,-192,117,-384r270,0xm514,-386v1,86,40,120,128,120v84,0,118,-24,179,-64r-107,315v-84,25,-136,38,-234,38v-246,0,-341,-121,-342,-373r0,-510r-146,-1r522,-464r0,239r246,0r0,226r-246,0r0,474","w":1020},"\u016a":{"d":"359,-1901r926,0r0,211r-926,0r0,-211xm648,-1565v-41,102,-55,184,-55,329r0,562v0,131,19,230,57,294v38,64,97,96,174,96v174,0,227,-136,227,-333r0,-619v0,-144,-14,-227,-55,-329r523,0v-41,102,-55,185,-55,329r0,907v0,144,14,227,55,329r-427,0r9,-115v-106,92,-244,138,-414,138v-363,0,-507,-224,-507,-608r0,-651v0,-144,-14,-227,-55,-329r523,0","w":1662},"\u016b":{"d":"184,-1471r820,0r0,229r-820,0r0,-229xm542,-1086v-81,158,-58,448,-62,704v-1,89,34,150,116,151v42,0,80,-17,113,-50r0,-476v-1,-145,-11,-229,-52,-329r490,0v-43,87,-61,153,-62,276r0,547v1,114,16,176,52,263r-428,0r0,-123r-184,144v-266,22,-421,-107,-421,-361r0,-549v-3,-80,-22,-123,-52,-197r490,0","w":1208},"\u016e":{"d":"822,-1614v-118,0,-217,-99,-217,-217v0,-119,98,-218,217,-218v120,0,218,98,218,218v0,119,-99,217,-218,217xm822,-1726v58,0,107,-47,107,-105v0,-59,-49,-106,-107,-106v-59,0,-106,47,-106,106v0,58,48,105,106,105xm648,-1565v-41,102,-55,184,-55,329r0,562v0,131,19,230,57,294v38,64,97,96,174,96v174,0,227,-136,227,-333r0,-619v0,-144,-14,-227,-55,-329r523,0v-41,102,-55,185,-55,329r0,907v0,144,14,227,55,329r-427,0r9,-115v-106,92,-244,138,-414,138v-363,0,-507,-224,-507,-608r0,-651v0,-144,-14,-227,-55,-329r523,0","w":1662},"\u016f":{"d":"594,-1224v-105,0,-192,-87,-192,-192v0,-105,87,-193,192,-193v105,0,193,88,193,193v0,105,-88,192,-193,192xm594,-1343v40,0,74,-33,74,-73v0,-40,-34,-74,-74,-74v-40,0,-73,34,-73,74v0,40,33,73,73,73xm542,-1086v-81,158,-58,448,-62,704v-1,89,34,150,116,151v42,0,80,-17,113,-50r0,-476v-1,-145,-11,-229,-52,-329r490,0v-43,87,-61,153,-62,276r0,547v1,114,16,176,52,263r-428,0r0,-123r-184,144v-266,22,-421,-107,-421,-361r0,-549v-3,-80,-22,-123,-52,-197r490,0","w":1208},"\u0170":{"d":"1042,-1948v-139,105,-205,158,-326,278r-306,0v81,-106,117,-161,182,-278r450,0xm1549,-1948v-139,105,-205,158,-326,278r-306,0v81,-106,117,-161,182,-278r450,0xm648,-1565v-41,102,-55,184,-55,329r0,562v0,131,19,230,57,294v38,64,97,96,174,96v174,0,227,-136,227,-333r0,-619v0,-144,-14,-227,-55,-329r523,0v-41,102,-55,185,-55,329r0,907v0,144,14,227,55,329r-427,0r9,-115v-106,92,-244,138,-414,138v-363,0,-507,-224,-507,-608r0,-651v0,-144,-14,-227,-55,-329r523,0","w":1662},"\u0171":{"d":"784,-1565v-140,128,-204,195,-311,350r-269,0v79,-125,113,-192,149,-350r431,0xm1269,-1565v-140,128,-204,195,-311,350r-269,0v79,-125,113,-192,149,-350r431,0xm542,-1086v-81,158,-58,448,-62,704v-1,89,34,150,116,151v42,0,80,-17,113,-50r0,-476v-1,-145,-11,-229,-52,-329r490,0v-43,87,-61,153,-62,276r0,547v1,114,16,176,52,263r-428,0r0,-123r-184,144v-266,22,-421,-107,-421,-361r0,-549v-3,-80,-22,-123,-52,-197r490,0","w":1208},"\u0172":{"d":"1293,436v-180,50,-344,-61,-339,-225v4,-119,94,-182,193,-236r214,0v-71,47,-124,89,-159,127v-35,38,-53,71,-53,100v0,60,47,99,110,97v41,-1,86,-17,124,-33r-6,139v-23,13,-51,22,-84,31xm648,-1565v-41,102,-55,184,-55,329r0,562v0,131,19,230,57,294v38,64,97,96,174,96v174,0,227,-136,227,-333r0,-619v0,-144,-14,-227,-55,-329r523,0v-41,102,-55,185,-55,329r0,907v0,144,14,227,55,329r-427,0r9,-115v-106,92,-244,138,-414,138v-363,0,-507,-224,-507,-608r0,-651v0,-144,-14,-227,-55,-329r523,0","w":1662},"\u0173":{"d":"914,436v-180,50,-344,-61,-339,-225v4,-118,95,-183,194,-236r214,0v-71,47,-125,89,-160,127v-35,38,-53,71,-53,100v0,60,48,99,111,97v41,-1,86,-17,124,-33r-6,139v-23,13,-52,22,-85,31xm542,-1086v-81,158,-58,448,-62,704v-1,89,34,150,116,151v42,0,80,-17,113,-50r0,-476v-1,-145,-11,-229,-52,-329r490,0v-43,87,-61,153,-62,276r0,547v1,114,16,176,52,263r-428,0r0,-123r-184,144v-266,22,-421,-107,-421,-361r0,-549v-3,-80,-22,-123,-52,-197r490,0","w":1208},"\u0178":{"d":"234,-1855v0,-96,79,-175,175,-175v96,0,175,79,175,175v0,96,-79,175,-175,175v-96,0,-175,-79,-175,-175xm792,-1855v0,-96,79,-175,175,-175v96,0,175,79,175,175v0,96,-79,175,-175,175v-96,0,-175,-79,-175,-175xm427,0v81,-172,49,-448,55,-695r-303,-541v-84,-145,-133,-233,-224,-329r515,0v10,59,21,94,46,144r177,366r204,-366v26,-47,40,-82,52,-144r474,0v-91,95,-146,183,-230,329r-298,517v7,253,-28,543,55,719r-523,0"},"\u0179":{"d":"1161,-1948v-138,105,-205,158,-326,278r-306,0v81,-106,117,-161,182,-278r450,0xm706,-1292v-276,1,-421,52,-614,161r141,-434r1061,0r-655,1292v307,-6,486,-40,689,-145r-173,418r-1106,0"},"\u017a":{"d":"968,-1573v-140,129,-204,197,-311,354r-269,0v79,-127,113,-194,149,-354r431,0xm0,0v201,-334,304,-519,451,-858v-170,0,-265,13,-354,79r63,-307r770,0v-181,333,-274,517,-401,856v178,-7,284,-15,385,-82r-85,312r-829,0","w":944},"\u017b":{"d":"568,-1862v0,-107,88,-195,195,-195v107,0,195,88,195,195v0,107,-88,195,-195,195v-107,0,-195,-88,-195,-195xm706,-1292v-276,1,-421,52,-614,161r141,-434r1061,0r-655,1292v307,-6,486,-40,689,-145r-173,418r-1106,0"},"\u017c":{"d":"372,-1388v0,-95,78,-173,173,-173v95,0,173,78,173,173v0,95,-78,173,-173,173v-95,0,-173,-78,-173,-173xm0,0v201,-334,304,-519,451,-858v-170,0,-265,13,-354,79r63,-307r770,0v-181,333,-274,517,-401,856v178,-7,284,-15,385,-82r-85,312r-829,0","w":944},"\u017d":{"d":"1219,-1976v-110,99,-159,154,-244,278r-424,0v-84,-124,-134,-179,-244,-278r305,0r153,135r152,-135r302,0xm706,-1292v-276,1,-421,52,-614,161r141,-434r1061,0r-655,1292v307,-6,486,-40,689,-145r-173,418r-1106,0"},"\u017e":{"d":"866,-1573v-97,130,-141,201,-212,354r-338,0v-69,-155,-113,-225,-212,-354r287,0r94,177r94,-177r287,0xm0,0v201,-334,304,-519,451,-858v-170,0,-265,13,-354,79r63,-307r770,0v-181,333,-274,517,-401,856v178,-7,284,-15,385,-82r-85,312r-829,0","w":944},"\u0192":{"d":"992,-1305v-107,0,-144,101,-153,219r201,0r-52,232r-190,0r-117,525v-27,128,-44,206,-21,329r-480,0v64,-102,93,-186,125,-329r117,-525r-134,0r170,-232r16,0v28,-156,80,-293,176,-373v139,-115,410,-135,608,-56r-131,273v-44,-38,-69,-63,-135,-63"},"\u02c6":{"d":"301,-1219v97,-130,141,-201,212,-354r338,0v69,155,113,225,212,354r-287,0r-94,-177r-94,177r-287,0"},"\u02c7":{"d":"1059,-1573v-97,130,-141,201,-212,354r-338,0v-69,-155,-113,-225,-212,-354r287,0r94,177r94,-177r287,0"},"\u02c9":{"d":"272,-1471r820,0r0,229r-820,0r0,-229"},"\u02d8":{"d":"1028,-1487v-22,161,-170,273,-354,273v-184,0,-332,-112,-354,-273r170,0v60,97,308,98,368,0r170,0"},"\u02d9":{"d":"513,-1388v0,-95,78,-173,173,-173v95,0,173,78,173,173v0,95,-78,173,-173,173v-95,0,-173,-78,-173,-173"},"\u02da":{"d":"685,-1224v-105,0,-192,-87,-192,-192v0,-105,87,-193,192,-193v105,0,193,88,193,193v0,105,-88,192,-193,192xm685,-1343v40,0,74,-33,74,-73v0,-40,-34,-74,-74,-74v-40,0,-73,34,-73,74v0,40,33,73,73,73"},"\u02db":{"d":"954,436v-180,50,-344,-61,-339,-225v4,-118,95,-183,194,-236r214,0v-71,47,-125,89,-160,127v-35,38,-53,71,-53,100v0,60,48,99,111,97v41,-1,86,-17,124,-33r-6,139v-23,13,-52,22,-85,31"},"\u02dc":{"d":"553,-1260v-37,0,-67,18,-81,43r-180,0v39,-125,109,-212,255,-212v106,0,220,41,323,45v28,0,64,-24,72,-45r180,0v-38,129,-105,212,-255,212v-98,0,-211,-43,-314,-43"},"\u02dd":{"d":"852,-1565v-140,128,-204,195,-311,350r-269,0v79,-125,113,-192,149,-350r431,0xm1337,-1565v-140,128,-204,195,-311,350r-269,0v79,-125,113,-192,149,-350r431,0"},"\u0415":{"d":"192,-1236v0,-144,-14,-227,-55,-329r968,0r-154,341v-62,-32,-237,-60,-346,-66r0,356r466,0r-189,343v-55,-27,-183,-55,-277,-63r0,378v255,-12,412,-50,590,-142r-173,418r-885,0v41,-102,55,-185,55,-329r0,-907","w":1246},"\u0401":{"d":"149,-1855v0,-96,79,-175,175,-175v96,0,175,79,175,175v0,96,-79,175,-175,175v-96,0,-175,-79,-175,-175xm707,-1855v0,-96,79,-175,175,-175v96,0,175,79,175,175v0,96,-79,175,-175,175v-96,0,-175,-79,-175,-175xm192,-1236v0,-144,-14,-227,-55,-329r968,0r-154,341v-62,-32,-237,-60,-346,-66r0,356r466,0r-189,343v-55,-27,-183,-55,-277,-63r0,378v255,-12,412,-50,590,-142r-173,418r-885,0v41,-102,55,-185,55,-329r0,-907","w":1246},"\u0402":{"d":"1269,-443v0,-190,-52,-343,-216,-343v-77,0,-139,14,-186,44v8,260,-29,560,55,742r-523,0v41,-102,55,-185,55,-329r0,-958v-175,10,-309,29,-472,69r112,-347r1232,0r-92,336v-63,-28,-253,-54,-367,-59r0,447r253,-222v382,-66,595,168,595,549v0,338,-267,583,-632,536v-22,-4,-51,-11,-88,-22r42,-131v86,17,153,6,190,-83v26,-60,42,-136,42,-229","w":1791},"\u0413":{"d":"193,-1236v-1,-143,-17,-223,-61,-329r1007,0r-139,336v-83,-29,-275,-60,-394,-61r0,961v1,144,17,224,61,329r-535,0v44,-106,60,-185,61,-329r0,-907","w":1165},"\u0403":{"d":"1089,-2052v-140,129,-204,197,-311,354r-269,0v79,-127,113,-194,149,-354r431,0xm193,-1236v-1,-143,-17,-223,-61,-329r1007,0r-139,336v-83,-29,-275,-60,-394,-61r0,961v1,144,17,224,61,329r-535,0v44,-106,60,-185,61,-329r0,-907","w":1165},"\u0404":{"d":"943,-281v223,-5,328,-87,460,-219r0,406v-195,84,-285,118,-531,122v-450,7,-784,-327,-784,-775v0,-488,368,-849,858,-841v188,3,243,17,431,54r0,407v-143,-97,-227,-147,-434,-151v-207,-5,-357,158,-397,344v169,-4,371,14,509,-20r0,313v-136,-34,-343,-16,-511,-20v33,211,174,385,399,380","w":1473},"\u0405":{"d":"627,-1588v110,0,259,28,338,62r0,364v-87,-69,-143,-115,-265,-120v-76,-3,-144,46,-141,117v4,103,52,134,128,195v114,92,200,174,253,253v53,78,79,159,79,242v0,294,-228,508,-527,503v-177,-3,-239,-21,-381,-75r0,-398v60,85,187,165,317,167v89,2,159,-61,156,-149v-5,-121,-54,-158,-141,-227v-111,-89,-195,-168,-246,-242v-51,-73,-77,-147,-77,-222v0,-278,223,-470,507,-470","w":1095},"\u0406":{"d":"140,0v41,-102,55,-184,55,-329r0,-907v0,-144,-14,-226,-55,-329r523,0v-41,102,-55,185,-55,329r0,907v0,144,14,227,55,329r-523,0","w":793},"\u0407":{"d":"-60,-1855v0,-96,79,-175,175,-175v96,0,175,79,175,175v0,96,-79,175,-175,175v-96,0,-175,-79,-175,-175xm498,-1855v0,-96,79,-175,175,-175v96,0,175,79,175,175v0,96,-79,175,-175,175v-96,0,-175,-79,-175,-175xm133,0v41,-102,55,-184,55,-329r0,-907v0,-144,-14,-226,-55,-329r523,0v-41,102,-55,185,-55,329r0,907v0,144,14,227,55,329r-523,0","w":793},"\u0408":{"d":"-69,283v292,-80,392,-272,392,-660r0,-912v-96,6,-254,18,-309,38r101,-314r677,0v-33,77,-56,248,-56,363r0,914v-3,417,-134,629,-531,629v-99,0,-191,-18,-275,-55","w":906},"\u0409":{"d":"932,0v41,-102,55,-185,55,-329r0,-963r-356,0r0,762v-1,357,-134,525,-458,557r-178,-313v163,9,223,-77,223,-244r0,-706v0,-144,-14,-227,-55,-329r1292,0v-69,143,-53,355,-55,566r105,0v376,-3,642,152,642,500v0,350,-276,499,-657,499r-558,0xm1701,-511v0,-141,-138,-187,-301,-182r0,387v166,-2,301,-56,301,-205","w":2174},"\u040a":{"d":"132,0v41,-102,55,-184,55,-329r0,-907v0,-144,-14,-227,-55,-329r523,0v-75,157,-51,402,-55,631r464,0v-4,-228,20,-476,-55,-631r523,0v-70,147,-53,368,-55,584v426,-21,747,111,747,491v0,345,-279,490,-657,490r-558,0v78,-164,50,-423,55,-661r-464,0v5,237,-23,499,55,661r-523,0xm1778,-501v0,-137,-140,-178,-301,-174r0,369v164,-2,301,-50,301,-195","w":2316},"\u040b":{"d":"1239,-519v0,-157,-61,-267,-205,-267v-69,0,-127,13,-173,40v8,261,-30,563,55,746r-523,0v41,-102,55,-185,55,-329r0,-958v-172,11,-305,30,-466,69r112,-347r1218,0r-92,336v-61,-28,-248,-53,-359,-59r0,442r233,-218v334,-55,558,116,558,443v0,225,-19,468,55,621r-523,0v64,-133,55,-321,55,-519","w":1791},"\u041a":{"d":"644,-1565v-69,145,-53,361,-55,574r361,-466v31,-40,51,-62,62,-108r531,0v-122,87,-200,180,-331,329r-339,385r410,522v120,147,188,237,306,329r-595,0v-7,-68,-39,-102,-83,-164r-322,-456v3,225,-19,467,55,620r-523,0v41,-102,55,-185,55,-329r0,-907v0,-144,-14,-227,-55,-329r523,0","w":1511},"\u040c":{"d":"1231,-2052v-140,129,-204,197,-311,354r-269,0v79,-127,113,-194,149,-354r431,0xm644,-1565v-69,145,-53,361,-55,574r361,-466v31,-40,51,-62,62,-108r531,0v-122,87,-200,180,-331,329r-339,385r410,522v120,147,188,237,306,329r-595,0v-7,-68,-39,-102,-83,-164r-322,-456v3,225,-19,467,55,620r-523,0v41,-102,55,-185,55,-329r0,-907v0,-144,-14,-227,-55,-329r523,0","w":1511},"\u0423":{"d":"867,-329v-49,119,-79,191,-82,329r-536,0v110,-110,174,-291,248,-462r-333,-774v-58,-135,-114,-214,-209,-329r579,0v-8,78,-3,122,18,181r152,422r176,-422v24,-60,34,-101,29,-181r514,0v-75,98,-117,185,-177,329"},"\u040e":{"d":"1114,-1966v-22,162,-174,273,-362,273v-187,0,-339,-111,-361,-273r170,0v62,98,321,99,383,0r170,0xm867,-329v-49,119,-79,191,-82,329r-536,0v110,-110,174,-291,248,-462r-333,-774v-58,-135,-114,-214,-209,-329r579,0v-8,78,-3,122,18,181r152,422r176,-422v24,-60,34,-101,29,-181r514,0v-75,98,-117,185,-177,329"},"\u040f":{"d":"591,344v26,-76,34,-232,31,-344r-490,0v41,-102,55,-185,55,-329r0,-907v0,-144,-14,-227,-55,-329r523,0v-41,102,-55,185,-55,329r0,963r459,0r0,-963v0,-144,-14,-227,-55,-329r523,0v-41,102,-55,185,-55,329r0,907v0,144,14,227,55,329r-492,0v-2,114,5,266,31,344r-475,0","w":1662},"\u0410":{"d":"-53,0v75,-100,118,-186,177,-329r422,-1019v27,-64,62,-156,73,-217r348,0v10,59,47,155,73,217r423,1019v62,143,101,229,175,329r-499,0v5,-72,-11,-111,-36,-181r-77,-214r-499,0r-71,214v-23,71,-38,108,-33,181r-476,0xm768,-1112r-149,444r310,0","w":1586},"\u0411":{"d":"128,0v41,-102,55,-184,55,-329r0,-907v0,-144,-14,-227,-55,-329r1142,0r-154,341v-111,-49,-347,-76,-520,-68r0,293r105,0v376,-3,642,152,642,500v0,350,-276,499,-657,499r-558,0xm897,-511v0,-141,-138,-187,-301,-182r0,387v166,-2,301,-56,301,-205","w":1435},"\u0412":{"d":"128,0v41,-102,55,-184,55,-329r0,-907v0,-144,-14,-227,-55,-329r539,0v186,0,332,35,437,104v105,69,157,165,157,288v0,149,-90,268,-217,323v170,58,299,200,299,399v0,145,-56,256,-167,334v-111,78,-270,117,-475,117r-573,0xm856,-1131v0,-132,-112,-180,-260,-174r0,369v153,4,260,-55,260,-195xm897,-494v0,-146,-134,-197,-301,-195r0,414v174,3,301,-62,301,-219","w":1435},"\u0414":{"d":"0,344v44,-156,43,-462,0,-617r212,0v91,-271,140,-605,160,-963v8,-145,-5,-225,-47,-329r1229,0v-41,102,-55,185,-55,329r0,963r220,0v-43,154,-43,461,0,617r-475,0v26,-77,33,-231,31,-344r-832,0v0,109,5,267,32,344r-475,0xm787,-1292v-15,382,-68,727,-160,1019r459,0r0,-1019r-299,0","w":1725},"\u0416":{"d":"1389,-1565v-81,172,-48,450,-55,698r364,-590v25,-39,39,-62,45,-108r501,0v-102,88,-169,179,-278,329r-273,377r335,530v97,146,153,234,254,329r-563,0v0,-67,-24,-102,-58,-164r-327,-590v8,263,-30,569,55,754r-481,0v86,-187,46,-492,55,-756r-328,592v-33,64,-58,96,-58,164r-563,0v99,-93,160,-182,253,-329r337,-533r-272,-374v-109,-147,-171,-236,-280,-329r501,0v5,47,19,70,43,108r367,591v-6,-247,26,-528,-55,-699r481,0","w":2214},"\u0417":{"d":"540,28v-198,-3,-269,-27,-429,-91r0,-405v93,107,165,184,324,190v134,5,228,-91,228,-225v0,-99,-110,-175,-221,-185v-30,-3,-50,-2,-62,4r0,-259v116,27,254,-63,254,-169v0,-105,-83,-173,-192,-170v-145,4,-210,64,-301,153r0,-405v161,-37,210,-54,375,-54v169,0,306,36,409,110v103,74,155,171,155,292v0,186,-123,327,-281,374v169,44,310,182,310,374v0,295,-255,471,-569,466","w":1185},"\u0418":{"d":"1059,0v41,-102,55,-185,55,-329r0,-591r-504,762v9,55,23,105,45,158r-523,0v41,-102,55,-185,55,-329r0,-907v0,-144,-14,-227,-55,-329r523,0v-41,102,-55,185,-55,329r0,591r503,-761v-6,-58,-23,-105,-44,-159r523,0v-41,102,-55,185,-55,329r0,907v0,144,14,227,55,329r-523,0","w":1717},"\u0419":{"d":"1219,-1966v-22,162,-174,273,-362,273v-187,0,-339,-111,-361,-273r170,0v62,98,321,99,383,0r170,0xm1059,0v41,-102,55,-185,55,-329r0,-591r-504,762v9,55,23,105,45,158r-523,0v41,-102,55,-185,55,-329r0,-907v0,-144,-14,-227,-55,-329r523,0v-41,102,-55,185,-55,329r0,591r503,-761v-6,-58,-23,-105,-44,-159r523,0v-41,102,-55,185,-55,329r0,907v0,144,14,227,55,329r-523,0","w":1717},"\u041b":{"d":"952,0v41,-102,55,-185,55,-329r0,-963r-376,0r0,762v-1,357,-134,525,-458,557r-178,-313v163,9,223,-77,223,-244r0,-706v0,-144,-14,-227,-55,-329r1312,0v-41,102,-55,185,-55,329r0,907v0,144,14,227,55,329r-523,0","w":1546},"\u041c":{"d":"1340,0v41,-102,55,-185,55,-329r0,-576r-402,514r-402,-523r0,585v0,144,14,227,55,329r-525,0v41,-102,55,-185,55,-329r0,-1006r-196,-230r594,0v3,68,13,105,44,144r391,494r395,-494v36,-45,55,-77,60,-144r465,0v-75,187,-121,304,-121,526r0,710v0,144,14,227,55,329r-523,0","w":2001},"\u041d":{"d":"132,0v41,-102,55,-184,55,-329r0,-907v0,-144,-14,-227,-55,-329r523,0v-73,153,-52,387,-55,611r459,0v-3,-223,18,-460,-55,-611r523,0v-41,102,-55,185,-55,329r0,907v0,144,14,227,55,329r-523,0v76,-159,51,-409,55,-641r-459,0v4,231,-21,483,55,641r-523,0","w":1662},"\u041e":{"d":"925,28v-478,0,-841,-336,-841,-807v0,-472,363,-809,841,-809v479,0,841,336,841,809v0,472,-362,807,-841,807xm1159,-278v95,-85,161,-297,161,-482v0,-337,-275,-558,-629,-522v-95,86,-161,298,-161,484v0,336,277,556,629,520","w":1850},"\u041f":{"d":"600,-329v0,145,14,227,55,329r-523,0v41,-102,55,-185,55,-329r0,-907v0,-144,-14,-227,-55,-329r1395,0v-41,102,-55,185,-55,329r0,907v0,144,14,227,55,329r-523,0v41,-102,55,-185,55,-329r0,-963r-459,0r0,963","w":1662},"\u0420":{"d":"138,0v41,-102,55,-184,55,-329r0,-907v0,-144,-14,-227,-55,-329r539,0v352,-3,592,154,592,485v0,332,-294,497,-663,484v3,219,-17,448,55,596r-523,0xm868,-1093v0,-130,-115,-208,-262,-197r0,419v149,7,262,-84,262,-222","w":1322},"\u0421":{"d":"943,-281v223,0,328,-87,460,-219r0,406v-195,84,-285,118,-531,122v-450,7,-784,-327,-784,-775v0,-488,368,-849,858,-841v188,3,243,17,431,54r0,407v-143,-97,-227,-148,-434,-151v-249,-4,-409,219,-409,480v0,290,140,517,409,517","w":1473},"\u0422":{"d":"389,0v44,-105,61,-185,61,-329r0,-960v-186,5,-348,22,-468,71r112,-347r1221,0r-92,336v-62,-27,-247,-54,-360,-58r0,958v1,143,17,223,61,329r-535,0","w":1284},"\u0424":{"d":"84,-782v0,-399,292,-600,696,-624v-9,-55,-23,-105,-45,-159r523,0v-22,53,-36,103,-45,159v405,25,695,224,695,624v0,399,-290,599,-695,623v9,56,23,106,45,159r-523,0v22,-53,36,-103,45,-159v-405,-25,-696,-222,-696,-623xm1462,-782v0,-196,-93,-323,-259,-357r0,713v166,-35,259,-159,259,-356xm530,-782v0,197,95,322,260,357r0,-714v-164,33,-260,160,-260,357","w":1992},"\u0425":{"d":"-26,0v107,-94,170,-183,267,-329r309,-464r-270,-443v-86,-138,-152,-220,-267,-329r553,0v7,79,27,120,62,181r161,268v74,-118,168,-234,229,-360v13,-27,19,-57,23,-89r508,0v-99,93,-162,183,-260,329r-267,397r306,510v85,139,151,222,264,329r-567,0v-7,-79,-25,-121,-60,-181r-184,-311r-205,311v-41,61,-62,102,-73,181r-529,0","w":1548},"\u0426":{"d":"1272,344v26,-77,33,-231,31,-344r-1171,0v41,-102,55,-185,55,-329r0,-907v0,-144,-14,-227,-55,-329r523,0v-41,102,-55,185,-55,329r0,963r514,0r0,-963v0,-144,-14,-227,-55,-329r523,0v-41,102,-55,185,-55,329r0,963r220,0v-43,154,-43,461,0,617r-475,0","w":1784},"\u0427":{"d":"586,-1066v0,138,52,231,179,233v55,1,102,-9,141,-30v-6,-248,26,-529,-55,-701r523,0v-41,102,-55,185,-55,329r0,907v0,144,14,227,55,329r-523,0v86,-186,46,-489,55,-752r-210,196v-310,54,-523,-111,-523,-417v0,-217,16,-445,-55,-592r523,0v-61,130,-55,305,-55,498","w":1495},"\u0428":{"d":"2210,-329v0,144,14,227,55,329r-2133,0v41,-102,55,-185,55,-329r0,-907v0,-144,-14,-226,-55,-329r517,0v-40,98,-48,183,-49,329r0,963r392,0r0,-963v-1,-146,-9,-231,-49,-329r511,0v-40,98,-48,183,-49,329r0,963r392,0r0,-963v-1,-146,-9,-231,-49,-329r517,0v-41,102,-55,185,-55,329r0,907","w":2400},"\u0429":{"d":"1953,344v26,-77,33,-231,31,-344r-1852,0v41,-102,55,-185,55,-329r0,-907v0,-144,-14,-227,-55,-329r517,0v-40,98,-48,183,-49,329r0,963r391,0r0,-963v-1,-146,-9,-231,-49,-329r511,0v-40,98,-48,183,-49,329r0,963r390,0r0,-963v-1,-146,-9,-231,-49,-329r517,0v-41,102,-55,185,-55,329r0,963r221,