Cufon.registerFont({"w":556,"face":{"font-family":"Helvetica","font-weight":400,"font-stretch":"normal","units-per-em":"1000","panose-1":"0 0 0 0 0 0 0 0 0 0","ascent":"770","descent":"-230","x-height":"14","bbox":"-951 -1117 1446 481","underline-thickness":"50","underline-position":"-27","unicode-range":"U+0008-U+FB02"},"glyphs":{" ":{"w":278},"!":{"d":"79,-106r84,0r0,106r-84,0r0,-106xm87,-714r68,0r0,213r-15,323r-38,0r-15,-323r0,-213","w":241},"\"":{"d":"283,-714r0,243r-63,0r0,-243r63,0xm150,-714r0,243r-63,0r0,-243r63,0","w":370},"#":{"d":"201,-268r141,0r22,-156r-141,0xm386,-223r-31,223r-50,0r31,-223r-141,0r-31,223r-50,0r31,-223r-110,0r0,-45r116,0r22,-156r-110,0r0,-45r116,0r31,-222r50,0r-31,222r141,0r31,-222r50,0r-31,222r105,0r0,45r-111,0r-22,156r105,0r0,45r-111,0"},"$":{"d":"527,-185v0,133,-99,194,-231,199r0,85r-39,0r0,-86v-153,-15,-221,-84,-228,-241r63,0v1,117,60,178,165,190r0,-296v-114,-23,-213,-62,-210,-200v3,-125,85,-190,210,-195r0,-78r39,0r0,78v130,7,209,83,212,217r-63,0v1,-94,-58,-164,-149,-164r0,288v117,26,231,61,231,203xm257,-676v-114,-7,-178,104,-135,206v20,47,79,59,135,73r0,-279xm296,-38v120,8,206,-99,152,-206v-25,-50,-91,-67,-152,-82r0,288"},"%":{"d":"69,-517v0,-112,46,-189,159,-189v113,0,159,77,159,189v0,112,-46,189,-159,189v-113,0,-159,-77,-159,-189xm773,-173v0,-78,-27,-145,-106,-145v-80,0,-106,66,-106,145v0,78,26,143,106,143v79,0,106,-66,106,-143xm508,-174v0,-112,46,-189,159,-189v113,0,159,77,159,189v0,112,-46,188,-159,188v-113,0,-159,-76,-159,-188xm690,-725r-452,758r-48,0r453,-758r47,0xm334,-516v0,-78,-27,-145,-106,-145v-80,0,-106,66,-106,145v0,78,26,143,106,143v79,0,106,-66,106,-143","w":889},"&":{"d":"379,-569v2,-57,-42,-91,-95,-92v-67,-2,-115,63,-87,131v17,41,46,73,72,105v49,-33,107,-65,110,-144xm542,-316v-2,58,-15,126,-42,171r120,145r-79,0r-76,-93v-46,58,-115,107,-210,107v-131,0,-216,-67,-216,-199v0,-117,97,-166,175,-212v-37,-49,-88,-91,-88,-172v0,-93,65,-145,158,-145v93,0,158,52,158,145v0,102,-76,142,-140,185r156,188v18,-37,21,-65,21,-120r63,0xm102,-179v-4,123,154,178,252,111v28,-20,52,-43,72,-72r-178,-216v-66,38,-143,78,-146,177","w":611},"'":{"d":"171,-714r0,243r-63,0r0,-243r63,0","w":278},"(":{"d":"192,190v-75,-128,-141,-257,-141,-456v0,-191,62,-338,141,-463r50,0v-82,131,-128,287,-128,486v0,177,59,318,128,433r-50,0","w":241},")":{"d":"49,-729v75,127,141,259,141,457v0,191,-62,337,-141,462r-49,0v81,-132,127,-287,127,-485v0,-178,-62,-315,-127,-434r49,0","w":241},"*":{"d":"41,-632r115,41r0,-123r39,0r0,123r115,-41r15,37r-118,39r72,98r-32,23r-73,-100r-73,100r-32,-23r73,-98r-115,-39","w":352},"+":{"d":"327,-503r0,225r225,0r0,53r-225,0r0,225r-53,0r0,-225r-225,0r0,-53r225,0r0,-225r53,0","w":600},",":{"d":"181,-106v4,109,3,219,-88,242r0,-43v31,-13,47,-50,46,-93r-42,0r0,-106r84,0","w":278},"-":{"d":"60,-304r250,0r0,58r-250,0r0,-58","w":370},".":{"d":"97,-106r84,0r0,106r-84,0r0,-106","w":278},"\/":{"d":"295,-729r51,0r-305,743r-53,0","w":333},"0":{"d":"34,-345v0,-193,50,-361,244,-361v195,0,244,168,244,360v0,193,-49,360,-244,360v-194,0,-244,-167,-244,-359xm459,-346v0,-152,-27,-307,-181,-307v-154,0,-181,155,-181,307v0,152,27,308,181,308v154,0,181,-156,181,-308"},"1":{"d":"97,-565v117,2,187,-27,197,-135r51,0r0,700r-63,0r0,-520r-185,0r0,-45"},"2":{"d":"277,-706v131,0,217,65,217,197v0,231,-248,248,-356,387v-16,20,-26,41,-30,64r389,0r0,58r-461,0v14,-256,287,-262,380,-438v10,-20,15,-44,15,-72v0,-93,-64,-143,-157,-143v-113,0,-158,81,-158,195r-63,0v0,-153,72,-248,224,-248"},"3":{"d":"96,-223v-3,117,61,185,175,185v103,0,179,-53,179,-155v0,-119,-92,-156,-221,-148r0,-53v111,7,195,-25,195,-127v0,-92,-62,-132,-153,-132v-107,0,-159,68,-159,177r-63,0v5,-141,80,-230,221,-230v123,0,214,54,217,178v2,84,-52,137,-118,157v87,12,144,77,144,173v2,174,-176,248,-341,196v-88,-28,-146,-100,-139,-221r63,0"},"4":{"d":"353,-608r-2,0r-264,381r266,0r0,-381xm354,-700r57,0r0,473r105,0r0,53r-105,0r0,174r-58,0r0,-174r-323,0r0,-61"},"5":{"d":"99,-200v7,101,68,162,172,162v113,0,175,-79,175,-191v0,-110,-68,-182,-179,-182v-71,0,-126,35,-156,83r-54,0r68,-363r350,0r0,58r-306,0r-45,232r2,2v30,-37,86,-65,148,-65v150,0,235,93,235,242v0,174,-159,276,-333,222v-82,-26,-136,-94,-140,-200r63,0"},"6":{"d":"40,-357v0,-185,60,-349,250,-349v129,0,202,63,215,183r-63,0v-9,-74,-63,-131,-146,-130v-156,3,-194,160,-191,313v29,-63,100,-116,186,-116v146,0,231,89,231,234v0,146,-91,234,-237,236v-207,3,-245,-158,-245,-371xm459,-218v0,-110,-59,-185,-169,-185v-112,0,-174,73,-174,185v0,113,59,180,175,180v106,0,168,-74,168,-180"},"7":{"d":"150,0v20,-290,139,-461,288,-633r-387,0r0,-58r450,0r0,58v-140,148,-269,351,-283,633r-68,0"},"8":{"d":"128,-531v0,89,61,130,150,130v88,0,149,-42,149,-130v0,-85,-63,-122,-149,-122v-84,0,-150,38,-150,122xm277,-706v119,0,210,55,213,175v2,83,-51,133,-114,156v87,17,143,79,143,179v0,143,-99,210,-241,210v-142,0,-241,-67,-241,-210v0,-94,57,-165,142,-179r0,-2v-68,-21,-114,-71,-114,-154v0,-120,93,-175,212,-175xm100,-196v3,106,72,158,178,158v107,0,172,-51,178,-158v9,-177,-282,-200,-342,-67v-10,19,-14,42,-14,67"},"9":{"d":"516,-334v0,185,-60,348,-250,348v-129,0,-202,-62,-215,-182r63,0v9,74,63,132,146,130v159,-4,189,-155,193,-313r-2,0v-29,63,-100,116,-186,116v-145,0,-231,-89,-231,-234v0,-146,91,-234,237,-237v207,-4,245,160,245,372xm97,-473v0,110,59,185,169,185v112,0,174,-73,174,-185v0,-114,-59,-180,-175,-180v-105,0,-168,74,-168,180"},":":{"d":"97,-106r84,0r0,106r-84,0r0,-106xm97,-500r84,0r0,106r-84,0r0,-106","w":278},";":{"d":"97,-500r84,0r0,106r-84,0r0,-106xm181,-106v4,109,3,219,-88,242r0,-43v31,-13,47,-50,46,-93r-42,0r0,-106r84,0","w":278},"<":{"d":"46,-226r0,-54r508,-234r0,55r-446,206r446,206r0,54","w":600},"=":{"d":"49,-128r0,-53r503,0r0,53r-503,0xm49,-325r0,-53r503,0r0,53r-503,0","w":600},">":{"d":"46,-459r0,-55r508,234r0,54r-508,233r0,-54r446,-206","w":600},"?":{"d":"315,-106r0,106r-84,0r0,-106r84,0xm278,-676v-109,3,-161,72,-161,182r-63,0v3,-148,80,-235,227,-235v120,0,203,64,203,185v0,132,-113,169,-164,253v-18,30,-14,60,-16,112r-63,0v-14,-164,104,-193,161,-291v55,-95,-14,-210,-124,-206","w":537},"@":{"d":"430,-563v56,0,88,34,106,84r25,-65r53,0r-96,288v-7,26,-26,83,13,83v87,0,131,-87,155,-162v78,-247,-165,-420,-398,-323v-112,46,-188,151,-188,305v0,152,82,250,192,298v39,17,81,25,126,25v122,0,203,-59,258,-133r51,0v-59,100,-157,177,-309,177v-178,0,-290,-96,-344,-226v-36,-89,-33,-205,2,-294v63,-159,258,-269,472,-200v145,47,252,216,184,401v-33,91,-99,170,-211,177v-41,3,-61,-32,-69,-67v-28,28,-73,66,-127,66v-124,0,-155,-136,-115,-249v34,-96,98,-185,220,-185xm492,-343v27,-76,8,-158,-66,-167v-112,12,-160,116,-170,231v-7,86,88,125,148,73v39,-33,69,-83,88,-137","w":800},"A":{"d":"454,-280r-138,-366r-143,366r281,0xm357,-714r280,714r-73,0r-87,-222r-325,0r-86,222r-72,0r287,-714r76,0","w":630,"k":{"\u02bc":176,"y":37,"w":37,"v":37,"Y":152,"W":10,"V":102,"T":139}},"B":{"d":"140,-401v163,-8,395,43,395,-121v0,-89,-54,-134,-161,-134r-234,0r0,255xm630,-203v-3,147,-102,202,-256,203r-302,0r0,-714r302,0v130,2,229,44,229,175v0,89,-55,139,-124,162v88,10,153,78,151,174xm562,-205v0,-181,-245,-131,-422,-138r0,285v182,-8,422,47,422,-147","w":667},"C":{"d":"594,-498v-25,-103,-97,-173,-219,-173v-184,0,-269,133,-269,314v0,180,85,314,269,314v143,0,211,-99,229,-229r68,0v-22,169,-112,283,-297,286v-269,5,-386,-250,-316,-512v43,-160,208,-275,415,-216v99,28,172,101,188,216r-68,0","w":704},"D":{"d":"647,-357v0,233,-106,357,-328,357r-247,0r0,-714r247,0v222,6,328,124,328,357xm579,-357v0,-205,-89,-303,-294,-299r-145,0r0,598r145,0v205,4,294,-94,294,-299","w":685},"E":{"d":"565,-714r0,58r-425,0r0,258r398,0r0,58r-398,0r0,282r430,0r0,58r-498,0r0,-714r493,0","w":593},"F":{"d":"525,-714r0,58r-385,0r0,258r342,0r0,58r-342,0r0,340r-68,0r0,-714r453,0","w":537},"G":{"d":"106,-357v0,180,85,314,269,314v161,0,246,-100,247,-262r-243,0r0,-58r303,0r0,363r-49,0v-5,-42,-2,-92,-11,-130v-43,88,-120,143,-247,144v-269,3,-390,-251,-316,-512v38,-135,142,-231,316,-231v170,0,270,90,298,237r-68,0v-21,-108,-103,-179,-230,-179v-184,0,-269,133,-269,314","w":741},"H":{"d":"140,-714r0,310r424,0r0,-310r68,0r0,714r-68,0r0,-346r-424,0r0,346r-68,0r0,-714r68,0","w":704},"I":{"d":"145,-714r0,714r-68,0r0,-714r68,0","w":222},"J":{"d":"226,-43v113,0,134,-73,134,-185r0,-486r68,0r0,515v2,146,-62,213,-208,213v-148,0,-200,-97,-199,-243r68,0v0,104,25,186,137,186","w":500},"K":{"d":"140,-714r0,384r415,-384r92,0r-319,295r334,419r-88,0r-297,-372r-137,127r0,245r-68,0r0,-714r68,0","w":648},"L":{"d":"140,-714r0,656r400,0r0,58r-468,0r0,-714r68,0","w":537,"k":{"\u02bc":201,"y":76,"Y":227,"W":113,"V":188,"T":188}},"M":{"d":"170,-714r247,626r246,-626r100,0r0,714r-68,0r0,-617r-2,0r-244,617r-64,0r-245,-617r-2,0r0,617r-68,0r0,-714r100,0","w":833},"N":{"d":"147,-714r416,604r2,0r0,-604r68,0r0,714r-76,0r-416,-604r-2,0r0,604r-68,0r0,-714r76,0","w":704},"O":{"d":"371,-671v-184,0,-269,133,-269,314v0,180,85,314,269,314v184,0,268,-134,268,-314v0,-181,-84,-314,-268,-314xm371,14v-274,-1,-389,-247,-316,-512v37,-135,142,-231,316,-231v223,0,336,151,336,372v0,167,-72,285,-189,341v-42,20,-91,30,-147,30","w":741},"P":{"d":"533,-510v0,-98,-64,-146,-159,-146r-234,0r0,292r234,0v95,0,159,-48,159,-146xm601,-510v0,133,-79,204,-212,204r-249,0r0,306r-68,0r0,-714r317,0v133,2,212,72,212,204","w":630},"Q":{"d":"623,-616v116,131,107,438,-24,542r102,77r-34,42r-111,-83v-78,61,-233,65,-332,22v-151,-66,-232,-279,-169,-482v41,-134,142,-229,316,-231v116,0,196,50,252,113xm102,-357v0,180,85,314,269,314v51,0,95,-12,132,-35r-94,-71r35,-43r104,79v59,-52,91,-142,91,-244v0,-181,-84,-314,-268,-314v-184,0,-269,133,-269,314","w":741},"R":{"d":"548,-514v0,-92,-55,-142,-154,-142r-254,0r0,281r254,0v90,-4,154,-49,154,-139xm616,-528v1,98,-57,164,-139,184v122,10,124,132,131,258v2,32,11,68,27,86r-75,0v-45,-107,22,-317,-162,-317r-258,0r0,317r-68,0r0,-714r327,0v128,3,214,58,217,186","w":667,"k":{"y":-49,"Y":27,"W":-12,"V":-12,"T":-12}},"S":{"d":"104,-235v-2,142,94,192,233,192v99,0,189,-44,189,-145v0,-86,-77,-109,-147,-129v-136,-40,-320,-36,-320,-211v0,-166,177,-235,347,-187v93,26,160,91,163,208r-68,0v-8,-108,-83,-160,-195,-164v-117,-5,-209,69,-170,185v13,39,55,53,99,66v151,44,356,40,359,231v3,186,-208,233,-390,189v-106,-26,-173,-100,-168,-235r68,0","w":630},"T":{"d":"561,-714r0,58r-249,0r0,656r-68,0r0,-656r-248,0r0,-58r565,0","k":{"y":227,"w":227,"u":188,"s":227,"r":188,"o":227,"i":-49,"e":227,"c":227,"a":227}},"U":{"d":"342,14v-180,0,-277,-97,-277,-271r0,-457r68,0r0,442v-1,149,63,229,209,229v147,0,211,-80,210,-229r0,-442r68,0r0,457v-4,174,-97,271,-278,271","w":685},"V":{"d":"66,-714r232,639r2,0r230,-639r72,0r-265,714r-79,0r-264,-714r72,0","w":593,"k":{"y":37,"u":76,"r":76,"o":113,"i":-12,"e":113,"a":113}},"W":{"d":"73,-714r162,625r2,0r174,-625r85,0r175,625r2,0r163,-625r68,0r-197,714r-72,0r-181,-639r-2,0r-180,639r-74,0r-198,-714r73,0","w":907,"k":{"u":37,"r":37,"o":37,"i":-49,"e":37,"a":76}},"X":{"d":"83,-714r202,299r209,-299r76,0r-244,348r258,366r-82,0r-217,-315r-220,315r-76,0r256,-368r-242,-346r80,0","w":574},"Y":{"d":"-9,-714r80,0r235,362r234,-362r81,0r-282,420r0,294r-68,0r0,-294","w":611,"k":{"v":113,"u":152,"q":188,"p":152,"o":188,"i":14,"e":188,"a":188}},"Z":{"d":"551,-714r0,60r-470,596r480,0r0,58r-556,0r0,-60r470,-596r-438,0r0,-58r514,0","w":574},"[":{"d":"76,-729r161,0r0,53r-98,0r0,813r98,0r0,53r-161,0r0,-919","w":241},"\\":{"d":"-12,-729r50,0r308,743r-54,0","w":333},"]":{"d":"165,190r-161,0r0,-53r98,0r0,-813r-98,0r0,-53r161,0r0,919","w":241},"^":{"d":"274,-691r52,0r230,453r-57,0r-200,-390r-197,390r-58,0","w":600},"_":{"d":"0,74r500,0r0,50r-500,0r0,-50","w":500},"`":{"d":"47,-729r105,141r-51,0r-131,-141r77,0","w":185},"a":{"d":"255,-478v-81,1,-137,38,-138,120r-63,0v8,-118,84,-172,209,-173v116,0,191,46,190,166r0,274v-3,33,29,45,57,34r0,53v-15,3,-23,4,-41,4v-58,2,-75,-33,-74,-90r-2,0v-40,60,-87,105,-188,104v-104,-2,-172,-46,-173,-150v-1,-160,174,-147,312,-171v31,-5,46,-26,46,-65v1,-81,-55,-106,-135,-106xm210,-38v105,0,180,-57,180,-162v0,-26,4,-60,-2,-82v-64,50,-209,21,-270,84v-14,15,-23,33,-23,58v0,66,49,102,115,102","w":519},"b":{"d":"304,14v-91,1,-156,-48,-186,-112r0,98r-58,0r0,-714r63,0r0,296r2,0v26,-69,88,-113,179,-113v159,0,232,114,232,273v0,159,-72,268,-232,272xm304,-38v121,0,169,-99,169,-220v0,-121,-48,-220,-169,-220v-128,0,-181,94,-181,220v0,126,54,220,181,220","w":574},"c":{"d":"424,-354v-17,-73,-58,-126,-146,-124v-123,3,-181,97,-181,220v0,123,58,220,181,220v90,0,139,-63,150,-147r63,0v-15,116,-88,199,-213,199v-162,0,-244,-111,-244,-272v0,-161,83,-273,244,-273v116,0,198,65,209,177r-63,0","w":519},"d":{"d":"270,-531v94,0,150,48,181,113r0,-296r63,0r0,714r-58,0v-2,-31,4,-71,-2,-98v-29,66,-94,112,-184,112v-160,0,-232,-113,-232,-272v0,-159,73,-273,232,-273xm270,-478v-121,0,-169,99,-169,220v0,121,48,220,169,220v128,0,181,-94,181,-220v0,-126,-54,-220,-181,-220","w":574},"e":{"d":"431,-294v0,-127,-109,-223,-233,-168v-60,26,-91,91,-101,168r334,0xm34,-258v0,-157,73,-273,233,-273v163,0,228,125,227,290r-397,0v5,113,55,200,170,203v95,2,142,-56,162,-132r63,0v-27,113,-89,185,-225,184v-162,-1,-233,-112,-233,-272","w":519},"f":{"d":"226,-661v-78,-4,-69,70,-69,145r102,0r0,53r-102,0r0,463r-63,0r0,-463r-88,0r0,-53r88,0v-5,-115,12,-202,125,-198v21,0,34,2,53,4r0,54v-16,-2,-29,-4,-46,-5","w":259,"k":{"\u02bc":-37}},"g":{"d":"267,-531v86,0,133,50,166,104r0,-89r63,0r0,474v0,158,-68,250,-229,247v-116,-2,-202,-48,-214,-156r63,0v13,71,70,100,151,103v145,5,179,-117,164,-264v-27,59,-83,106,-164,106v-162,-2,-233,-105,-233,-265v0,-153,79,-260,233,-260xm97,-264v0,117,53,205,170,205v114,0,166,-91,166,-205v0,-117,-47,-214,-166,-214v-120,0,-170,94,-170,214"},"h":{"d":"284,-478v-107,2,-162,73,-162,177r0,301r-63,0r0,-714r63,0r0,287r2,0v21,-58,89,-104,165,-104v132,-1,189,67,189,199r0,332r-63,0r0,-322v0,-95,-35,-158,-131,-156","w":537},"i":{"d":"124,-714r0,101r-63,0r0,-101r63,0xm124,-516r0,516r-63,0r0,-516r63,0","w":185},"j":{"d":"124,-714r0,101r-63,0r0,-101r63,0xm4,137v49,0,57,-31,57,-75r0,-578r63,0r0,563v5,101,-45,158,-153,141r0,-52v10,1,23,1,33,1","w":185},"k":{"d":"123,-714r0,448r286,-250r84,0r-220,191r235,325r-79,0r-204,-281r-102,85r0,196r-63,0r0,-714r63,0","w":500},"l":{"d":"124,-714r0,714r-63,0r0,-714r63,0","w":185},"m":{"d":"277,-478v-110,0,-154,79,-154,190r0,288r-63,0r0,-516r58,0r0,87r3,0v32,-60,80,-102,169,-102v73,1,133,38,148,101v25,-61,87,-101,164,-101v114,0,171,60,171,181r0,350r-63,0r0,-347v-1,-87,-32,-131,-122,-131v-106,1,-140,81,-140,186r0,292r-63,0r0,-350v-1,-77,-30,-128,-108,-128","w":833},"n":{"d":"284,-478v-107,2,-162,73,-162,177r0,301r-63,0r0,-516r63,0v2,28,-4,65,2,89v21,-58,89,-104,165,-104v132,-1,189,67,189,199r0,332r-63,0r0,-322v0,-95,-35,-158,-131,-156","w":537},"o":{"d":"459,-258v0,-123,-58,-220,-181,-220v-123,0,-181,97,-181,220v0,123,58,220,181,220v123,0,181,-97,181,-220xm34,-258v0,-161,83,-273,244,-273v161,0,244,112,244,273v0,161,-82,272,-244,272v-162,0,-244,-111,-244,-272"},"p":{"d":"304,14v-93,0,-151,-47,-181,-112r0,288r-63,0r0,-706r58,0v2,31,-4,71,2,98v26,-67,95,-113,184,-113v159,0,232,114,232,273v0,159,-72,272,-232,272xm304,-38v121,0,169,-99,169,-220v0,-121,-48,-220,-169,-220v-132,0,-181,89,-181,220v0,126,54,220,181,220","w":574},"q":{"d":"270,-531v93,0,153,50,186,113r0,-98r58,0r0,706r-63,0r0,-288r-2,0v-26,69,-87,112,-179,112v-160,0,-232,-113,-232,-272v0,-159,73,-273,232,-273xm270,-478v-121,0,-169,99,-169,220v0,121,48,220,169,220v128,0,181,-94,181,-220v0,-126,-54,-220,-181,-220","w":574},"r":{"d":"315,-460v-120,-1,-192,69,-192,185r0,275r-63,0r0,-516r58,0v2,39,-4,86,2,121v29,-77,94,-132,195,-128r0,63","w":315},"s":{"d":"369,-365v-4,-77,-56,-110,-135,-113v-78,-3,-149,51,-112,124v80,99,321,24,328,214v6,165,-246,190,-354,111v-38,-28,-60,-75,-65,-138r63,0v3,83,67,128,152,129v85,1,168,-49,132,-136v-75,-104,-322,-25,-329,-212v-7,-179,313,-186,366,-52v8,21,16,45,17,73r-63,0","w":481},"t":{"d":"209,5v-86,-1,-112,-27,-112,-115r0,-353r-90,0r0,-53r90,0r0,-155r63,0r0,155r105,0r0,53r-105,0r0,348v1,44,6,66,51,68v18,0,36,-1,54,-3r0,53","w":296},"u":{"d":"260,-38v202,-5,147,-276,155,-478r63,0r0,516r-58,0v-2,-30,4,-67,-2,-93v-29,63,-93,106,-178,107v-126,0,-181,-69,-181,-195r0,-335r63,0r0,336v4,95,38,145,138,142","w":537},"v":{"d":"72,-516r162,453r2,0r160,-453r65,0r-193,516r-67,0r-199,-516r70,0","w":463},"w":{"d":"75,-516r132,442r2,0r126,-442r71,0r126,442r2,0r132,-442r67,0r-166,516r-69,0r-127,-434r-2,0r-126,434r-69,0r-166,-516r67,0","w":741},"x":{"d":"16,-516r79,0r147,196r144,-196r79,0r-186,247r201,269r-80,0r-162,-217r-159,217r-78,0r200,-268","w":481},"y":{"d":"53,132v53,14,103,-3,118,-43v11,-30,25,-60,37,-91r-206,-514r67,0r170,440r159,-440r63,0r-224,594v-28,63,-46,115,-136,112v-22,-1,-33,0,-48,-5r0,-53","w":463},"z":{"d":"446,-53r0,53r-431,0r0,-51r337,-412r-314,0r0,-53r394,0r0,45r-341,418r355,0","w":463},"{":{"d":"243,190v-111,-3,-85,-158,-88,-272v-2,-73,-4,-154,-72,-160r0,-53v68,-6,70,-87,72,-160v3,-115,-24,-271,88,-274r50,0r0,53v-110,-7,-75,143,-75,244v0,79,-30,131,-70,164v42,29,70,85,70,162r0,140v2,56,10,111,75,103r0,53r-50,0","w":333},"|":{"d":"138,-786r0,999r-53,0r0,-999r53,0","w":222},"}":{"d":"90,-729v111,3,85,158,88,273v2,73,4,154,72,160r0,53v-68,6,-70,87,-72,160v-3,115,23,270,-88,273r-50,0r0,-53v110,7,75,-142,75,-243v0,-79,30,-131,70,-164v-42,-29,-70,-85,-70,-162r0,-141v-2,-56,-10,-111,-75,-103r0,-53r50,0","w":333},"~":{"d":"531,-279v-29,41,-58,86,-125,86v-88,0,-130,-63,-217,-65v-46,-1,-68,38,-84,69r-36,-36v23,-45,57,-86,125,-86v83,0,137,65,213,65v45,0,67,-40,88,-69","w":600},"\u00c4":{"d":"193,-889r68,0r0,101r-68,0r0,-101xm370,-889r68,0r0,101r-68,0r0,-101xm454,-280r-138,-366r-143,366r281,0xm357,-714r280,714r-73,0r-87,-222r-325,0r-86,222r-72,0r287,-714r76,0","w":630},"\u00c5":{"d":"316,-928v-38,0,-68,30,-68,68v0,38,30,68,68,68v38,0,68,-30,68,-68v0,-38,-30,-68,-68,-68xm316,-753v-64,0,-107,-43,-107,-107v0,-64,43,-107,107,-107v64,0,107,43,107,107v0,64,-43,107,-107,107xm454,-280r-138,-366r-143,366r281,0xm357,-714r280,714r-73,0r-87,-222r-325,0r-86,222r-72,0r287,-714r76,0","w":630},"\u00c7":{"d":"672,-272v-22,170,-112,282,-298,286r-33,43v57,-9,116,4,116,62v0,94,-133,102,-204,65r14,-32v39,14,132,32,132,-29v0,-44,-64,-43,-94,-30r-16,-15r51,-66v-241,-15,-349,-260,-281,-510v43,-160,208,-275,415,-216v99,28,172,101,188,216r-68,0v-25,-103,-97,-173,-219,-173v-184,0,-269,133,-269,314v0,180,85,314,269,314v143,0,211,-99,229,-229r68,0","w":704},"\u00c9":{"d":"237,-771r105,-141r78,0r-132,141r-51,0xm565,-714r0,58r-425,0r0,258r398,0r0,58r-398,0r0,282r430,0r0,58r-498,0r0,-714r493,0","w":593},"\u00d1":{"d":"390,-850v39,20,75,-6,81,-41r38,0v-10,48,-31,94,-87,95v-56,1,-85,-46,-135,-46v-31,0,-54,19,-53,51r-39,0v6,-63,57,-115,129,-89v24,9,44,19,66,30xm147,-714r416,604r2,0r0,-604r68,0r0,714r-76,0r-416,-604r-2,0r0,604r-68,0r0,-714r76,0","w":704},"\u00d6":{"d":"248,-889r68,0r0,101r-68,0r0,-101xm425,-889r68,0r0,101r-68,0r0,-101xm371,-671v-184,0,-269,133,-269,314v0,180,85,314,269,314v184,0,268,-134,268,-314v0,-181,-84,-314,-268,-314xm371,14v-274,-1,-389,-247,-316,-512v37,-135,142,-231,316,-231v223,0,336,151,336,372v0,167,-72,285,-189,341v-42,20,-91,30,-147,30","w":741},"\u00dc":{"d":"220,-889r68,0r0,101r-68,0r0,-101xm397,-889r68,0r0,101r-68,0r0,-101xm342,14v-180,0,-277,-97,-277,-271r0,-457r68,0r0,442v-1,149,63,229,209,229v147,0,211,-80,210,-229r0,-442r68,0r0,457v-4,174,-97,271,-278,271","w":685},"\u00e1":{"d":"200,-588r105,-141r78,0r-132,141r-51,0xm255,-478v-81,1,-137,38,-138,120r-63,0v8,-118,84,-172,209,-173v116,0,191,46,190,166r0,274v-3,33,29,45,57,34r0,53v-15,3,-23,4,-41,4v-58,2,-75,-33,-74,-90r-2,0v-40,60,-87,105,-188,104v-104,-2,-172,-46,-173,-150v-1,-160,174,-147,312,-171v31,-5,46,-26,46,-65v1,-81,-55,-106,-135,-106xm210,-38v105,0,180,-57,180,-162v0,-26,4,-60,-2,-82v-64,50,-209,21,-270,84v-14,15,-23,33,-23,58v0,66,49,102,115,102","w":519},"\u00e0":{"d":"214,-729r105,141r-51,0r-132,-141r78,0xm255,-478v-81,1,-137,38,-138,120r-63,0v8,-118,84,-172,209,-173v116,0,191,46,190,166r0,274v-3,33,29,45,57,34r0,53v-15,3,-23,4,-41,4v-58,2,-75,-33,-74,-90r-2,0v-40,60,-87,105,-188,104v-104,-2,-172,-46,-173,-150v-1,-160,174,-147,312,-171v31,-5,46,-26,46,-65v1,-81,-55,-106,-135,-106xm210,-38v105,0,180,-57,180,-162v0,-26,4,-60,-2,-82v-64,50,-209,21,-270,84v-14,15,-23,33,-23,58v0,66,49,102,115,102","w":519},"\u00e2":{"d":"343,-588r-86,-102r-88,102r-58,0r114,-141r69,0r114,141r-65,0xm255,-478v-81,1,-137,38,-138,120r-63,0v8,-118,84,-172,209,-173v116,0,191,46,190,166r0,274v-3,33,29,45,57,34r0,53v-15,3,-23,4,-41,4v-58,2,-75,-33,-74,-90r-2,0v-40,60,-87,105,-188,104v-104,-2,-172,-46,-173,-150v-1,-160,174,-147,312,-171v31,-5,46,-26,46,-65v1,-81,-55,-106,-135,-106xm210,-38v105,0,180,-57,180,-162v0,-26,4,-60,-2,-82v-64,50,-209,21,-270,84v-14,15,-23,33,-23,58v0,66,49,102,115,102","w":519},"\u00e4":{"d":"137,-706r68,0r0,101r-68,0r0,-101xm314,-706r68,0r0,101r-68,0r0,-101xm255,-478v-81,1,-137,38,-138,120r-63,0v8,-118,84,-172,209,-173v116,0,191,46,190,166r0,274v-3,33,29,45,57,34r0,53v-15,3,-23,4,-41,4v-58,2,-75,-33,-74,-90r-2,0v-40,60,-87,105,-188,104v-104,-2,-172,-46,-173,-150v-1,-160,174,-147,312,-171v31,-5,46,-26,46,-65v1,-81,-55,-106,-135,-106xm210,-38v105,0,180,-57,180,-162v0,-26,4,-60,-2,-82v-64,50,-209,21,-270,84v-14,15,-23,33,-23,58v0,66,49,102,115,102","w":519},"\u00e3":{"d":"298,-667v39,20,74,-6,80,-41r38,0v-10,48,-31,94,-87,95v-56,1,-85,-46,-135,-46v-31,0,-54,19,-53,51r-39,0v6,-63,57,-115,129,-89v24,9,45,19,67,30xm255,-478v-81,1,-137,38,-138,120r-63,0v8,-118,84,-172,209,-173v116,0,191,46,190,166r0,274v-3,33,29,45,57,34r0,53v-15,3,-23,4,-41,4v-58,2,-75,-33,-74,-90r-2,0v-40,60,-87,105,-188,104v-104,-2,-172,-46,-173,-150v-1,-160,174,-147,312,-171v31,-5,46,-26,46,-65v1,-81,-55,-106,-135,-106xm210,-38v105,0,180,-57,180,-162v0,-26,4,-60,-2,-82v-64,50,-209,21,-270,84v-14,15,-23,33,-23,58v0,66,49,102,115,102","w":519},"\u00e5":{"d":"260,-745v-38,0,-68,30,-68,68v0,38,30,68,68,68v38,0,68,-30,68,-68v0,-38,-30,-68,-68,-68xm260,-570v-64,0,-107,-43,-107,-107v0,-64,43,-107,107,-107v64,0,107,43,107,107v0,64,-43,107,-107,107xm255,-478v-81,1,-137,38,-138,120r-63,0v8,-118,84,-172,209,-173v116,0,191,46,190,166r0,274v-3,33,29,45,57,34r0,53v-15,3,-23,4,-41,4v-58,2,-75,-33,-74,-90r-2,0v-40,60,-87,105,-188,104v-104,-2,-172,-46,-173,-150v-1,-160,174,-147,312,-171v31,-5,46,-26,46,-65v1,-81,-55,-106,-135,-106xm210,-38v105,0,180,-57,180,-162v0,-26,4,-60,-2,-82v-64,50,-209,21,-270,84v-14,15,-23,33,-23,58v0,66,49,102,115,102","w":519},"\u00e7":{"d":"278,-38v90,0,139,-63,150,-147r63,0v-14,116,-88,195,-209,199r-33,43v57,-9,116,4,116,62v0,94,-133,102,-204,65r14,-32v39,14,132,32,132,-29v0,-44,-64,-43,-94,-30r-16,-15r51,-66v-138,-20,-214,-118,-214,-270v0,-161,83,-273,244,-273v116,0,198,65,209,177r-63,0v-17,-73,-58,-126,-146,-124v-123,3,-181,97,-181,220v0,123,58,220,181,220","w":519},"\u00e9":{"d":"200,-588r105,-141r78,0r-132,141r-51,0xm431,-294v0,-127,-109,-223,-233,-168v-60,26,-91,91,-101,168r334,0xm34,-258v0,-157,73,-273,233,-273v163,0,228,125,227,290r-397,0v5,113,55,200,170,203v95,2,142,-56,162,-132r63,0v-27,113,-89,185,-225,184v-162,-1,-233,-112,-233,-272","w":519},"\u00e8":{"d":"214,-729r105,141r-51,0r-132,-141r78,0xm431,-294v0,-127,-109,-223,-233,-168v-60,26,-91,91,-101,168r334,0xm34,-258v0,-157,73,-273,233,-273v163,0,228,125,227,290r-397,0v5,113,55,200,170,203v95,2,142,-56,162,-132r63,0v-27,113,-89,185,-225,184v-162,-1,-233,-112,-233,-272","w":519},"\u00ea":{"d":"343,-588r-86,-102r-88,102r-58,0r114,-141r69,0r114,141r-65,0xm431,-294v0,-127,-109,-223,-233,-168v-60,26,-91,91,-101,168r334,0xm34,-258v0,-157,73,-273,233,-273v163,0,228,125,227,290r-397,0v5,113,55,200,170,203v95,2,142,-56,162,-132r63,0v-27,113,-89,185,-225,184v-162,-1,-233,-112,-233,-272","w":519},"\u00eb":{"d":"137,-706r68,0r0,101r-68,0r0,-101xm314,-706r68,0r0,101r-68,0r0,-101xm431,-294v0,-127,-109,-223,-233,-168v-60,26,-91,91,-101,168r334,0xm34,-258v0,-157,73,-273,233,-273v163,0,228,125,227,290r-397,0v5,113,55,200,170,203v95,2,142,-56,162,-132r63,0v-27,113,-89,185,-225,184v-162,-1,-233,-112,-233,-272","w":519},"\u00ed":{"d":"33,-588r105,-141r78,0r-132,141r-51,0xm61,-516r63,0r0,516r-63,0r0,-516","w":185},"\u00ec":{"d":"47,-729r105,141r-51,0r-131,-141r77,0xm61,-516r63,0r0,516r-63,0r0,-516","w":185},"\u00ee":{"d":"176,-588r-86,-102r-88,102r-57,0r113,-141r69,0r114,141r-65,0xm61,-516r63,0r0,516r-63,0r0,-516","w":185},"\u00ef":{"d":"-29,-706r67,0r0,101r-67,0r0,-101xm147,-706r68,0r0,101r-68,0r0,-101xm61,-516r63,0r0,516r-63,0r0,-516","w":185},"\u00f1":{"d":"306,-667v39,20,75,-6,81,-41r38,0v-10,48,-31,94,-87,95v-56,1,-85,-46,-135,-46v-31,0,-54,19,-53,51r-39,0v6,-63,57,-115,129,-89v24,9,44,19,66,30xm284,-478v-107,2,-162,73,-162,177r0,301r-63,0r0,-516r63,0v2,28,-4,65,2,89v21,-58,89,-104,165,-104v132,-1,189,67,189,199r0,332r-63,0r0,-322v0,-95,-35,-158,-131,-156","w":537},"\u00f3":{"d":"219,-588r105,-141r78,0r-132,141r-51,0xm459,-258v0,-123,-58,-220,-181,-220v-123,0,-181,97,-181,220v0,123,58,220,181,220v123,0,181,-97,181,-220xm34,-258v0,-161,83,-273,244,-273v161,0,244,112,244,273v0,161,-82,272,-244,272v-162,0,-244,-111,-244,-272"},"\u00f2":{"d":"233,-729r105,141r-51,0r-132,-141r78,0xm459,-258v0,-123,-58,-220,-181,-220v-123,0,-181,97,-181,220v0,123,58,220,181,220v123,0,181,-97,181,-220xm34,-258v0,-161,83,-273,244,-273v161,0,244,112,244,273v0,161,-82,272,-244,272v-162,0,-244,-111,-244,-272"},"\u00f4":{"d":"362,-588r-86,-102r-88,102r-58,0r114,-141r69,0r114,141r-65,0xm459,-258v0,-123,-58,-220,-181,-220v-123,0,-181,97,-181,220v0,123,58,220,181,220v123,0,181,-97,181,-220xm34,-258v0,-161,83,-273,244,-273v161,0,244,112,244,273v0,161,-82,272,-244,272v-162,0,-244,-111,-244,-272"},"\u00f6":{"d":"156,-706r68,0r0,101r-68,0r0,-101xm333,-706r68,0r0,101r-68,0r0,-101xm459,-258v0,-123,-58,-220,-181,-220v-123,0,-181,97,-181,220v0,123,58,220,181,220v123,0,181,-97,181,-220xm34,-258v0,-161,83,-273,244,-273v161,0,244,112,244,273v0,161,-82,272,-244,272v-162,0,-244,-111,-244,-272"},"\u00f5":{"d":"316,-667v39,20,75,-6,81,-41r38,0v-10,48,-31,94,-87,95v-56,1,-85,-46,-135,-46v-31,0,-54,19,-53,51r-39,0v6,-63,57,-115,129,-89v24,9,44,19,66,30xm459,-258v0,-123,-58,-220,-181,-220v-123,0,-181,97,-181,220v0,123,58,220,181,220v123,0,181,-97,181,-220xm34,-258v0,-161,83,-273,244,-273v161,0,244,112,244,273v0,161,-82,272,-244,272v-162,0,-244,-111,-244,-272"},"\u00fa":{"d":"209,-588r105,-141r78,0r-132,141r-51,0xm260,-38v202,-5,147,-276,155,-478r63,0r0,516r-58,0v-2,-30,4,-67,-2,-93v-29,63,-93,106,-178,107v-126,0,-181,-69,-181,-195r0,-335r63,0r0,336v4,95,38,145,138,142","w":537},"\u00f9":{"d":"223,-729r105,141r-51,0r-132,-141r78,0xm260,-38v202,-5,147,-276,155,-478r63,0r0,516r-58,0v-2,-30,4,-67,-2,-93v-29,63,-93,106,-178,107v-126,0,-181,-69,-181,-195r0,-335r63,0r0,336v4,95,38,145,138,142","w":537},"\u00fb":{"d":"352,-588r-86,-102r-88,102r-58,0r114,-141r69,0r114,141r-65,0xm260,-38v202,-5,147,-276,155,-478r63,0r0,516r-58,0v-2,-30,4,-67,-2,-93v-29,63,-93,106,-178,107v-126,0,-181,-69,-181,-195r0,-335r63,0r0,336v4,95,38,145,138,142","w":537},"\u00fc":{"d":"146,-706r68,0r0,101r-68,0r0,-101xm323,-706r68,0r0,101r-68,0r0,-101xm260,-38v202,-5,147,-276,155,-478r63,0r0,516r-58,0v-2,-30,4,-67,-2,-93v-29,63,-93,106,-178,107v-126,0,-181,-69,-181,-195r0,-335r63,0r0,336v4,95,38,145,138,142","w":537},"\u2020":{"d":"48,-493r198,0r0,-221r63,0r0,221r199,0r0,53r-199,0r0,590r-63,0r0,-590r-198,0r0,-53"},"\u00b0":{"d":"200,-667v-63,0,-103,42,-105,105v-2,59,46,107,105,105v63,-2,105,-42,105,-105v0,-63,-42,-105,-105,-105xm200,-418v-87,0,-144,-57,-144,-144v0,-87,58,-144,144,-144v86,0,144,58,144,144v0,86,-57,144,-144,144","w":400},"\u00a2":{"d":"54,-258v0,-153,76,-253,216,-271r0,-89r39,0r0,87v116,6,184,68,198,177r-63,0v-15,-71,-54,-121,-135,-124r0,440v83,-8,128,-67,139,-147r63,0v-13,113,-86,194,-202,199r0,101r-39,0r0,-102v-140,-18,-216,-118,-216,-271xm270,-476v-176,15,-198,323,-68,410v20,13,42,23,68,27r0,-437"},"\u00a3":{"d":"155,-225v0,-33,-14,-83,-28,-105r-81,0r0,-32r63,0v-27,-45,-55,-94,-55,-161v0,-138,93,-203,228,-206v148,-3,236,89,232,237r-63,0v0,-107,-58,-187,-169,-184v-99,3,-165,55,-165,157v0,72,38,104,59,157r160,0r0,32r-142,0v13,20,24,67,24,97v0,89,-58,139,-110,182r2,2v27,-13,59,-30,97,-30v80,0,114,41,188,41v47,0,91,-29,115,-56r32,48v-41,34,-77,59,-146,60v-103,0,-195,-76,-290,-16r-27,16r-36,-53v52,-46,112,-92,112,-186"},"\u00a7":{"d":"279,-676v-63,0,-112,26,-112,89v0,60,47,88,89,115v77,49,179,83,230,157v17,23,25,51,25,84v0,77,-53,115,-109,140v33,29,50,65,50,108v0,148,-213,180,-304,97v-33,-30,-50,-73,-50,-130r63,0v0,74,44,123,116,123v63,0,112,-26,112,-89v0,-59,-47,-87,-89,-114v-77,-49,-179,-83,-230,-157v-17,-23,-25,-51,-25,-84v0,-77,53,-115,109,-140v-33,-29,-50,-66,-50,-109v0,-148,212,-180,304,-98v33,30,50,74,50,132r-63,0v0,-75,-43,-124,-116,-124xm364,-122v44,-19,90,-48,84,-108v-13,-129,-173,-152,-258,-217v-44,19,-88,48,-82,108v13,128,173,151,256,217"},"\u2022":{"d":"250,-178v-107,0,-178,-72,-178,-179v0,-107,71,-178,178,-178v107,0,179,71,179,178v0,107,-72,179,-179,179","w":500},"\u00b6":{"d":"273,-328v-121,-5,-203,-72,-207,-190v-4,-132,87,-197,223,-196r230,0r0,890r-63,0r0,-837r-120,0r0,837r-63,0r0,-504","w":600},"\u00df":{"d":"61,-535v2,-128,72,-194,199,-194v116,0,192,59,196,176v2,78,-50,135,-113,152v96,11,149,82,149,185v0,159,-104,236,-272,221r0,-54v121,19,209,-37,209,-156v0,-129,-81,-165,-209,-163r0,-53v97,-2,173,-30,173,-130v0,-79,-54,-123,-132,-125v-100,-2,-137,49,-137,146r0,530r-63,0r0,-535","w":537},"\u00ae":{"d":"517,-453v0,-92,-110,-72,-199,-74r0,149v90,-3,199,18,199,-75xm570,-453v0,74,-45,108,-108,120r128,191r-62,0r-121,-191r-89,0r0,191r-53,0r0,-430r165,0v91,0,140,35,140,119xm714,-357v0,-239,-210,-379,-440,-294v-111,41,-188,144,-188,294v0,150,80,246,188,294v75,33,175,33,250,0v108,-49,190,-144,190,-294xm135,-622v77,-85,263,-143,412,-78v128,56,225,167,225,343v0,176,-97,287,-225,343v-89,38,-205,38,-294,0v-128,-56,-225,-167,-225,-343v0,-114,50,-202,107,-265","w":800},"\u00a9":{"d":"192,-357v-3,-161,120,-262,284,-219v65,17,108,67,118,141r-51,0v-12,-60,-61,-107,-133,-106v-110,2,-165,74,-165,184v0,110,55,181,165,184v72,1,121,-47,133,-106r51,0v-15,95,-80,151,-185,151v-141,0,-214,-90,-217,-229xm524,-63v139,-57,238,-233,166,-419v-43,-111,-140,-194,-290,-194v-150,0,-244,84,-290,194v-53,126,-3,283,65,351v73,73,224,120,349,68xm665,-622v84,77,144,263,79,412v-56,128,-168,224,-344,224v-176,0,-288,-97,-344,-224v-38,-88,-38,-204,0,-293v56,-129,167,-226,344,-226v115,0,202,49,265,107","w":800},"\u2122":{"d":"476,-714r85,0r133,334r129,-334r85,0r0,412r-53,0r0,-364r-2,0r-146,364r-30,0r-146,-364r-2,0r0,364r-53,0r0,-412xm216,-669r-134,0r0,-45r321,0r0,45r-134,0r0,367r-53,0r0,-367","w":990},"\u00b4":{"d":"33,-588r105,-141r78,0r-132,141r-51,0","w":185},"\u00a8":{"d":"-29,-706r67,0r0,101r-67,0r0,-101xm147,-706r68,0r0,101r-68,0r0,-101","w":185},"\u00c6":{"d":"445,-656r-40,0r-189,372r229,0r0,-372xm884,-58r0,58r-439,0r0,-226r-259,0r-116,226r-76,0r373,-714r513,0r0,58r-367,0r0,258r344,0r0,58r-344,0r0,282r371,0","w":907},"\u00d8":{"d":"371,-729v104,0,176,35,230,88r71,-78r26,23r-73,81v108,115,104,401,-2,517v-57,62,-136,112,-252,112v-104,0,-177,-35,-231,-88r-76,85r-27,-24r79,-88v-108,-116,-104,-398,2,-515v57,-63,137,-113,253,-113xm371,-671v-220,-1,-303,209,-255,425v8,36,24,67,44,96r398,-443v-42,-45,-101,-79,-187,-78xm371,-43v219,1,302,-210,254,-425v-8,-36,-24,-68,-45,-97r-397,443v43,47,100,79,188,79","w":741},"\u221e":{"d":"544,-110v-91,0,-138,-60,-188,-106v-52,46,-99,106,-191,106v-85,0,-133,-55,-135,-141v-2,-104,87,-172,190,-135v57,21,96,65,136,103v50,-47,95,-113,186,-113v87,0,138,56,138,142v0,87,-49,144,-136,144xm82,-251v-3,67,61,106,126,79v44,-18,80,-48,112,-78v-45,-37,-85,-93,-157,-93v-52,0,-79,39,-81,92xm628,-251v0,-69,-61,-114,-127,-83v-42,19,-79,54,-110,84v43,37,81,84,156,87v51,2,81,-39,81,-88","w":710},"\u00b1":{"d":"552,-53r0,53r-503,0r0,-53r503,0xm327,-503r0,180r225,0r0,53r-225,0r0,180r-53,0r0,-180r-224,0r0,-53r224,0r0,-180r53,0","w":600},"\u2264":{"d":"50,-38r500,0r0,54r-500,0r0,-54xm50,-272r0,-59r500,-191r0,59r-425,161r425,161r0,60","w":600},"\u2265":{"d":"50,16r0,-54r500,0r0,54r-500,0xm50,-81r0,-60r425,-161r-425,-161r0,-59r500,191r0,59","w":600},"\u00a5":{"d":"216,-349r-210,-365r72,0r199,365r201,-365r69,0r-211,365r109,0r0,45r-131,0v-12,17,-3,56,-6,83r137,0r0,45r-137,0r0,176r-63,0r0,-176r-135,0r0,-45r135,0v-2,-27,6,-66,-6,-83r-129,0r0,-45r106,0"},"\u00b5":{"d":"260,-38v202,-5,147,-276,155,-478r63,0r0,516r-58,0v-2,-30,4,-67,-2,-93v-29,63,-93,106,-178,107v-47,0,-89,-12,-117,-34r0,210r-64,0r0,-706r63,0r0,336v4,95,38,145,138,142","w":537},"\u220f":{"d":"72,-786r570,0r0,1000r-63,0r0,-942r-444,0r0,942r-63,0r0,-1000","w":714},"\u03c0":{"d":"568,-11v-21,9,-36,17,-64,17v-70,3,-79,-49,-79,-117r0,-352r-262,0r0,463r-63,0r0,-463r-70,0r0,-53r534,0r0,53r-76,0r0,359v1,31,3,55,38,54v13,0,27,-3,42,-10r0,49","w":598},"\u00aa":{"d":"140,-667v-46,0,-86,23,-86,70r-47,0v3,-78,60,-108,140,-109v75,0,129,23,128,100r0,172v0,20,21,28,38,20r0,34v-45,10,-81,-3,-75,-53r-2,0v-42,90,-240,94,-240,-31v0,-112,131,-90,218,-114v9,-3,14,-11,14,-22v2,-53,-39,-67,-88,-67xm111,-407v81,2,132,-53,115,-142v-48,39,-174,-3,-184,83v3,37,31,58,69,59","w":311},"\u00ba":{"d":"50,-537v0,75,41,130,117,130v76,0,117,-55,117,-130v0,-75,-41,-130,-117,-130v-76,0,-117,55,-117,130xm331,-537v0,106,-60,169,-169,169v-104,0,-159,-67,-159,-169v0,-102,55,-169,159,-169v109,0,169,63,169,169","w":334},"\u2126":{"d":"126,-415v0,133,69,212,184,233r0,182r-251,0r0,-58r197,0r0,-82v-118,-36,-197,-127,-197,-276v0,-149,86,-241,197,-282v182,-68,361,24,416,159v15,38,25,78,25,122v0,149,-77,241,-197,277r0,82r197,0r0,58r-251,0r0,-182v146,-17,220,-177,164,-332v-40,-111,-189,-186,-330,-130v-88,35,-154,110,-154,229","w":756},"\u00e6":{"d":"437,-424v28,-97,186,-137,287,-83v82,44,116,142,117,266r-388,0v-5,122,50,203,168,203v90,0,135,-53,153,-129r63,0v-25,110,-96,180,-225,181v-103,1,-159,-52,-191,-129v-21,89,-111,129,-216,129v-104,0,-172,-46,-173,-150v-1,-160,174,-147,312,-171v31,-5,46,-26,46,-65v1,-81,-55,-106,-135,-106v-81,1,-137,38,-138,120r-63,0v8,-118,84,-173,209,-173v88,0,160,27,172,107r2,0xm210,-38v105,0,180,-57,180,-162v0,-26,4,-60,-2,-82v-64,50,-209,21,-270,84v-14,15,-23,33,-23,58v0,66,49,102,115,102xm778,-294v2,-128,-107,-222,-232,-169v-58,25,-94,86,-93,169r325,0","w":870},"\u00f8":{"d":"278,-531v75,-2,132,28,170,68r52,-56r22,20r-54,59v33,46,54,107,54,182v0,161,-82,272,-244,272v-76,0,-130,-27,-168,-67r-59,63r-22,-19r61,-67v-35,-44,-56,-107,-56,-182v0,-161,83,-269,244,-273xm278,-38v170,0,221,-219,146,-354r-273,295v27,33,69,59,127,59xm278,-478v-170,0,-222,221,-145,355r273,-295v-28,-34,-69,-60,-128,-60"},"\u00bf":{"d":"223,-410r0,-106r84,0r0,106r-84,0xm260,152v109,-3,160,-72,161,-181r63,0v-3,147,-80,234,-227,234v-120,0,-203,-64,-203,-185v0,-132,112,-168,164,-252v17,-28,14,-67,16,-112r63,0v14,164,-104,193,-161,291v-55,95,15,208,124,205","w":537},"\u00a1":{"d":"163,-410r-84,0r0,-106r84,0r0,106xm155,190r-68,0r0,-205r15,-323r38,0r15,323r0,205","w":241},"\u00ac":{"d":"49,-325r0,-53r503,0r0,267r-53,0r0,-214r-450,0","w":600},"\u0192":{"d":"478,-657v-141,-32,-147,107,-170,218r113,0r-9,53r-113,0r-79,410v-17,101,-86,168,-213,143r9,-54v88,26,130,-33,144,-106r75,-393r-100,0r9,-53r101,0v30,-132,33,-297,214,-273v10,1,20,2,31,3"},"\u2206":{"d":"282,-714r76,0r280,714r-643,0xm542,-58r-225,-588r-228,588r453,0","w":633},"\u00ab":{"d":"60,-306r133,-125r0,67r-94,89r94,89r0,67r-133,-125r0,-62xm221,-306r133,-125r0,67r-94,89r94,89r0,67r-133,-125r0,-62","w":426},"\u00bb":{"d":"166,-275r-94,-89r0,-67r133,125r0,62r-133,125r0,-67xm327,-275r-94,-89r0,-67r133,125r0,62r-133,125r0,-67","w":426},"\u2026":{"d":"791,-106r84,0r0,106r-84,0r0,-106xm458,-106r84,0r0,106r-84,0r0,-106xm125,-106r84,0r0,106r-84,0r0,-106","w":1000},"\u00a0":{"w":278},"\u00c0":{"d":"270,-912r105,141r-51,0r-132,-141r78,0xm454,-280r-138,-366r-143,366r281,0xm357,-714r280,714r-73,0r-87,-222r-325,0r-86,222r-72,0r287,-714r76,0","w":630},"\u00c3":{"d":"354,-850v39,20,74,-6,80,-41r38,0v-10,48,-31,94,-87,95v-56,1,-85,-46,-135,-46v-31,0,-54,19,-53,51r-39,0v6,-63,57,-115,129,-89v24,9,45,19,67,30xm454,-280r-138,-366r-143,366r281,0xm357,-714r280,714r-73,0r-87,-222r-325,0r-86,222r-72,0r287,-714r76,0","w":630},"\u00d5":{"d":"408,-850v39,20,75,-6,81,-41r38,0v-10,48,-31,94,-87,95v-56,1,-85,-46,-135,-46v-31,0,-54,19,-53,51r-39,0v6,-63,57,-115,129,-89v24,9,44,19,66,30xm371,-671v-184,0,-269,133,-269,314v0,180,85,314,269,314v184,0,268,-134,268,-314v0,-181,-84,-314,-268,-314xm371,14v-274,-1,-389,-247,-316,-512v37,-135,142,-231,316,-231v223,0,336,151,336,372v0,167,-72,285,-189,341v-42,20,-91,30,-147,30","w":741},"\u0152":{"d":"233,-699v105,-51,274,-35,336,44r0,-59r474,0r0,58r-406,0r0,258r368,0r0,58r-368,0r0,282r409,0r0,58r-477,0r0,-70v-61,83,-224,104,-336,54v-152,-67,-240,-280,-173,-484v30,-91,90,-159,173,-199xm569,-177r-1,-371v-11,-91,-100,-123,-193,-123v-219,0,-313,219,-253,434v31,111,113,194,253,194v95,0,157,-34,189,-105v4,-9,4,-19,5,-29","w":1074},"\u0153":{"d":"800,-294v5,-130,-106,-223,-230,-169v-58,25,-90,86,-91,169r321,0xm640,-38v93,2,137,-53,159,-128r63,0v-25,110,-100,179,-228,180v-94,1,-163,-55,-186,-130v-22,82,-88,130,-185,130v-160,0,-227,-113,-227,-272v0,-157,73,-270,230,-273v99,-2,159,50,186,127v26,-72,95,-128,190,-127v166,2,220,113,221,290r-384,0v4,113,48,201,161,203xm416,-262v0,-118,-31,-216,-151,-216v-127,0,-166,106,-166,232v0,117,47,208,165,208v123,0,152,-104,152,-224","w":889},"\u2013":{"d":"0,-304r500,0r0,58r-500,0r0,-58","w":500},"\u2014":{"d":"130,-304r740,0r0,58r-740,0r0,-58","w":1000},"\u201c":{"d":"64,-471v-4,-110,-3,-220,89,-243r0,43v-32,14,-48,50,-47,94r42,0r0,106r-84,0xm218,-471v-4,-110,-3,-220,89,-243r0,43v-32,14,-48,50,-47,94r42,0r0,106r-84,0","w":370},"\u201d":{"d":"152,-714v4,110,3,220,-89,243r0,-43v33,-12,47,-50,47,-94r-42,0r0,-106r84,0xm306,-714v4,110,3,220,-89,243r0,-43v33,-12,47,-50,47,-94r-42,0r0,-106r84,0","w":370},"\u02bb":{"d":"95,-471v-4,-110,-3,-220,89,-243r0,43v-32,14,-48,50,-47,94r42,0r0,106r-84,0","w":278},"\u02bc":{"d":"183,-714v4,110,3,220,-89,243r0,-43v33,-12,47,-50,47,-94r-42,0r0,-106r84,0","w":278},"\u00f7":{"d":"301,5v-30,0,-57,-25,-57,-55v0,-30,26,-56,56,-56v30,0,56,26,56,56v0,27,-27,55,-55,55xm301,-397v-30,0,-57,-26,-57,-56v0,-30,26,-56,56,-56v30,0,56,26,56,56v0,27,-27,56,-55,56xm49,-278r503,0r0,53r-503,0r0,-53","w":600},"\u25ca":{"d":"96,-349r170,-384r67,0r171,384r-171,384r-67,0xm435,-349r-136,-314r-134,314r134,314","w":600},"\u00ff":{"d":"109,-706r68,0r0,101r-68,0r0,-101xm286,-706r68,0r0,101r-68,0r0,-101xm53,132v53,14,103,-3,118,-43v11,-30,25,-60,37,-91r-206,-514r67,0r170,440r159,-440r63,0r-224,594v-28,63,-46,115,-136,112v-22,-1,-33,0,-48,-5r0,-53","w":463},"\u0178":{"d":"183,-889r68,0r0,101r-68,0r0,-101xm360,-889r68,0r0,101r-68,0r0,-101xm-9,-714r80,0r235,362r234,-362r81,0r-282,420r0,294r-68,0r0,-294","w":611},"\u2044":{"d":"334,-725r-451,758r-48,0r452,-758r47,0","w":167},"\u20ac":{"d":"84,-434v26,-154,122,-277,287,-278v83,0,145,26,186,77r-27,59v-76,-100,-230,-106,-310,-12v-34,39,-57,90,-69,154r333,0r-18,45r-321,0v-2,23,-5,39,-2,59r304,0r-19,45r-282,0v14,133,87,244,221,244v83,0,123,-36,174,-86r0,77v-51,43,-109,64,-176,64v-172,0,-268,-131,-284,-299r-66,0r19,-45r44,0v-2,-20,0,-39,1,-59r-64,0r18,-45r51,0"},"\u2039":{"d":"53,-306r133,-125r0,67r-94,89r94,89r0,67r-133,-125r0,-62","w":259},"\u203a":{"d":"167,-275r-94,-89r0,-67r133,125r0,62r-133,125r0,-67","w":259},"\ufb01":{"d":"383,-714r0,101r-63,0r0,-101r63,0xm226,-661v-78,-4,-69,70,-69,145r102,0r0,53r-102,0r0,463r-63,0r0,-463r-88,0r0,-53r88,0v-5,-115,12,-202,125,-198v21,0,34,2,53,4r0,54v-16,-2,-29,-4,-46,-5xm383,-516r0,516r-63,0r0,-516r63,0","w":444},"\ufb02":{"d":"383,-714r0,714r-63,0r0,-714r63,0xm226,-661v-78,-4,-69,70,-69,145r102,0r0,53r-102,0r0,463r-63,0r0,-463r-88,0r0,-53r88,0v-5,-115,12,-202,125,-198v21,0,34,2,53,4r0,54v-16,-2,-29,-4,-46,-5","w":444},"\u2021":{"d":"48,-100r198,0r0,-363r-198,0r0,-53r198,0r0,-198r63,0r0,198r199,0r0,53r-199,0r0,363r199,0r0,53r-199,0r0,197r-63,0r0,-197r-198,0r0,-53"},"\u00b7":{"d":"80,-317v0,-30,29,-58,59,-58v31,0,59,29,59,60v0,30,-29,58,-59,58v-31,0,-59,-29,-59,-60","w":278},"\u2030":{"d":"310,-537v0,-70,-23,-124,-96,-124v-73,0,-96,52,-96,124v0,71,23,124,96,124v73,0,96,-54,96,-124xm65,-537v0,-104,45,-169,149,-169v105,0,149,65,149,169v0,104,-44,169,-149,169v-104,0,-149,-65,-149,-169xm997,-154v0,-70,-23,-124,-96,-124v-73,0,-96,52,-96,124v0,71,23,124,96,124v73,0,96,-54,96,-124xm752,-154v0,-104,45,-169,149,-169v105,0,149,65,149,169v0,103,-44,168,-149,168v-104,0,-149,-65,-149,-168xm643,-154v0,-70,-23,-124,-96,-124v-73,0,-96,52,-96,124v0,71,23,124,96,124v73,0,96,-54,96,-124xm398,-154v0,-104,45,-169,149,-169v105,0,149,65,149,169v0,103,-44,168,-149,168v-104,0,-149,-65,-149,-168xm629,-725r-452,758r-48,0r453,-758r47,0","w":1111},"\u00c2":{"d":"399,-771r-86,-102r-88,102r-58,0r114,-141r69,0r114,141r-65,0xm454,-280r-138,-366r-143,366r281,0xm357,-714r280,714r-73,0r-87,-222r-325,0r-86,222r-72,0r287,-714r76,0","w":630},"\u00ca":{"d":"380,-771r-86,-102r-88,102r-58,0r114,-141r69,0r114,141r-65,0xm565,-714r0,58r-425,0r0,258r398,0r0,58r-398,0r0,282r430,0r0,58r-498,0r0,-714r493,0","w":593},"\u00c1":{"d":"256,-771r105,-141r78,0r-132,141r-51,0xm454,-280r-138,-366r-143,366r281,0xm357,-714r280,714r-73,0r-87,-222r-325,0r-86,222r-72,0r287,-714r76,0","w":630},"\u00cb":{"d":"174,-889r68,0r0,101r-68,0r0,-101xm351,-889r68,0r0,101r-68,0r0,-101xm565,-714r0,58r-425,0r0,258r398,0r0,58r-398,0r0,282r430,0r0,58r-498,0r0,-714r493,0","w":593},"\u00c8":{"d":"251,-912r105,141r-51,0r-132,-141r78,0xm565,-714r0,58r-425,0r0,258r398,0r0,58r-398,0r0,282r430,0r0,58r-498,0r0,-714r493,0","w":593},"\u00cd":{"d":"52,-771r105,-141r78,0r-132,141r-51,0xm145,-714r0,714r-68,0r0,-714r68,0","w":222},"\u00ce":{"d":"195,-771r-86,-102r-88,102r-57,0r113,-141r69,0r114,141r-65,0xm145,-714r0,714r-68,0r0,-714r68,0","w":222},"\u00cf":{"d":"-10,-889r67,0r0,101r-67,0r0,-101xm166,-889r68,0r0,101r-68,0r0,-101xm145,-714r0,714r-68,0r0,-714r68,0","w":222},"\u00cc":{"d":"66,-912r105,141r-51,0r-131,-141r77,0xm145,-714r0,714r-68,0r0,-714r68,0","w":222},"\u00d3":{"d":"311,-771r105,-141r78,0r-132,141r-51,0xm371,-671v-184,0,-269,133,-269,314v0,180,85,314,269,314v184,0,268,-134,268,-314v0,-181,-84,-314,-268,-314xm371,14v-274,-1,-389,-247,-316,-512v37,-135,142,-231,316,-231v223,0,336,151,336,372v0,167,-72,285,-189,341v-42,20,-91,30,-147,30","w":741},"\u00d4":{"d":"454,-771r-86,-102r-88,102r-58,0r114,-141r69,0r114,141r-65,0xm371,-671v-184,0,-269,133,-269,314v0,180,85,314,269,314v184,0,268,-134,268,-314v0,-181,-84,-314,-268,-314xm371,14v-274,-1,-389,-247,-316,-512v37,-135,142,-231,316,-231v223,0,336,151,336,372v0,167,-72,285,-189,341v-42,20,-91,30,-147,30","w":741},"\uf8ff":{"d":"250,-618v36,-1,131,30,158,30v30,1,121,-34,158,-34v71,0,125,38,159,82v-51,44,-87,86,-90,163v-2,79,55,158,114,175v-26,86,-109,222,-190,222v-35,0,-107,-31,-146,-31v-39,0,-105,33,-138,33v-111,0,-224,-250,-224,-381v0,-137,75,-255,199,-259xm558,-811v14,88,-47,169,-113,195v-12,5,-30,6,-51,8v4,-112,58,-182,164,-203","w":790},"\u00d2":{"d":"325,-912r105,141r-51,0r-132,-141r78,0xm371,-671v-184,0,-269,133,-269,314v0,180,85,314,269,314v184,0,268,-134,268,-314v0,-181,-84,-314,-268,-314xm371,14v-274,-1,-389,-247,-316,-512v37,-135,142,-231,316,-231v223,0,336,151,336,372v0,167,-72,285,-189,341v-42,20,-91,30,-147,30","w":741},"\u00da":{"d":"283,-771r105,-141r78,0r-132,141r-51,0xm342,14v-180,0,-277,-97,-277,-271r0,-457r68,0r0,442v-1,149,63,229,209,229v147,0,211,-80,210,-229r0,-442r68,0r0,457v-4,174,-97,271,-278,271","w":685},"\u00db":{"d":"426,-771r-86,-102r-88,102r-58,0r114,-141r69,0r114,141r-65,0xm342,14v-180,0,-277,-97,-277,-271r0,-457r68,0r0,442v-1,149,63,229,209,229v147,0,211,-80,210,-229r0,-442r68,0r0,457v-4,174,-97,271,-278,271","w":685},"\u00d9":{"d":"297,-912r105,141r-51,0r-132,-141r78,0xm342,14v-180,0,-277,-97,-277,-271r0,-457r68,0r0,442v-1,149,63,229,209,229v147,0,211,-80,210,-229r0,-442r68,0r0,457v-4,174,-97,271,-278,271","w":685},"\u0131":{"d":"61,-516r63,0r0,516r-63,0r0,-516","w":185},"\u02c6":{"d":"176,-588r-86,-102r-88,102r-57,0r113,-141r69,0r114,141r-65,0","w":185},"\u02dc":{"d":"249,-708v-10,48,-31,94,-87,95v-56,1,-85,-46,-135,-46v-31,0,-53,19,-52,51r-39,0v5,-64,56,-113,128,-89v33,11,57,34,95,37v32,2,44,-23,52,-48r38,0","w":185},"\u00af":{"d":"-71,-679r328,0r0,45r-328,0r0,-45","w":185},"\u02d8":{"d":"-11,-722v5,54,45,82,102,82v52,0,101,-33,106,-82r39,0v-9,76,-62,127,-145,127v-83,0,-136,-48,-141,-127r39,0","w":185},"\u02d9":{"d":"59,-706r68,0r0,101r-68,0r0,-101","w":185},"\u02da":{"d":"93,-745v-38,0,-68,30,-68,68v0,38,30,68,68,68v38,0,68,-30,68,-68v0,-38,-30,-68,-68,-68xm93,-570v-64,0,-106,-43,-106,-107v0,-64,42,-107,106,-107v64,0,107,43,107,107v0,64,-43,107,-107,107","w":185},"\u00b8":{"d":"140,123v0,-44,-64,-43,-94,-30r-16,-15r61,-78r35,0r-44,57v57,-9,116,4,116,62v0,94,-133,102,-203,65r13,-32v39,14,132,32,132,-29","w":185},"\u02dd":{"d":"224,-729r76,0r-126,141r-51,0xm68,-729r76,0r-126,141r-50,0","w":185},"\u02db":{"d":"189,-2v-41,37,-84,60,-89,126v-2,29,19,46,44,47v26,1,45,-25,55,-41r29,13v-24,39,-46,65,-95,67v-65,3,-94,-27,-96,-82v12,-67,60,-96,114,-130r38,0","w":185},"\u02c7":{"d":"9,-729r86,102r88,-102r58,0r-114,141r-69,0r-113,-141r64,0","w":185},"\u0141":{"d":"140,-714r0,361r243,-168r0,56r-243,167r0,240r400,0r0,58r-468,0r0,-251r-81,57r0,-56r81,-56r0,-408r68,0","w":537},"\u0142":{"d":"124,-714r0,267r67,-55r0,55r-67,55r0,392r-63,0r0,-340r-66,55r0,-55r66,-55r0,-319r63,0","w":185},"\u0160":{"d":"232,-912r86,102r88,-102r58,0r-114,141r-69,0r-114,-141r65,0xm594,-189v3,186,-208,233,-390,189v-106,-26,-173,-100,-168,-235r68,0v-2,142,94,192,233,192v99,0,189,-44,189,-145v0,-86,-77,-109,-147,-129v-136,-40,-320,-36,-320,-211v0,-166,177,-235,347,-187v93,26,160,91,163,208r-68,0v-8,-108,-83,-160,-195,-164v-117,-5,-209,69,-170,185v13,39,55,53,99,66v151,44,356,40,359,231","w":630},"\u0161":{"d":"157,-729r86,102r88,-102r58,0r-114,141r-69,0r-114,-141r65,0xm49,-386v-7,-179,313,-186,366,-52v8,21,16,45,17,73r-63,0v-4,-77,-56,-110,-135,-113v-78,-3,-149,51,-112,124v80,99,321,24,328,214v6,165,-246,190,-354,111v-38,-28,-60,-75,-65,-138r63,0v3,83,67,128,152,129v85,1,168,-49,132,-136v-75,-104,-322,-25,-329,-212","w":481},"\u017d":{"d":"204,-912r86,102r88,-102r58,0r-114,141r-69,0r-114,-141r65,0xm551,-714r0,60r-470,596r480,0r0,58r-556,0r0,-60r470,-596r-438,0r0,-58r514,0","w":574},"\u017e":{"d":"148,-729r86,102r88,-102r58,0r-114,141r-69,0r-114,-141r65,0xm446,-53r0,53r-431,0r0,-51r337,-412r-314,0r0,-53r394,0r0,45r-341,418r355,0","w":463},"\u00a6":{"d":"138,-661r0,250r-53,0r0,-250r53,0xm138,-161r0,249r-53,0r0,-249r53,0","w":222},"\u00d0":{"d":"647,-357v0,233,-106,357,-328,357r-247,0r0,-348r-72,0r0,-45r72,0r0,-321r247,0v222,6,328,124,328,357xm579,-357v0,-205,-89,-303,-294,-299r-145,0r0,263r236,0r0,45r-236,0r0,290r145,0v205,4,294,-94,294,-299","w":685},"\u00f0":{"d":"406,-466v-34,-65,-77,-113,-133,-157r-105,59r-33,-32r100,-56r-93,-55r36,-35v36,20,72,39,104,64r114,-64r33,32r-109,61v105,89,196,201,196,391v0,164,-79,272,-245,272v-161,0,-237,-104,-237,-263v0,-153,83,-253,237,-257v54,-1,106,13,135,40xm453,-250v0,-118,-55,-203,-177,-203v-124,0,-179,83,-179,205v0,122,54,210,177,210v124,0,179,-87,179,-212"},"\u00dd":{"d":"246,-771r105,-141r78,0r-132,141r-51,0xm-9,-714r80,0r235,362r234,-362r81,0r-282,420r0,294r-68,0r0,-294","w":611},"\u00fd":{"d":"172,-588r105,-141r78,0r-132,141r-51,0xm53,132v53,14,103,-3,118,-43v11,-30,25,-60,37,-91r-206,-514r67,0r170,440r159,-440r63,0r-224,594v-28,63,-46,115,-136,112v-22,-1,-33,0,-48,-5r0,-53","w":463},"\u00de":{"d":"533,-393v0,-98,-64,-146,-159,-146r-234,0r0,292r234,0v95,0,159,-48,159,-146xm601,-393v0,133,-79,204,-212,204r-249,0r0,189r-68,0r0,-714r68,0r0,117r249,0v133,2,212,72,212,204","w":630},"\u00fe":{"d":"304,14v-93,0,-151,-47,-181,-112r0,288r-63,0r0,-904r63,0r0,296r2,0v26,-69,88,-113,179,-113v159,0,232,114,232,273v0,159,-72,272,-232,272xm304,-38v121,0,169,-99,169,-220v0,-121,-48,-220,-169,-220v-128,0,-181,94,-181,220v0,126,54,220,181,220","w":574},"\u2212":{"d":"49,-225r0,-53r503,0r0,53r-503,0","w":600},"\u00d7":{"d":"111,-477r189,189r189,-189r37,37r-189,189r189,189r-37,37r-189,-188r-189,188r-37,-37r188,-189r-188,-189","w":600},"\u00b9":{"d":"35,-623v70,0,120,-11,128,-74r40,0r0,423r-47,0r0,-310r-121,0r0,-39","w":333},"\u00b2":{"d":"24,-553v-2,-95,50,-154,150,-153v83,1,150,40,146,125v-8,161,-205,142,-251,268r248,0r0,39r-302,0v9,-160,189,-159,248,-267v35,-65,-19,-129,-93,-126v-69,3,-98,46,-99,114r-47,0","w":333},"\u00b3":{"d":"280,-394v0,-69,-69,-89,-145,-84r0,-39v69,3,125,-12,128,-74v2,-52,-48,-76,-98,-76v-63,-1,-101,42,-100,103r-47,0v1,-85,57,-144,147,-142v80,3,142,31,145,111v1,53,-36,81,-77,95v56,7,92,44,94,103v5,136,-193,166,-280,95v-29,-25,-42,-62,-39,-110r47,0v-3,66,42,110,110,108v62,-2,115,-29,115,-90","w":333},"\u00bd":{"d":"635,-393v-69,3,-98,46,-99,114r-47,0v-2,-95,50,-154,150,-153v83,1,150,40,146,125v-8,161,-205,142,-251,268r248,0r0,39r-302,0v9,-160,189,-159,248,-267v35,-65,-19,-129,-93,-126xm48,-623v70,0,120,-11,128,-74r40,0r0,423r-47,0r0,-310r-121,0r0,-39xm633,-725r-452,758r-48,0r453,-758r47,0","w":834},"\u00bc":{"d":"642,-139r0,-216r-2,0r-162,216r164,0xm432,-100r0,-39r213,-284r44,0r0,284r68,0r0,39r-68,0r0,100r-47,0r0,-100r-210,0xm48,-623v70,0,120,-11,128,-74r40,0r0,423r-47,0r0,-310r-121,0r0,-39xm633,-725r-452,758r-48,0r453,-758r47,0","w":834},"\u00be":{"d":"642,-139r0,-216r-2,0r-162,216r164,0xm432,-100r0,-39r213,-284r44,0r0,284r68,0r0,39r-68,0r0,100r-47,0r0,-100r-210,0xm673,-725r-452,758r-48,0r453,-758r47,0xm280,-394v0,-69,-69,-89,-145,-84r0,-39v69,3,125,-12,128,-74v2,-52,-48,-76,-98,-76v-63,-1,-101,42,-100,103r-47,0v1,-85,57,-144,147,-142v80,3,142,31,145,111v1,53,-36,81,-77,95v56,7,92,44,94,103v5,136,-193,166,-280,95v-29,-25,-42,-62,-39,-110r47,0v-3,66,42,110,110,108v62,-2,115,-29,115,-90","w":834},"\u20a3":{"d":"172,0r-93,0r0,-111r-79,0r0,-85r79,0r0,-491r458,0r0,88r-365,0r0,201r319,0r0,86r-319,0r0,116r163,0r0,85r-163,0r0,111"},"\u011e":{"d":"545,-934v-11,92,-63,135,-160,136v-90,1,-141,-50,-148,-136r50,0v12,54,44,77,108,77v60,0,90,-25,102,-77r48,0xm48,-348v0,-220,129,-388,338,-388v173,0,282,82,306,236r-96,0v-22,-101,-95,-150,-212,-150v-151,0,-239,123,-236,297v3,167,68,292,239,289v140,-3,229,-84,226,-239r-224,0r0,-81r315,0r0,384r-63,0r-23,-92v-69,76,-122,111,-250,111v-85,0,-161,-25,-220,-82v-69,-67,-100,-164,-100,-285","w":778},"\u011f":{"d":"415,-732v-12,91,-63,134,-161,135v-89,1,-140,-50,-148,-135r50,0v13,53,45,76,108,76v59,0,91,-25,103,-76r48,0xm249,-532v75,0,122,31,158,80r0,-66r81,0r0,476v3,173,-73,263,-236,263v-112,0,-199,-49,-206,-156r89,0v12,59,48,83,119,83v129,0,154,-69,150,-221v-36,52,-77,79,-162,79v-133,0,-212,-97,-212,-259v0,-156,83,-279,219,-279xm407,-264v0,-113,-46,-189,-142,-191v-104,-2,-145,89,-145,209v0,104,41,178,132,181v102,3,155,-87,155,-199"},"\u0130":{"d":"98,-717r98,0r0,717r-98,0r0,-717xm100,-886r91,0r0,102r-91,0r0,-102","w":278},"\u015e":{"d":"355,137v0,-38,-55,-46,-87,-30r-17,-20r48,-66v-137,1,-258,-106,-251,-252r92,0v5,118,76,169,199,170v95,1,190,-41,186,-124v-5,-96,-63,-103,-152,-126v-140,-35,-303,-46,-301,-204v2,-137,107,-222,257,-220v149,2,275,71,270,228r-91,0v-12,-103,-69,-141,-182,-144v-98,-2,-161,42,-161,120v0,35,14,60,43,77v67,36,278,56,344,107v45,35,68,83,68,146v0,153,-137,220,-274,222r-30,42v56,-18,115,10,115,71v0,94,-135,111,-215,70r17,-39v40,18,121,28,122,-28","w":667},"\u015f":{"d":"271,137v1,-38,-54,-46,-86,-30r-18,-20r49,-67v-109,3,-179,-82,-184,-184r85,0v7,80,51,109,137,110v61,1,125,-26,123,-87v-2,-76,-108,-75,-175,-94v-86,-25,-153,-53,-155,-136v-3,-104,86,-166,197,-166v116,0,199,59,202,164r-83,0v-6,-60,-50,-88,-126,-88v-57,0,-101,20,-101,69v0,66,89,74,150,90v114,30,178,40,178,151v0,100,-87,176,-200,171r-32,43v57,-18,116,11,116,71v0,94,-135,111,-215,70r17,-39v42,19,119,27,121,-28","w":500},"\u0106":{"d":"672,-272v-22,169,-112,283,-297,286v-269,5,-386,-250,-316,-512v43,-160,208,-275,415,-216v99,28,172,101,188,216r-68,0v-25,-103,-97,-173,-219,-173v-184,0,-269,133,-269,314v0,180,85,314,269,314v143,0,211,-99,229,-229r68,0xm320,-786r105,-141r78,0r-132,141r-51,0","w":704},"\u0107":{"d":"34,-258v0,-161,83,-273,244,-273v116,0,198,65,209,177r-63,0v-17,-73,-58,-126,-146,-124v-123,3,-181,97,-181,220v0,123,58,220,181,220v90,0,139,-63,150,-147r63,0v-15,116,-88,199,-213,199v-162,0,-244,-111,-244,-272xm208,-588r105,-141r78,0r-132,141r-51,0","w":519},"\u010c":{"d":"594,-498v-25,-103,-97,-173,-219,-173v-184,0,-269,133,-269,314v0,180,85,314,269,314v143,0,211,-99,229,-229r68,0v-22,169,-112,283,-297,286v-269,5,-386,-250,-316,-512v43,-160,208,-275,415,-216v99,28,172,101,188,216r-68,0xm214,-930r86,102r88,-102r58,0r-114,141r-69,0r-113,-141r64,0","w":722},"\u010d":{"d":"424,-354v-17,-73,-58,-126,-146,-124v-123,3,-181,97,-181,220v0,123,58,220,181,220v90,0,139,-63,150,-147r63,0v-15,116,-88,199,-213,199v-162,0,-244,-111,-244,-272v0,-161,83,-273,244,-273v116,0,198,65,209,177r-63,0xm107,-729r86,102r88,-102r58,0r-114,141r-69,0r-113,-141r64,0","w":500},"\u0111":{"d":"120,-255v2,107,42,200,150,197v95,-3,140,-91,140,-203v0,-114,-46,-195,-141,-195v-100,0,-151,85,-149,201xm252,-532v78,2,114,26,154,76r0,-135r-163,0r0,-58r163,0r0,-71r85,0r0,71r65,0r0,58r-65,0r0,591r-79,0r0,-73v-37,58,-85,92,-169,92v-128,0,-216,-124,-216,-269v0,-145,79,-286,225,-282"},"\u0100":{"d":"454,-280r-138,-366r-143,366r281,0xm357,-714r280,714r-73,0r-87,-222r-325,0r-86,222r-72,0r287,-714r76,0xm105,-820r328,0r0,45r-328,0r0,-45","w":667},"\u0101":{"d":"255,-478v-81,1,-137,38,-138,120r-63,0v8,-118,84,-172,209,-173v116,0,191,46,190,166r0,274v-3,33,29,45,57,34r0,53v-15,3,-23,4,-41,4v-58,2,-75,-33,-74,-90r-2,0v-40,60,-87,105,-188,104v-104,-2,-172,-46,-173,-150v-1,-160,174,-147,312,-171v31,-5,46,-26,46,-65v1,-81,-55,-106,-135,-106xm210,-38v105,0,180,-57,180,-162v0,-26,4,-60,-2,-82v-64,50,-209,21,-270,84v-14,15,-23,33,-23,58v0,66,49,102,115,102xm32,-654r328,0r0,45r-328,0r0,-45"},"\u0102":{"d":"503,-916v-12,92,-62,134,-161,135v-89,0,-140,-49,-148,-135r50,0v13,54,44,77,108,77v59,0,91,-26,103,-77r48,0xm444,-294r-109,-317r-115,317r224,0xm285,-717r110,0r260,717r-107,0r-72,-215r-284,0r-78,215r-99,0","w":667},"\u0103":{"d":"427,-734v-12,90,-64,134,-161,135v-89,0,-140,-49,-148,-135r50,0v13,53,44,76,108,76v59,0,91,-25,102,-76r49,0xm132,-139v0,51,44,83,94,82v84,-1,169,-54,163,-138r0,-71v-74,50,-257,2,-257,127xm205,18v-93,0,-165,-66,-165,-155v0,-102,72,-151,165,-162r140,-18v33,-5,46,-21,46,-59v-1,-66,-52,-85,-123,-85v-75,0,-111,28,-119,98r-82,0v-2,-123,90,-173,203,-173v112,0,206,39,207,145r0,301v-4,33,29,32,58,28r0,64v-67,23,-141,4,-142,-71v-35,45,-107,87,-188,87"},"\u0104":{"d":"645,143v-24,39,-46,65,-95,67v-65,3,-94,-27,-96,-82v11,-65,58,-95,110,-128r-87,-222r-325,0r-86,222r-72,0r287,-714r76,0r280,714r-34,0v-39,36,-81,60,-86,124v-1,29,19,46,44,47v26,1,45,-25,55,-41xm454,-280r-138,-366r-143,366r281,0","w":630},"\u0105":{"d":"526,143v-24,39,-46,65,-95,67v-65,3,-94,-27,-96,-82v12,-66,58,-96,112,-129v-44,-5,-49,-46,-54,-89v-40,60,-87,105,-188,104v-104,-2,-172,-46,-173,-150v-1,-160,174,-147,312,-171v31,-5,46,-26,46,-65v1,-81,-55,-106,-135,-106v-81,1,-137,38,-138,120r-63,0v8,-118,84,-172,209,-173v116,0,191,46,190,166r0,274v-3,33,29,45,57,34r0,53r-26,4v-40,36,-82,59,-86,124v-2,29,19,46,44,47v26,1,45,-25,55,-41xm95,-140v0,66,49,102,115,102v105,0,180,-57,180,-162v0,-26,4,-60,-2,-82v-64,50,-209,21,-270,84v-14,15,-23,33,-23,58","w":519},"\u0108":{"d":"594,-498v-25,-103,-97,-173,-219,-173v-184,0,-269,133,-269,314v0,180,85,314,269,314v143,0,211,-99,229,-229r68,0v-22,169,-112,283,-297,286v-269,5,-386,-250,-316,-512v43,-160,208,-275,415,-216v99,28,172,101,188,216r-68,0xm391,-786r-86,-102r-88,102r-57,0r113,-141r69,0r114,141r-65,0","w":722},"\u0109":{"d":"424,-354v-17,-73,-58,-126,-146,-124v-123,3,-181,97,-181,220v0,123,58,220,181,220v90,0,139,-63,150,-147r63,0v-15,116,-88,199,-213,199v-162,0,-244,-111,-244,-272v0,-161,83,-273,244,-273v116,0,198,65,209,177r-63,0xm290,-585r-86,-102r-88,102r-57,0r113,-141r69,0r114,141r-65,0","w":500},"\u010a":{"d":"594,-498v-25,-103,-97,-173,-219,-173v-184,0,-269,133,-269,314v0,180,85,314,269,314v143,0,211,-99,229,-229r68,0v-22,169,-112,283,-297,286v-269,5,-386,-250,-316,-512v43,-160,208,-275,415,-216v99,28,172,101,188,216r-68,0xm273,-919r68,0r0,101r-68,0r0,-101","w":722},"\u010b":{"d":"424,-354v-17,-73,-58,-126,-146,-124v-123,3,-181,97,-181,220v0,123,58,220,181,220v90,0,139,-63,150,-147r63,0v-15,116,-88,199,-213,199v-162,0,-244,-111,-244,-272v0,-161,83,-273,244,-273v116,0,198,65,209,177r-63,0xm164,-713r68,0r0,101r-68,0r0,-101","w":500},"\u010e":{"d":"647,-357v0,233,-106,357,-328,357r-247,0r0,-714r247,0v222,6,328,124,328,357xm579,-357v0,-205,-89,-303,-294,-299r-145,0r0,598r145,0v205,4,294,-94,294,-299xm210,-909r86,102r88,-102r58,0r-114,141r-69,0r-113,-141r64,0","w":722},"\u010f":{"d":"270,-531v94,0,150,48,181,113r0,-296r63,0r0,714r-58,0v-2,-31,4,-71,-2,-98v-29,66,-94,112,-184,112v-160,0,-232,-113,-232,-272v0,-159,73,-273,232,-273xm270,-478v-121,0,-169,99,-169,220v0,121,48,220,169,220v128,0,181,-94,181,-220v0,-126,-54,-220,-181,-220xm639,-872v4,109,3,219,-88,242r0,-43v31,-13,47,-50,46,-93r-42,0r0,-106r84,0","w":660},"\u0112":{"d":"565,-714r0,58r-425,0r0,258r398,0r0,58r-398,0r0,282r430,0r0,58r-498,0r0,-714r493,0xm126,-832r328,0r0,45r-328,0r0,-45","w":667},"\u0113":{"d":"431,-294v0,-127,-109,-223,-233,-168v-60,26,-91,91,-101,168r334,0xm34,-258v0,-157,73,-273,233,-273v163,0,228,125,227,290r-397,0v5,113,55,200,170,203v95,2,142,-56,162,-132r63,0v-27,113,-89,185,-225,184v-162,-1,-233,-112,-233,-272xm49,-647r328,0r0,45r-328,0r0,-45"},"\u0114":{"d":"516,-914v-12,91,-63,134,-161,135v-89,0,-141,-49,-148,-135r50,0v13,54,44,77,108,77v60,0,90,-26,102,-77r49,0xm85,-717r523,0r0,88r-428,0r0,217r396,0r0,83r-396,0r0,244r436,0r0,85r-531,0r0,-717","w":667},"\u0115":{"d":"440,-729v-12,91,-63,134,-161,135v-89,1,-140,-50,-148,-135r50,0v13,53,44,76,108,76v59,0,91,-25,103,-76r48,0xm35,-251v0,-198,171,-349,355,-257v96,48,125,124,123,275r-384,0v4,100,44,175,147,175v73,0,127,-45,143,-106r86,0v-25,109,-101,183,-236,183v-140,-1,-234,-115,-234,-270xm422,-303v-7,-94,-52,-155,-145,-155v-83,0,-145,70,-145,155r290,0"},"\u0116":{"d":"565,-714r0,58r-425,0r0,258r398,0r0,58r-398,0r0,282r430,0r0,58r-498,0r0,-714r493,0xm255,-891r68,0r0,101r-68,0r0,-101","w":667},"\u0117":{"d":"431,-294v0,-127,-109,-223,-233,-168v-60,26,-91,91,-101,168r334,0xm34,-258v0,-157,73,-273,233,-273v163,0,228,125,227,290r-397,0v5,113,55,200,170,203v95,2,142,-56,162,-132r63,0v-27,113,-89,185,-225,184v-162,-1,-233,-112,-233,-272xm179,-695r68,0r0,101r-68,0r0,-101"},"\u0118":{"d":"570,143v-24,39,-46,65,-95,67v-65,3,-94,-27,-96,-82v11,-65,58,-95,110,-128r-417,0r0,-714r493,0r0,58r-425,0r0,258r398,0r0,58r-398,0r0,282r430,0r0,58r-42,0v-39,36,-81,60,-86,124v-1,29,19,46,44,47v26,1,45,-25,55,-41","w":593},"\u0119":{"d":"360,143v-24,39,-46,65,-95,67v-65,3,-96,-27,-96,-82v0,-55,47,-85,87,-114v-154,-7,-222,-115,-222,-272v0,-157,73,-273,233,-273v163,0,228,125,227,290r-397,0v5,113,55,200,170,203v95,2,142,-56,162,-132r63,0v-25,102,-77,169,-189,182v-32,31,-68,56,-71,112v-1,29,19,46,44,47v26,1,45,-25,55,-41xm431,-294v0,-127,-109,-223,-233,-168v-60,26,-91,91,-101,168r334,0","w":519},"\u011a":{"d":"565,-714r0,58r-425,0r0,258r398,0r0,58r-398,0r0,282r430,0r0,58r-498,0r0,-714r493,0xm187,-902r86,102r88,-102r58,0r-114,141r-69,0r-113,-141r64,0","w":667},"\u011b":{"d":"431,-294v0,-127,-109,-223,-233,-168v-60,26,-91,91,-101,168r334,0xm34,-258v0,-157,73,-273,233,-273v163,0,228,125,227,290r-397,0v5,113,55,200,170,203v95,2,142,-56,162,-132r63,0v-27,113,-89,185,-225,184v-162,-1,-233,-112,-233,-272xm120,-729r86,102r88,-102r58,0r-114,141r-69,0r-113,-141r64,0"},"\u011c":{"d":"106,-357v0,180,85,314,269,314v161,0,246,-100,247,-262r-243,0r0,-58r303,0r0,363r-49,0v-5,-42,-2,-92,-11,-130v-43,88,-120,143,-247,144v-269,3,-390,-251,-316,-512v38,-135,142,-231,316,-231v170,0,270,90,298,237r-68,0v-21,-108,-103,-179,-230,-179v-184,0,-269,133,-269,314xm410,-779r-86,-102r-88,102r-57,0r113,-141r69,0r114,141r-65,0","w":778},"\u011d":{"d":"267,-531v86,0,133,50,166,104r0,-89r63,0r0,474v0,158,-68,250,-229,247v-116,-2,-202,-48,-214,-156r63,0v13,71,70,100,151,103v145,5,179,-117,164,-264v-27,59,-83,106,-164,106v-162,-2,-233,-105,-233,-265v0,-153,79,-260,233,-260xm97,-264v0,117,53,205,170,205v114,0,166,-91,166,-205v0,-117,-47,-214,-166,-214v-120,0,-170,94,-170,214xm261,-572r-86,-102r-88,102r-57,0r113,-141r69,0r114,141r-65,0"},"\u0120":{"d":"106,-357v0,180,85,314,269,314v161,0,246,-100,247,-262r-243,0r0,-58r303,0r0,363r-49,0v-5,-42,-2,-92,-11,-130v-43,88,-120,143,-247,144v-269,3,-390,-251,-316,-512v38,-135,142,-231,316,-231v170,0,270,90,298,237r-68,0v-21,-108,-103,-179,-230,-179v-184,0,-269,133,-269,314xm278,-905r68,0r0,101r-68,0r0,-101","w":778},"\u0121":{"d":"267,-531v86,0,133,50,166,104r0,-89r63,0r0,474v0,158,-68,250,-229,247v-116,-2,-202,-48,-214,-156r63,0v13,71,70,100,151,103v145,5,179,-117,164,-264v-27,59,-83,106,-164,106v-162,-2,-233,-105,-233,-265v0,-153,79,-260,233,-260xm97,-264v0,117,53,205,170,205v114,0,166,-91,166,-205v0,-117,-47,-214,-166,-214v-120,0,-170,94,-170,214xm141,-720r68,0r0,101r-68,0r0,-101"},"\u01f5":{"d":"267,-531v86,0,133,50,166,104r0,-89r63,0r0,474v0,158,-68,250,-229,247v-116,-2,-202,-48,-214,-156r63,0v13,71,70,100,151,103v145,5,179,-117,164,-264v-27,59,-83,106,-164,106v-162,-2,-233,-105,-233,-265v0,-153,79,-260,233,-260xm97,-264v0,117,53,205,170,205v114,0,166,-91,166,-205v0,-117,-47,-214,-166,-214v-120,0,-170,94,-170,214xm158,-588r105,-141r78,0r-132,141r-51,0"},"\u0124":{"d":"140,-714r0,310r424,0r0,-310r68,0r0,714r-68,0r0,-346r-424,0r0,346r-68,0r0,-714r68,0xm383,-744r-86,-102r-88,102r-57,0r113,-141r69,0r114,141r-65,0","w":722},"\u0125":{"d":"284,-478v-107,2,-162,73,-162,177r0,301r-63,0r0,-714r63,0r0,287r2,0v21,-58,89,-104,165,-104v132,-1,189,67,189,199r0,332r-63,0r0,-322v0,-95,-35,-158,-131,-156xm328,-754r-86,-102r-88,102r-57,0r113,-141r69,0r114,141r-65,0"},"\u0126":{"d":"140,-714r0,310r424,0r0,-310r68,0r0,714r-68,0r0,-346r-424,0r0,346r-68,0r0,-714r68,0xm86,-547r500,0r0,58r-500,0r0,-58","w":722},"\u0127":{"d":"284,-478v-107,2,-162,73,-162,177r0,301r-63,0r0,-714r63,0r0,287r2,0v21,-58,89,-104,165,-104v132,-1,189,67,189,199r0,332r-63,0r0,-322v0,-95,-35,-158,-131,-156xm-51,-642r328,0r0,45r-328,0r0,-45"},"\u0128":{"d":"168,-720r99,0r0,718r-99,0r0,-718xm155,-907v51,0,86,37,139,37v31,0,44,-15,48,-45r51,0v-5,103,-102,129,-185,87v-41,-21,-104,-29,-109,29r-48,0v9,-61,42,-108,104,-108","w":445},"\u0129":{"d":"119,-519r63,0r0,516r-63,0r0,-516xm287,-758v-10,48,-31,94,-87,95v-56,1,-85,-46,-135,-46v-31,0,-53,19,-52,51r-39,0v5,-64,56,-113,128,-89v33,11,57,34,95,37v32,2,44,-23,52,-48r38,0","w":430},"\u012a":{"d":"153,-717r98,0r0,717r-98,0r0,-717xm43,-825r313,0r0,58r-313,0r0,-58","w":400},"\u012b":{"d":"122,-516r63,0r0,516r-63,0r0,-516xm-32,-645r328,0r0,45r-328,0r0,-45","w":390},"\u012e":{"d":"92,-717r98,0r0,717r-98,0r0,-717xm111,103v-2,43,59,55,91,34r0,64v-23,11,-49,16,-79,16v-57,2,-97,-39,-97,-89v0,-66,47,-91,98,-128r72,0v-34,33,-83,51,-85,103","w":278},"\u012f":{"d":"124,-714r0,101r-63,0r0,-101r63,0xm124,-516r0,516r-63,0r0,-516r63,0xm97,-7v-41,37,-84,60,-89,126v-2,29,19,46,44,47v26,1,45,-25,55,-41r29,13v-24,39,-46,65,-95,67v-65,3,-94,-27,-96,-82v12,-67,60,-96,114,-130r38,0","w":222},"\u0132":{"d":"98,-717r98,0r0,717r-98,0r0,-717xm494,-62v102,-5,117,-54,116,-177r0,-478r96,0r0,503v2,158,-67,233,-216,233v-120,0,-200,-62,-195,-199r0,-51r91,0v-6,99,12,174,108,169","w":778},"\u0133":{"d":"124,-714r0,101r-63,0r0,-101r63,0xm124,-516r0,516r-63,0r0,-516r63,0xm346,-714r0,101r-63,0r0,-101r63,0xm226,137v49,0,57,-31,57,-75r0,-578r63,0r0,563v5,101,-45,158,-153,141r0,-52v10,1,23,1,33,1","w":444},"\u0134":{"d":"226,-43v113,0,134,-73,134,-185r0,-486r68,0r0,515v2,146,-62,213,-208,213v-148,0,-200,-97,-199,-243r68,0v0,104,25,186,137,186xm390,-753r-86,-102r-88,102r-57,0r113,-141r69,0r114,141r-65,0","w":500},"\u0135":{"d":"152,78v6,110,-65,141,-171,130r0,-76v74,-7,83,7,83,-64r0,-589r88,0r0,599xm113,-586r-86,-102r-88,102r-57,0r113,-141r69,0r114,141r-65,0","w":222},"\u0139":{"d":"140,-714r0,656r400,0r0,58r-468,0r0,-714r68,0xm54,-746r105,-141r78,0r-132,141r-51,0"},"\u013a":{"d":"124,-714r0,714r-63,0r0,-714r63,0xm33,-743r105,-141r78,0r-132,141r-51,0","w":265},"\u013d":{"d":"140,-714r0,656r400,0r0,58r-468,0r0,-714r68,0xm494,-717v4,109,3,219,-88,242r0,-43v31,-13,47,-50,46,-93r-42,0r0,-106r84,0"},"\u013e":{"d":"99,-714r0,714r-63,0r0,-714r63,0xm293,-717v4,109,3,219,-88,242r0,-43v31,-13,47,-50,46,-93r-42,0r0,-106r84,0","w":310},"\u013f":{"d":"140,-714r0,656r400,0r0,58r-468,0r0,-714r68,0xm233,-437r68,0r0,101r-68,0r0,-101"},"\u0140":{"d":"124,-714r0,714r-63,0r0,-714r63,0xm155,-453r68,0r0,101r-68,0r0,-101","w":310},"\u0143":{"d":"147,-714r416,604r2,0r0,-604r68,0r0,714r-76,0r-416,-604r-2,0r0,604r-68,0r0,-714r76,0xm310,-771r105,-141r78,0r-132,141r-51,0","w":704},"\u0144":{"d":"284,-478v-107,2,-162,73,-162,177r0,301r-63,0r0,-516r63,0v2,28,-4,65,2,89v21,-58,89,-104,165,-104v132,-1,189,67,189,199r0,332r-63,0r0,-322v0,-95,-35,-158,-131,-156xm207,-588r105,-141r78,0r-132,141r-51,0","w":537},"\u0147":{"d":"147,-714r416,604r2,0r0,-604r68,0r0,714r-76,0r-416,-604r-2,0r0,604r-68,0r0,-714r76,0xm211,-888r86,102r88,-102r58,0r-114,141r-69,0r-113,-141r64,0","w":722},"\u0148":{"d":"284,-478v-107,2,-162,73,-162,177r0,301r-63,0r0,-516r63,0v2,28,-4,65,2,89v21,-58,89,-104,165,-104v132,-1,189,67,189,199r0,332r-63,0r0,-322v0,-95,-35,-158,-131,-156xm149,-727r86,102r88,-102r58,0r-114,141r-69,0r-113,-141r64,0"},"\u0149":{"d":"333,-478v-107,2,-162,73,-162,177r0,301r-63,0r0,-516r63,0v2,28,-4,65,2,89v21,-58,89,-104,165,-104v132,-1,189,67,189,199r0,332r-63,0r0,-322v0,-95,-35,-158,-131,-156xm108,-840v4,109,3,219,-88,242r0,-43v31,-13,47,-50,46,-93r-42,0r0,-106r84,0"},"\u014c":{"d":"371,-671v-184,0,-269,133,-269,314v0,180,85,314,269,314v184,0,268,-134,268,-314v0,-181,-84,-314,-268,-314xm371,14v-274,-1,-389,-247,-316,-512v37,-135,142,-231,316,-231v223,0,336,151,336,372v0,167,-72,285,-189,341v-42,20,-91,30,-147,30xm142,-845r328,0r0,45r-328,0r0,-45","w":778},"\u014d":{"d":"459,-258v0,-123,-58,-220,-181,-220v-123,0,-181,97,-181,220v0,123,58,220,181,220v123,0,181,-97,181,-220xm34,-258v0,-161,83,-273,244,-273v161,0,244,112,244,273v0,161,-82,272,-244,272v-162,0,-244,-111,-244,-272xm29,-655r328,0r0,45r-328,0r0,-45"},"\u014e":{"d":"541,-925v-12,91,-63,134,-161,135v-89,0,-140,-49,-148,-135r50,0v12,53,45,76,108,76v60,0,91,-25,103,-76r48,0xm386,-737v224,0,352,141,352,366v0,226,-134,392,-354,392v-216,0,-345,-159,-345,-376v0,-217,133,-382,347,-382xm396,-66v169,0,242,-146,243,-304v2,-160,-91,-282,-247,-280v-163,2,-255,120,-252,301v3,164,80,283,256,283","w":778},"\u014f":{"d":"437,-719v-12,92,-62,134,-161,135v-89,0,-140,-49,-148,-135r50,0v12,54,45,76,108,76v60,0,91,-25,103,-76r48,0xm272,-57v116,0,150,-106,152,-213v2,-114,-46,-191,-151,-191v-111,0,-154,100,-154,210v0,107,44,194,153,194xm275,-538v145,1,244,105,241,266v-3,166,-81,291,-252,291v-149,0,-235,-114,-235,-269v0,-165,90,-289,246,-288"},"\u0150":{"d":"371,-671v-184,0,-269,133,-269,314v0,180,85,314,269,314v184,0,268,-134,268,-314v0,-181,-84,-314,-268,-314xm371,14v-274,-1,-389,-247,-316,-512v37,-135,142,-231,316,-231v223,0,336,151,336,372v0,167,-72,285,-189,341v-42,20,-91,30,-147,30xm486,-924r76,0r-126,141r-51,0xm330,-924r76,0r-126,141r-50,0","w":778},"\u0151":{"d":"459,-258v0,-123,-58,-220,-181,-220v-123,0,-181,97,-181,220v0,123,58,220,181,220v123,0,181,-97,181,-220xm34,-258v0,-161,83,-273,244,-273v161,0,244,112,244,273v0,161,-82,272,-244,272v-162,0,-244,-111,-244,-272xm358,-739r76,0r-126,141r-51,0xm202,-739r76,0r-126,141r-50,0"},"\u0154":{"d":"548,-514v0,-92,-55,-142,-154,-142r-254,0r0,281r254,0v90,-4,154,-49,154,-139xm616,-528v1,98,-57,164,-139,184v122,10,124,132,131,258v2,32,11,68,27,86r-75,0v-45,-107,22,-317,-162,-317r-258,0r0,317r-68,0r0,-714r327,0v128,3,214,58,217,186xm214,-767r105,-141r78,0r-132,141r-51,0","w":722},"\u0155":{"d":"315,-460v-120,-1,-192,69,-192,185r0,275r-63,0r0,-516r58,0v2,39,-4,86,2,121v29,-77,94,-132,195,-128r0,63xm36,-588r105,-141r78,0r-132,141r-51,0","w":333},"\u0158":{"d":"548,-514v0,-92,-55,-142,-154,-142r-254,0r0,281r254,0v90,-4,154,-49,154,-139xm616,-528v1,98,-57,164,-139,184v122,10,124,132,131,258v2,32,11,68,27,86r-75,0v-45,-107,22,-317,-162,-317r-258,0r0,317r-68,0r0,-714r327,0v128,3,214,58,217,186xm185,-896r86,102r88,-102r58,0r-114,141r-69,0r-113,-141r64,0","w":722},"\u0159":{"d":"315,-460v-120,-1,-192,69,-192,185r0,275r-63,0r0,-516r58,0v2,39,-4,86,2,121v29,-77,94,-132,195,-128r0,63xm-43,-728r86,102r88,-102r58,0r-114,141r-69,0r-113,-141r64,0","w":333},"\u015a":{"d":"594,-189v3,186,-208,233,-390,189v-106,-26,-173,-100,-168,-235r68,0v-2,142,94,192,233,192v99,0,189,-44,189,-145v0,-86,-77,-109,-147,-129v-136,-40,-320,-36,-320,-211v0,-166,177,-235,347,-187v93,26,160,91,163,208r-68,0v-8,-108,-83,-160,-195,-164v-117,-5,-209,69,-170,185v13,39,55,53,99,66v151,44,356,40,359,231xm273,-771r105,-141r78,0r-132,141r-51,0","w":630},"\u015b":{"d":"49,-386v-7,-179,313,-186,366,-52v8,21,16,45,17,73r-63,0v-4,-77,-56,-110,-135,-113v-78,-3,-149,51,-112,124v80,99,321,24,328,214v6,165,-246,190,-354,111v-38,-28,-60,-75,-65,-138r63,0v3,83,67,128,152,129v85,1,168,-49,132,-136v-75,-104,-322,-25,-329,-212xm189,-588r105,-141r78,0r-132,141r-51,0","w":481},"\u015c":{"d":"104,-235v-2,142,94,192,233,192v99,0,189,-44,189,-145v0,-86,-77,-109,-147,-129v-136,-40,-320,-36,-320,-211v0,-166,177,-235,347,-187v93,26,160,91,163,208r-68,0v-8,-108,-83,-160,-195,-164v-117,-5,-209,69,-170,185v13,39,55,53,99,66v151,44,356,40,359,231v3,186,-208,233,-390,189v-106,-26,-173,-100,-168,-235r68,0xm341,-778r-86,-102r-88,102r-57,0r113,-141r69,0r114,141r-65,0","w":667},"\u015d":{"d":"369,-365v-4,-77,-56,-110,-135,-113v-78,-3,-149,51,-112,124v80,99,321,24,328,214v6,165,-246,190,-354,111v-38,-28,-60,-75,-65,-138r63,0v3,83,67,128,152,129v85,1,168,-49,132,-136v-75,-104,-322,-25,-329,-212v-7,-179,313,-186,366,-52v8,21,16,45,17,73r-63,0xm263,-586r-86,-102r-88,102r-57,0r113,-141r69,0r114,141r-65,0","w":500},"\u0162":{"d":"561,-714r0,58r-249,0r0,656r-68,0r0,-656r-248,0r0,-58r565,0xm287,123v0,-44,-64,-43,-94,-30r-16,-15r61,-78r35,0r-44,57v57,-9,116,4,116,62v0,94,-133,102,-203,65r13,-32v39,14,132,32,132,-29","w":611},"\u0163":{"d":"209,5v-86,-1,-112,-27,-112,-115r0,-353r-90,0r0,-53r90,0r0,-155r63,0r0,155r105,0r0,53r-105,0r0,348v1,44,6,66,51,68v18,0,36,-1,54,-3r0,53xm167,123v0,-44,-64,-43,-94,-30r-16,-15r61,-78r35,0r-44,57v57,-9,116,4,116,62v0,94,-133,102,-203,65r13,-32v39,14,132,32,132,-29","w":278},"\u0164":{"d":"561,-714r0,58r-249,0r0,656r-68,0r0,-656r-248,0r0,-58r565,0xm153,-907r86,102r88,-102r58,0r-114,141r-69,0r-113,-141r64,0","w":611},"\u0165":{"d":"209,5v-86,-1,-112,-27,-112,-115r0,-353r-90,0r0,-53r90,0r0,-155r63,0r0,155r105,0r0,53r-105,0r0,348v1,44,6,66,51,68v18,0,36,-1,54,-3r0,53xm354,-814v4,109,3,219,-88,242r0,-43v31,-13,47,-50,46,-93r-42,0r0,-106r84,0","w":360},"\u0166":{"d":"561,-714r0,58r-249,0r0,656r-68,0r0,-656r-248,0r0,-58r565,0xm77,-391r328,0r0,45r-328,0r0,-45","w":611},"\u0167":{"d":"209,5v-86,-1,-112,-27,-112,-115r0,-353r-90,0r0,-53r90,0r0,-155r63,0r0,155r105,0r0,53r-105,0r0,348v1,44,6,66,51,68v18,0,36,-1,54,-3r0,53xm-93,-363r328,0r0,45r-328,0r0,-45","w":320},"\u0168":{"d":"342,14v-180,0,-277,-97,-277,-271r0,-457r68,0r0,442v-1,149,63,229,209,229v147,0,211,-80,210,-229r0,-442r68,0r0,457v-4,174,-97,271,-278,271xm450,-880v-10,48,-31,94,-87,95v-56,1,-85,-46,-135,-46v-31,0,-53,19,-52,51r-39,0v5,-64,56,-113,128,-89v33,11,57,34,95,37v32,2,44,-23,52,-48r38,0","w":722},"\u0169":{"d":"260,-38v202,-5,147,-276,155,-478r63,0r0,516r-58,0v-2,-30,4,-67,-2,-93v-29,63,-93,106,-178,107v-126,0,-181,-69,-181,-195r0,-335r63,0r0,336v4,95,38,145,138,142xm345,-701v-10,48,-31,94,-87,95v-56,1,-85,-46,-135,-46v-31,0,-53,19,-52,51r-39,0v5,-64,56,-113,128,-89v33,11,57,34,95,37v32,2,44,-23,52,-48r38,0"},"\u016a":{"d":"342,14v-180,0,-277,-97,-277,-271r0,-457r68,0r0,442v-1,149,63,229,209,229v147,0,211,-80,210,-229r0,-442r68,0r0,457v-4,174,-97,271,-278,271xm136,-820r328,0r0,45r-328,0r0,-45","w":722},"\u016b":{"d":"260,-38v202,-5,147,-276,155,-478r63,0r0,516r-58,0v-2,-30,4,-67,-2,-93v-29,63,-93,106,-178,107v-126,0,-181,-69,-181,-195r0,-335r63,0r0,336v4,95,38,145,138,142xm34,-647r328,0r0,45r-328,0r0,-45"},"\u016c":{"d":"521,-887v-11,92,-63,134,-160,135v-90,0,-141,-49,-148,-135r50,0v13,54,44,76,108,76v60,0,90,-25,102,-76r48,0xm365,19v-200,0,-282,-115,-282,-333r0,-403r99,0r0,443v-1,123,57,209,175,208v132,-1,192,-70,192,-208r0,-443r99,0r0,403v3,220,-82,333,-283,333","w":722},"\u016d":{"d":"435,-710v-12,92,-62,134,-161,135v-89,0,-140,-49,-148,-135r50,0v12,54,45,77,108,77v59,0,91,-26,103,-77r48,0xm237,14v-117,-1,-176,-60,-175,-181r0,-356r90,0r0,347v0,71,32,114,100,113v104,-1,144,-83,144,-203r0,-257r87,0r0,523r-83,0r1,-77v-29,53,-89,92,-164,91"},"\u016e":{"d":"342,14v-180,0,-277,-97,-277,-271r0,-457r68,0r0,442v-1,149,63,229,209,229v147,0,211,-80,210,-229r0,-442r68,0r0,457v-4,174,-97,271,-278,271xm304,-905v-38,0,-68,30,-68,68v0,38,30,68,68,68v38,0,68,-30,68,-68v0,-38,-30,-68,-68,-68xm304,-730v-64,0,-106,-43,-106,-107v0,-64,42,-107,106,-107v64,0,107,43,107,107v0,64,-43,107,-107,107","w":722},"\u016f":{"d":"260,-38v202,-5,147,-276,155,-478r63,0r0,516r-58,0v-2,-30,4,-67,-2,-93v-29,63,-93,106,-178,107v-126,0,-181,-69,-181,-195r0,-335r63,0r0,336v4,95,38,145,138,142xm207,-698v-38,0,-68,30,-68,68v0,38,30,68,68,68v38,0,68,-30,68,-68v0,-38,-30,-68,-68,-68xm207,-523v-64,0,-106,-43,-106,-107v0,-64,42,-107,106,-107v64,0,107,43,107,107v0,64,-43,107,-107,107"},"\u0170":{"d":"342,14v-180,0,-277,-97,-277,-271r0,-457r68,0r0,442v-1,149,63,229,209,229v147,0,211,-80,210,-229r0,-442r68,0r0,457v-4,174,-97,271,-278,271xm450,-905r76,0r-126,141r-51,0xm294,-905r76,0r-126,141r-50,0","w":722},"\u0171":{"d":"260,-38v202,-5,147,-276,155,-478r63,0r0,516r-58,0v-2,-30,4,-67,-2,-93v-29,63,-93,106,-178,107v-126,0,-181,-69,-181,-195r0,-335r63,0r0,336v4,95,38,145,138,142xm359,-731r76,0r-126,141r-51,0xm203,-731r76,0r-126,141r-50,0"},"\u0172":{"d":"342,14v-180,0,-277,-97,-277,-271r0,-457r68,0r0,442v-1,149,63,229,209,229v147,0,211,-80,210,-229r0,-442r68,0r0,457v-4,174,-97,271,-278,271xm346,8v-41,37,-84,60,-89,126v-2,29,19,46,44,47v26,1,45,-25,55,-41r29,13v-24,39,-46,65,-95,67v-65,3,-94,-27,-96,-82v12,-67,60,-96,114,-130r38,0","w":722},"\u0173":{"d":"260,-38v202,-5,147,-276,155,-478r63,0r0,516r-58,0v-2,-30,4,-67,-2,-93v-29,63,-93,106,-178,107v-126,0,-181,-69,-181,-195r0,-335r63,0r0,336v4,95,38,145,138,142xm230,-7v-41,37,-84,60,-89,126v-2,29,19,46,44,47v26,1,45,-25,55,-41r29,13v-24,39,-46,65,-95,67v-65,3,-94,-27,-96,-82v12,-67,60,-96,114,-130r38,0"},"\u0174":{"d":"73,-714r162,625r2,0r174,-625r85,0r175,625r2,0r163,-625r68,0r-197,714r-72,0r-181,-639r-2,0r-180,639r-74,0r-198,-714r73,0xm489,-775r-86,-102r-88,102r-57,0r113,-141r69,0r114,141r-65,0","w":944},"\u0175":{"d":"75,-516r132,442r2,0r126,-442r71,0r126,442r2,0r132,-442r67,0r-166,516r-69,0r-127,-434r-2,0r-126,434r-69,0r-166,-516r67,0xm370,-588r-86,-102r-88,102r-57,0r113,-141r69,0r114,141r-65,0","w":722},"\u0176":{"d":"-9,-714r80,0r235,362r234,-362r81,0r-282,420r0,294r-68,0r0,-294xm357,-773r-86,-102r-88,102r-57,0r113,-141r69,0r114,141r-65,0","w":667},"\u0177":{"d":"53,132v53,14,103,-3,118,-43v11,-30,25,-60,37,-91r-206,-514r67,0r170,440r159,-440r63,0r-224,594v-28,63,-46,115,-136,112v-22,-1,-33,0,-48,-5r0,-53xm264,-588r-86,-102r-88,102r-57,0r113,-141r69,0r114,141r-65,0","w":500},"\u0179":{"d":"551,-714r0,60r-470,596r480,0r0,58r-556,0r0,-60r470,-596r-438,0r0,-58r514,0xm235,-771r105,-141r78,0r-132,141r-51,0","w":574},"\u017a":{"d":"446,-53r0,53r-431,0r0,-51r337,-412r-314,0r0,-53r394,0r0,45r-341,418r355,0xm180,-588r105,-141r78,0r-132,141r-51,0","w":463},"\u017b":{"d":"551,-714r0,60r-470,596r480,0r0,58r-556,0r0,-60r470,-596r-438,0r0,-58r514,0xm253,-889r68,0r0,101r-68,0r0,-101","w":574},"\u017c":{"d":"446,-53r0,53r-431,0r0,-51r337,-412r-314,0r0,-53r394,0r0,45r-341,418r355,0xm197,-706r68,0r0,101r-68,0r0,-101","w":463},"\u0218":{"d":"104,-235v-2,142,94,192,233,192v99,0,189,-44,189,-145v0,-86,-77,-109,-147,-129v-136,-40,-320,-36,-320,-211v0,-166,177,-235,347,-187v93,26,160,91,163,208r-68,0v-8,-108,-83,-160,-195,-164v-117,-5,-209,69,-170,185v13,39,55,53,99,66v151,44,356,40,359,231v3,186,-208,233,-390,189v-106,-26,-173,-100,-168,-235r68,0xm368,83v3,87,2,175,-71,194r0,-35v25,-10,38,-40,37,-74r-33,0r-0,-85r67,0","w":667},"\u0219":{"d":"369,-365v-4,-77,-56,-110,-135,-113v-78,-3,-149,51,-112,124v80,99,321,24,328,214v6,165,-246,190,-354,111v-38,-28,-60,-75,-65,-138r63,0v3,83,67,128,152,129v85,1,168,-49,132,-136v-75,-104,-322,-25,-329,-212v-7,-179,313,-186,366,-52v8,21,16,45,17,73r-63,0xm282,82v3,87,2,175,-71,194r0,-35v25,-10,38,-40,37,-74r-33,0r-0,-85r67,0","w":500},"\u021a":{"d":"561,-714r0,58r-249,0r0,656r-68,0r0,-656r-248,0r0,-58r565,0xm341,62v3,87,2,175,-71,194r0,-35v25,-10,38,-40,37,-74r-33,0r-0,-85r67,0","w":611},"\u021b":{"d":"209,5v-86,-1,-112,-27,-112,-115r0,-353r-90,0r0,-53r90,0r0,-155r63,0r0,155r105,0r0,53r-105,0r0,348v1,44,6,66,51,68v18,0,36,-1,54,-3r0,53xm169,71v3,87,2,175,-71,194r0,-35v25,-10,38,-40,37,-74r-33,-0r-0,-85r67,0","w":278},"\u00a4":{"d":"279,-536v-113,0,-185,76,-185,190v0,114,72,190,185,190v113,0,185,-76,185,-190v0,-114,-72,-190,-185,-190xm279,-98v-66,0,-117,-25,-156,-56r-56,56r-38,-38r57,-57v-68,-73,-76,-227,-1,-307r-56,-56r38,-38r56,56v38,-32,91,-56,156,-56v66,0,114,24,153,55r55,-55r38,38r-54,54v31,39,56,90,56,156v0,66,-25,117,-56,156r54,54r-38,38r-55,-55v-38,32,-87,55,-153,55"},"\u0300":{"d":"261,-504r-384,0r0,496r384,0r0,-496xm269,-512r0,512r-400,0r0,-512r400,0","w":0},"\u0301":{"d":"261,-504r-384,0r0,496r384,0r0,-496xm269,-512r0,512r-400,0r0,-512r400,0","w":0},"\u0302":{"d":"261,-504r-384,0r0,496r384,0r0,-496xm269,-512r0,512r-400,0r0,-512r400,0","w":0},"\u0303":{"d":"261,-504r-384,0r0,496r384,0r0,-496xm269,-512r0,512r-400,0r0,-512r400,0","w":0},"\u0304":{"d":"261,-504r-384,0r0,496r384,0r0,-496xm269,-512r0,512r-400,0r0,-512r400,0","w":0},"\u0306":{"d":"261,-504r-384,0r0,496r384,0r0,-496xm269,-512r0,512r-400,0r0,-512r400,0","w":0},"\u0307":{"d":"261,-504r-384,0r0,496r384,0r0,-496xm269,-512r0,512r-400,0r0,-512r400,0","w":0},"\u0308":{"d":"261,-504r-384,0r0,496r384,0r0,-496xm269,-512r0,512r-400,0r0,-512r400,0","w":0},"\u030a":{"d":"261,-504r-384,0r0,496r384,0r0,-496xm269,-512r0,512r-400,0r0,-512r400,0","w":0},"\u030b":{"d":"261,-504r-384,0r0,496r384,0r0,-496xm269,-512r0,512r-400,0r0,-512r400,0","w":0},"\u030c":{"d":"261,-504r-384,0r0,496r384,0r0,-496xm269,-512r0,512r-400,0r0,-512r400,0","w":0},"\u0326":{"d":"-331,272v40,-5,59,-55,54,-102r-54,0r0,-106r105,0v4,119,3,242,-105,254r0,-46","w":0},"\u0327":{"d":"261,-504r-384,0r0,496r384,0r0,-496xm269,-512r0,512r-400,0r0,-512r400,0","w":0},"\u0328":{"d":"261,-504r-384,0r0,496r384,0r0,-496xm269,-512r0,512r-400,0r0,-512r400,0","w":0},"\u0338":{"d":"113,-504r-384,0r0,496r384,0r0,-496xm121,-512r0,512r-400,0r0,-512r400,0","w":0},"\u0110":{"d":"673,-371v0,206,-107,371,-303,371r-289,0r0,-335r-65,0r0,-87r65,0r0,-295r274,0v206,-4,318,138,318,346xm567,-278v29,-189,-28,-362,-216,-356r-173,0r0,212r205,0r0,87r-205,0r0,252v84,-3,189,11,255,-10v74,-23,120,-94,134,-185","w":722},"\u0122":{"d":"106,-357v0,180,85,314,269,314v161,0,246,-100,247,-262r-243,0r0,-58r303,0r0,363r-49,0v-5,-42,-2,-92,-11,-130v-43,88,-120,143,-247,144v-269,3,-390,-251,-316,-512v38,-135,142,-231,316,-231v170,0,270,90,298,237r-68,0v-21,-108,-103,-179,-230,-179v-184,0,-269,133,-269,314xm435,76v4,109,3,219,-88,242r0,-43v31,-13,47,-50,46,-93r-42,0r0,-106r84,0","w":778},"\u0123":{"d":"267,-531v86,0,133,50,166,104r0,-89r63,0r0,474v0,158,-68,250,-229,247v-116,-2,-202,-48,-214,-156r63,0v13,71,70,100,151,103v145,5,179,-117,164,-264v-27,59,-83,106,-164,106v-162,-2,-233,-105,-233,-265v0,-153,79,-260,233,-260xm97,-264v0,117,53,205,170,205v114,0,166,-91,166,-205v0,-117,-47,-214,-166,-214v-120,0,-170,94,-170,214xm226,-608v-4,-109,-3,-219,88,-242r0,43v-31,13,-47,50,-46,93r42,-0r0,106r-84,-0"},"\u013b":{"d":"140,-714r0,656r400,0r0,58r-468,0r0,-714r68,0xm352,52v4,109,3,219,-88,242r0,-43v31,-13,47,-50,46,-93r-42,0r0,-106r84,0"},"\u013c":{"d":"124,-714r0,714r-63,0r0,-714r63,0xm170,52v4,109,3,219,-88,242r0,-43v31,-13,47,-50,46,-93r-42,0r0,-106r84,0","w":222},"\u0136":{"d":"140,-714r0,384r415,-384r92,0r-319,295r334,419r-88,0r-297,-372r-137,127r0,245r-68,0r0,-714r68,0xm352,42v4,109,3,219,-88,242r0,-43v31,-13,47,-50,46,-93r-42,0r0,-106r84,0","w":667},"\u0137":{"d":"123,-714r0,448r286,-250r84,0r-220,191r235,325r-79,0r-204,-281r-102,85r0,196r-63,0r0,-714r63,0xm303,47v4,109,3,219,-88,242r0,-43v31,-13,47,-50,46,-93r-42,0r0,-106r84,0","w":500},"\u0145":{"d":"147,-714r416,604r2,0r0,-604r68,0r0,714r-76,0r-416,-604r-2,0r0,604r-68,0r0,-714r76,0xm385,57v4,109,3,219,-88,242r0,-43v31,-13,47,-50,46,-93r-42,0r0,-106r84,0","w":722},"\u0146":{"d":"284,-478v-107,2,-162,73,-162,177r0,301r-63,0r0,-516r63,0v2,28,-4,65,2,89v21,-58,89,-104,165,-104v132,-1,189,67,189,199r0,332r-63,0r0,-322v0,-95,-35,-158,-131,-156xm318,47v4,109,3,219,-88,242r0,-43v31,-13,47,-50,46,-93r-42,0r0,-106r84,0"},"\u0156":{"d":"548,-514v0,-92,-55,-142,-154,-142r-254,0r0,281r254,0v90,-4,154,-49,154,-139xm616,-528v1,98,-57,164,-139,184v122,10,124,132,131,258v2,32,11,68,27,86r-75,0v-45,-107,22,-317,-162,-317r-258,0r0,317r-68,0r0,-714r327,0v128,3,214,58,217,186xm407,39v4,109,3,219,-88,242r0,-43v31,-13,47,-50,46,-93r-42,0r0,-106r84,0","w":722},"\u0157":{"d":"315,-460v-120,-1,-192,69,-192,185r0,275r-63,0r0,-516r58,0v2,39,-4,86,2,121v29,-77,94,-132,195,-128r0,63xm170,47v4,109,3,219,-88,242r0,-43v31,-13,47,-50,46,-93r-42,0r0,-106r84,0","w":333},"\u03f3":{"d":"-18,125v47,8,77,-14,77,-62r0,-588r80,0r0,600v-1,51,-9,64,-39,96v-23,24,-79,33,-118,19r0,-65xm59,-715r80,0r0,91r-80,0r0,-91","w":208},"\u037e":{"d":"215,-104v2,86,1,162,-39,208v-23,27,-44,43,-66,46r0,-46v33,-17,60,-58,61,-104r-60,0r0,-104r104,0xm111,-516r104,0r0,104r-104,0r0,-104","w":277},"\u00ad":{"d":"42,-324r245,0r0,91r-245,0r0,-91","w":333},"\u0237":{"d":"152,78v6,110,-65,141,-171,130r0,-76v74,-7,83,7,83,-64r0,-589r88,0r0,599","w":222},"\u0138":{"d":"62,-523r85,0r0,222r226,-222r112,0r-200,196r211,327r-112,0r-163,-264r-74,68r0,196r-85,0r0,-523","w":500},"\u017f":{"d":"261,-646v-32,-2,-76,-2,-79,20v-19,137,-6,451,-9,626r-87,0r0,-451r-72,0r0,-70r72,0r0,-82v-3,-108,67,-131,175,-123r0,80","w":278},"\u0258":{"d":"129,-164v17,61,70,106,143,106v102,0,143,-75,146,-175r-383,0v-2,-152,26,-226,123,-275v183,-93,355,59,355,257v0,179,-125,303,-305,262v-88,-19,-147,-87,-166,-175r87,0xm416,-303v0,-85,-61,-155,-145,-155v-93,0,-139,61,-146,155r291,0"},"\u0254":{"d":"476,-275v0,166,-88,291,-237,291v-131,0,-198,-61,-211,-191r86,0v12,65,44,112,125,112v100,0,144,-99,143,-213v-1,-99,-39,-188,-137,-186v-80,1,-116,54,-131,125r-86,0v17,-128,90,-199,223,-201v140,-2,225,120,225,263","w":500},"\u0250":{"d":"442,-378v0,-51,-43,-82,-93,-82v-86,0,-168,54,-163,138r0,71v73,-51,256,-2,256,-127xm98,-428v4,-31,-31,-34,-58,-27r0,-65v67,-24,141,-3,141,72v34,-45,108,-87,188,-87v93,0,165,65,165,155v0,101,-73,151,-164,162r-141,17v-32,5,-46,21,-46,59v1,66,52,86,124,86v74,0,111,-29,118,-98r82,0v2,122,-91,172,-202,172v-113,0,-206,-37,-207,-144r0,-302"},"\u0309":{"d":"-258,-711v0,-37,-43,-47,-86,-38r-2,-39v84,-21,169,37,122,114v-9,15,-28,22,-50,27r-2,21r-43,0r0,-37v31,-2,61,-21,61,-48","w":0},"\u0305":{"d":"-450,-684r344,0r0,58r-344,0r0,-58","w":0},"\u0311":{"d":"-433,-597v12,-90,64,-134,161,-135v89,0,141,49,148,135r-50,0v-13,-53,-44,-76,-108,-76v-60,0,-90,25,-102,76r-49,0","w":0},"\u012c":{"d":"145,-714r0,714r-68,0r0,-714r68,0xm-23,-916v5,54,45,82,102,82v52,0,101,-33,106,-82r39,0v-9,76,-62,127,-145,127v-83,0,-136,-48,-141,-127r39,0","w":278},"\u012d":{"d":"61,-516r63,0r0,516r-63,0r0,-516xm-23,-722v5,54,45,82,102,82v52,0,101,-33,106,-82r39,0v-9,76,-62,127,-145,127v-83,0,-136,-48,-141,-127r39,0","w":278},"\u014a":{"d":"646,78v4,109,-64,141,-171,130r0,-76v73,-7,81,6,83,-64r0,-68r-21,0r-368,-581r0,581r-93,0r0,-717r115,0r362,581r0,-581r93,0r0,795","w":722},"\u014b":{"d":"491,78v4,109,-64,141,-171,130r0,-76v73,-7,83,6,83,-64r-2,-398v8,-97,-61,-149,-150,-119v-65,22,-99,76,-99,175r0,274r-88,0r0,-523r84,0r0,74v43,-53,88,-86,171,-86v122,0,172,67,172,200r0,413"},"\u031b":{"d":"-384,-553v18,35,86,23,114,5r-20,-49r98,-41r40,97v-56,21,-123,61,-194,57v-33,-2,-53,-8,-58,-21","w":0},"\u0312":{"d":"-226,-678v-40,5,-61,56,-53,102r53,0r0,106r-105,0v-4,-118,-3,-241,105,-254r0,46","w":0},"\u0313":{"d":"-331,-509v40,-5,59,-55,54,-102r-54,0r0,-106r105,0v4,119,2,242,-105,254r0,-46","w":0},"\u0315":{"d":"-331,-509v40,-5,59,-55,54,-102r-54,0r0,-106r105,0v4,119,2,242,-105,254r0,-46","w":0},"\u0314":{"d":"-279,-611v-8,46,13,97,53,102r0,46v-104,-11,-111,-133,-105,-254r105,0r0,106r-53,0","w":0},"\u030f":{"d":"-274,-591r-62,0r-109,-142r104,0xm-111,-591r-62,0r-111,-142r106,0","w":0},"\u030d":{"d":"-303,-712r50,0r0,152r-50,0r0,-152","w":0},"\u030e":{"d":"-354,-712r49,0r0,152r-49,0r0,-152xm-252,-712r50,0r0,152r-50,0r0,-152","w":0},"\u0310":{"d":"-124,-732v-12,91,-63,134,-161,135v-89,1,-140,-50,-148,-135r50,0v13,53,44,76,108,76v59,0,91,-25,103,-76r48,0xm-323,-818r92,0r0,102r-92,0r0,-102","w":0},"\u0316":{"d":"-179,189r-67,0r-131,-141r109,0","w":0},"\u0317":{"d":"-179,48r-131,141r-67,0r89,-141r109,0","w":0},"\u0320":{"d":"-435,98r313,0r0,57r-313,0r0,-57","w":0},"\u0323":{"d":"-324,76r92,0r0,101r-92,0r0,-101","w":0},"\u0324":{"d":"-243,76r91,0r0,101r-91,0r0,-101xm-404,76r91,0r0,101r-91,0r0,-101","w":0},"\u0325":{"d":"-339,89v0,33,28,62,61,62v33,0,61,-29,61,-62v0,-32,-29,-61,-61,-61v-32,0,-61,29,-61,61xm-380,89v0,-54,48,-102,102,-102v54,0,102,48,102,102v0,54,-48,102,-102,102v-54,0,-102,-48,-102,-102","w":0},"\u0329":{"d":"-303,69r50,0r0,152r-50,0r0,-152","w":0},"\u032c":{"d":"-232,189r-93,0r-99,-141r80,0r66,94r66,-94r80,0","w":0},"\u032d":{"d":"-232,48r100,141r-80,0r-66,-94r-66,94r-80,0r99,-141r93,0","w":0},"\u032e":{"d":"-124,49v-12,92,-62,134,-161,135v-89,0,-140,-49,-148,-135r50,0v13,54,44,76,108,76v60,0,91,-25,103,-76r48,0","w":0},"\u032f":{"d":"-433,185v12,-91,63,-135,161,-136v89,-1,141,50,148,136r-50,0v-13,-54,-44,-77,-108,-77v-60,0,-90,25,-102,77r-49,0","w":0},"\u0330":{"d":"-346,72v51,0,87,37,139,37v31,0,46,-14,48,-45r52,0v-8,89,-78,127,-160,96v-29,-11,-56,-26,-91,-26v-27,0,-39,20,-43,46r-48,0v8,-62,42,-108,103,-108","w":0},"\u0331":{"d":"-435,98r313,0r0,57r-313,0r0,-57","w":0},"\u0332":{"d":"-450,98r344,0r0,57r-344,0r0,-57","w":0},"\u0334":{"d":"-346,-319v51,0,87,37,139,37v31,0,46,-14,48,-45r52,0v-7,103,-101,129,-186,87v-42,-21,-103,-29,-108,29r-48,0v8,-62,42,-108,103,-108","w":0},"\u0335":{"d":"-435,-293r313,0r0,58r-313,0r0,-58","w":0},"\u0336":{"d":"-450,-293r344,0r0,58r-344,0r0,-58","w":0},"\u0333":{"d":"-450,98r344,0r0,57r-344,0r0,-57xm-450,210r344,0r0,58r-344,0r0,-58","w":0},"\u033e":{"d":"-291,-587v0,-52,-37,-88,-37,-140v0,-61,46,-95,108,-103r0,48v-94,20,-7,125,-7,191v0,61,-41,93,-109,103r0,-52v31,-2,45,-17,45,-47","w":0},"\u033f":{"d":"-450,-684r344,0r0,58r-344,0r0,-58xm-450,-571r344,0r0,57r-344,0r0,-57","w":0},"\u0343":{"d":"-331,-509v40,-5,59,-55,54,-102r-54,0r0,-106r105,0v4,119,2,242,-105,254r0,-46","w":0},"\u0342":{"d":"-433,-597v12,-90,64,-134,161,-135v89,0,141,49,148,135r-50,0v-13,-53,-44,-76,-108,-76v-60,0,-90,25,-102,76r-49,0","w":0},"\u0344":{"d":"-431,-627r0,-61r60,0r0,61r-60,0xm-185,-688r60,0r0,61r-60,0r0,-61xm-294,-589r-49,0r50,-126r87,0","w":0},"\u0348":{"d":"-354,69r49,0r0,152r-49,0r0,-152xm-252,69r50,0r0,152r-50,0r0,-152","w":0},"\u034f":{"w":0},"\u025f":{"d":"188,85v3,109,-67,131,-175,123r0,-80v30,4,73,3,79,-19v4,-14,8,-49,8,-106r-87,0r0,-69r88,0r0,-451r87,0r0,451r73,0r0,69r-73,0r0,82","w":278},"\u0265":{"d":"259,-54v92,0,143,-61,143,-180r0,-277r88,0r0,719r-88,0r0,-267v-42,55,-77,83,-162,83v-124,0,-176,-68,-176,-200r0,-335r90,0r0,329v-1,88,26,128,105,128"},"\u026f":{"d":"548,-79v86,0,132,-65,132,-178r0,-277r88,0r0,523r-87,0r0,-74v-41,51,-80,85,-156,85v-72,0,-114,-29,-139,-82v-35,50,-82,82,-158,82v-112,0,-164,-65,-164,-186r0,-348r91,0r0,363v-2,64,35,91,90,91v80,0,127,-55,127,-150r0,-304r89,0r0,341v-1,76,19,114,87,114","w":833},"\u0279":{"d":"66,-95v99,21,167,-53,167,-138r0,-301r88,0r0,523r-84,0r0,-91v-20,44,-88,121,-171,100r0,-93","w":333},"\u0270":{"d":"548,-79v86,0,132,-65,132,-178r0,-277r88,0r0,742r-87,0r0,-293v-41,51,-80,85,-156,85v-72,0,-114,-29,-139,-82v-35,50,-82,82,-158,82v-112,0,-164,-65,-164,-186r0,-348r91,0r0,363v-2,64,35,91,90,91v80,0,127,-55,127,-150r0,-304r89,0r0,341v-1,76,19,114,87,114","w":833},"\u027c":{"d":"321,-439v-98,-21,-166,53,-166,138r0,451r-88,0r0,-673r83,0r0,90v21,-42,91,-123,171,-99r0,93","w":333},"\u027a":{"d":"66,-95v99,21,167,-53,167,-138r0,-484r88,0r0,706r-84,0r0,-91v-20,44,-88,121,-171,100r0,-93","w":333},"\u025b":{"d":"248,-59v86,0,132,-32,147,-102r83,0v-3,111,-106,171,-234,171v-103,0,-205,-54,-204,-151v0,-75,51,-119,114,-137v-54,-26,-85,-52,-88,-126v-5,-147,273,-167,346,-77v30,36,46,72,46,107r-83,0v-11,-59,-51,-86,-117,-87v-66,0,-106,16,-108,70v-3,77,75,84,159,80r0,70v-96,-4,-180,3,-180,97v0,59,62,85,119,85","w":521},"\u025c":{"d":"479,-141v3,162,-270,189,-376,103v-41,-33,-62,-74,-62,-123r83,0v15,70,61,102,147,102v56,0,119,-27,119,-85v0,-94,-85,-101,-181,-97r0,-70v84,4,162,-3,160,-80v-2,-53,-44,-70,-108,-70v-66,1,-108,28,-117,87r-83,0v7,-93,78,-161,204,-161v96,0,188,44,188,131v0,74,-34,100,-88,126v63,18,112,61,114,137","w":521},"\u0269":{"d":"146,-116v-4,48,34,52,81,50r0,66v0,2,-65,6,-67,6v-58,1,-94,-42,-94,-99r0,-432r80,0r0,409","w":251},"\u0283":{"d":"5,112v37,22,92,18,113,-23v13,-25,23,-70,27,-137r25,-431v5,-85,17,-145,30,-182v31,-85,116,-112,206,-80r-7,79v-44,-23,-103,-25,-117,28v-51,193,-14,585,-84,753v-31,74,-117,104,-199,74","w":403},"\u0287":{"d":"78,-668v79,-2,106,41,106,113r0,346r70,0r0,72r-70,0r0,146r-89,0r0,-146r-84,0r0,-72r84,0r0,-341v3,-44,-39,-45,-84,-41r0,-69v20,-7,41,-8,67,-8","w":278},"\u0288":{"d":"187,217v-78,2,-105,-42,-105,-113r0,-555r-71,0r0,-72r71,0r0,-146r89,0r0,146r83,0r0,72r-83,0r0,550v-3,44,41,45,83,40r0,69v-20,7,-40,9,-67,9","w":278},"\u028c":{"d":"387,0r-140,-425r-146,425r-96,0r197,-522r94,0r193,522r-102,0","w":500},"\u028d":{"d":"607,0r-101,-412r-102,412r-98,0r-103,-409r-107,409r-88,0r152,-522r91,0r107,404r103,-404r91,0r151,522r-96,0","w":722},"\u028e":{"d":"440,-650v-42,-16,-92,-14,-106,18r-40,94r194,538r-100,0r-140,-426r-141,426r-97,0r162,-449v51,-133,89,-214,108,-244v25,-40,102,-54,160,-37r0,80","w":500},"\u0294":{"d":"76,-493v-1,-137,85,-234,223,-234v154,0,259,143,191,280v-16,33,-129,125,-146,171v-8,21,-14,113,-14,276r-87,0v9,-280,-19,-282,89,-393v35,-36,87,-74,87,-139v0,-70,-42,-120,-123,-118v-94,2,-131,57,-133,157r-87,0"},"\u0295":{"d":"98,-447v-68,-135,38,-280,191,-280v138,0,224,97,223,234r-87,0v-3,-100,-39,-151,-133,-157v-129,-8,-155,151,-75,218v41,34,98,97,111,137v10,29,17,127,17,295r-87,0v0,-163,-6,-255,-14,-276v-18,-46,-130,-139,-146,-171"},"\u0296":{"d":"490,-280v67,135,-38,280,-191,280v-138,0,-224,-96,-223,-234r87,0v3,101,39,152,133,158v130,8,155,-152,75,-219v-41,-34,-98,-98,-111,-137v-10,-29,-17,-126,-17,-295r87,0v0,163,6,256,14,277v18,46,130,137,146,170"},"\u029e":{"d":"496,194r-84,0r0,-416r-226,222r-112,0r200,-196r-212,-327r113,0r163,264r74,-68r0,-196r84,0r0,717","w":500},"\u0251":{"d":"523,5v-65,0,-83,-25,-93,-80v-36,52,-91,90,-175,90v-144,2,-227,-126,-227,-275v0,-150,82,-275,227,-275v82,0,138,39,174,88r0,-78r80,0r0,409v2,60,-1,44,54,53r0,63v-12,6,-17,4,-40,5xm421,-260v0,-121,-48,-200,-154,-200v-106,0,-154,78,-154,200v0,121,48,200,154,200v106,0,154,-78,154,-200","w":587},"\u0252":{"d":"68,-524v65,0,83,25,93,80v36,-52,91,-90,175,-91v143,-1,227,127,227,275v0,150,-82,276,-227,276v-82,0,-138,-40,-174,-89r0,78r-80,0r0,-408v-2,-60,1,-45,-54,-54r0,-63v12,-4,17,-4,40,-4xm170,-260v0,121,48,200,154,200v106,0,154,-78,154,-200v0,-120,-48,-199,-154,-199v-106,0,-154,78,-154,199","w":587},"\u0186":{"d":"680,-352v0,212,-127,371,-335,371v-165,0,-279,-103,-295,-235r95,0v22,93,83,153,199,151v160,-3,237,-120,237,-303v0,-161,-75,-283,-235,-283v-119,0,-187,83,-208,197r-95,0v17,-162,138,-286,315,-282v212,4,322,157,322,384","w":722},"\u0189":{"d":"673,-371v0,206,-107,371,-303,371r-289,0r0,-335r-65,0r0,-87r65,0r0,-295r274,0v206,-4,318,138,318,346xm567,-278v29,-189,-28,-362,-216,-356r-173,0r0,212r205,0r0,87r-205,0r0,252v84,-3,189,11,255,-10v74,-23,120,-94,134,-185","w":722},"\u018d":{"d":"521,-485v-1,161,-74,280,-239,277r187,138r0,80r-383,0r0,-72r280,0r-207,-154v-79,-58,-121,-135,-123,-260v-2,-136,103,-239,244,-239v136,0,242,98,241,230xm404,-336v78,-113,22,-299,-126,-299v-100,0,-162,83,-162,185v0,143,91,198,220,173v22,-4,44,-24,68,-59","w":567},"\u018e":{"d":"616,0r-531,0r0,-85r436,0r0,-243r-396,0r0,-83r396,0r0,-218r-428,0r0,-88r523,0r0,717","w":667},"\u01a7":{"d":"328,-61v123,-1,194,-52,199,-170r92,0v1,160,-116,255,-284,252v-150,-1,-292,-64,-288,-222v3,-114,73,-168,181,-191v65,-14,200,-44,230,-62v29,-17,44,-42,44,-77v0,-78,-64,-122,-161,-120v-112,3,-170,41,-182,144r-91,0v-5,-157,121,-226,270,-228v151,-2,252,83,257,220v7,206,-290,166,-417,246v-25,16,-36,45,-36,84v0,83,91,125,186,124","w":667},"\u01a8":{"d":"242,-54v86,-1,130,-30,137,-110r85,0v-9,116,-76,184,-217,184v-127,0,-211,-64,-215,-171v-7,-154,186,-128,294,-186v72,-39,22,-124,-67,-124v-76,0,-120,27,-126,88r-83,0v4,-103,86,-164,202,-164v111,0,196,62,197,166v1,139,-203,131,-300,179v-21,10,-30,28,-30,51v-2,61,62,88,123,87","w":500},"\u01a9":{"d":"28,-80r291,-277r-269,-278r0,-80r484,0r0,80r-371,0r269,278r-291,277r405,0r0,80r-518,0r0,-80","w":574},"\u01af":{"d":"365,19v-200,0,-282,-115,-282,-333r0,-403r99,0r0,443v-1,123,57,209,175,208v132,-1,192,-70,192,-208r0,-443r99,0r0,62v25,-2,54,-5,70,-18r-20,-49r98,-41r40,97v-55,21,-119,60,-188,58r0,294v3,220,-82,333,-283,333","w":862},"\u01b0":{"d":"237,14v-117,-1,-176,-60,-175,-181r0,-356r90,0r0,347v0,71,32,114,100,113v104,-1,144,-83,144,-203r0,-257r87,0r0,76v27,-2,59,-4,75,-18r-20,-49r98,-41r40,97v-57,21,-122,61,-193,58r0,400r-83,0r1,-77v-29,53,-89,92,-164,91","w":698},"\u01b1":{"d":"374,-90v151,0,249,-101,248,-248v0,-133,-82,-267,-184,-306r0,-81r274,0r0,80r-182,0v87,37,182,165,182,307v0,200,-126,338,-336,338v-210,0,-336,-136,-336,-338v0,-143,94,-269,182,-307r-182,0r0,-80r274,0r0,81v-103,40,-183,171,-184,306v-1,144,97,248,244,248","w":755},"\u01c0":{"d":"172,0r-83,0r0,-728r83,0r0,728","w":260},"\u01c1":{"d":"172,0r-83,0r0,-728r83,0r0,728xm343,0r-83,0r0,-728r83,0r0,728","w":431},"\u01c3":{"d":"95,-717r99,0r0,236r-24,310r-49,0r-26,-310r0,-236xm95,-102r97,0r0,102r-97,0r0,-102","w":278},"\u01c2":{"d":"530,-489r0,82r-218,0r0,127r218,0r0,84r-218,0r0,196r-83,0r0,-196r-208,0r0,-84r208,0r0,-127r-208,0r0,-82r208,0r0,-239r83,0r0,239r218,0","w":568},"\u03f2":{"d":"29,-247v0,-167,87,-291,237,-291v130,0,198,62,211,191r-86,0v-12,-66,-43,-112,-125,-112v-100,0,-144,99,-143,213v1,99,39,188,137,186v80,0,116,-55,131,-125r86,0v-17,128,-90,198,-224,200v-138,2,-224,-121,-224,-262","w":500},"\u037a":{"d":"87,255v-2,27,24,25,49,25r0,33v-46,8,-96,1,-96,-46r0,-216r47,0r0,204","w":150},"\u2032":{"d":"292,-733r-130,287r-68,0r90,-287r108,0","w":333},"\u2035":{"d":"203,-733r89,287r-67,0r-130,-287r108,0","w":333},"\u2031":{"d":"744,-157v0,51,43,94,94,94v51,0,94,-43,94,-94v0,-51,-43,-93,-94,-93v-51,0,-94,42,-94,93xm682,-157v0,-84,72,-156,156,-156v83,0,156,72,156,156v0,84,-73,157,-156,157v-84,0,-156,-73,-156,-157xm375,-157v0,51,43,94,94,94v50,0,93,-44,93,-94v0,-49,-44,-93,-93,-93v-51,0,-94,42,-94,93xm469,-313v83,0,156,72,156,156v0,84,-73,157,-156,157v-84,0,-157,-73,-157,-157v0,-84,73,-156,157,-156xm495,-732r54,0r-411,750r-55,0xm69,-568v0,50,44,94,94,94v51,0,94,-43,94,-94v0,-51,-43,-94,-94,-94v-50,0,-94,44,-94,94xm7,-568v0,-83,72,-156,156,-156v84,0,156,73,156,156v0,84,-72,156,-156,156v-84,0,-156,-72,-156,-156xm1104,-157v0,50,43,94,93,94v51,0,94,-43,94,-94v0,-51,-43,-93,-94,-93v-50,0,-93,43,-93,93xm1041,-157v0,-84,72,-156,156,-156v84,0,157,72,157,156v0,84,-73,157,-157,157v-84,0,-156,-73,-156,-157","w":1378},"\u2025":{"d":"449,0r0,-107r102,0r0,107r-102,0xm116,-107r101,0r0,107r-101,0r0,-107","w":667},"\u2024":{"d":"116,-107r101,0r0,107r-101,0r0,-107","w":323},"\u2010":{"d":"42,-324r245,0r0,91r-245,0r0,-91","w":333},"\u204b":{"d":"520,-486v0,119,-78,235,-208,229r0,434r-72,0r0,-838r-113,0r0,838r-71,0r0,-838r-61,0r0,-56r281,0v144,-3,244,88,244,231","w":537},"\u2033":{"d":"292,-733r-130,287r-68,0r90,-287r108,0xm463,-733r-130,287r-68,0r89,-287r109,0","w":523},"\u2036":{"d":"374,-733r89,287r-67,0r-130,-287r108,0xm203,-733r89,287r-67,0r-130,-287r108,0","w":523},"\u2034":{"d":"292,-733r-130,287r-68,0r90,-287r108,0xm463,-733r-130,287r-68,0r89,-287r109,0xm634,-733r-131,287r-67,0r89,-287r109,0","w":674},"\u2037":{"d":"545,-733r89,287r-67,0r-130,-287r108,0xm374,-733r89,287r-67,0r-130,-287r108,0xm203,-733r89,287r-67,0r-130,-287r108,0","w":674},"\u2011":{"d":"42,-324r245,0r0,91r-245,0r0,-91","w":333},"\u2027":{"d":"116,-412r101,0r0,107r-101,0r0,-107","w":323},"\u2012":{"d":"42,-324r245,0r0,91r-245,0r0,-91","w":333},"\u2015":{"d":"118,-312r764,0r0,71r-764,0r0,-71","w":1000},"\u2023":{"d":"80,-494r229,121r-229,121r0,-242","w":354},"\u202f":{"w":139},"\u2028":{"w":0},"\u2029":{"w":0},"\u202a":{"w":0},"\u202b":{"w":0},"\u202c":{"w":0},"\u202d":{"w":0},"\u202e":{"w":0},"\u2000":{"w":278},"\u2001":{"w":278},"\u2002":{"w":278},"\u2003":{"w":278},"\u2004":{"w":278},"\u2005":{"w":278},"\u2006":{"w":278},"\u2007":{"w":278},"\u2008":{"w":278},"\u200b":{"w":278},"\u200c":{"w":0},"\u200d":{"w":0},"\u200e":{"w":0},"\u200f":{"w":0},"\u2009":{"w":139},"\u200a":{"w":70},"\u2017":{"d":"-4,98r343,0r0,57r-343,0r0,-57xm-4,210r343,0r0,58r-343,0r0,-58","w":333},"\u2016":{"d":"172,0r-83,0r0,-728r83,0r0,728xm333,0r-83,0r0,-728r83,0r0,728","w":430},"\u203d":{"d":"76,-493v-1,-137,85,-234,223,-234v154,0,259,143,191,280v-16,33,-129,125,-146,171v-8,21,-14,56,-14,105r-87,0v0,-41,3,-75,9,-102r-17,-208r0,-158v-51,23,-69,69,-72,146r-87,0xm327,-388v36,-38,92,-75,92,-144v0,-56,-30,-105,-85,-114r0,165xm241,-102r97,0r0,102r-97,0r0,-102"},"\u2043":{"d":"42,-324r245,0r0,91r-245,0r0,-91","w":333},"\u203e":{"d":"-83,-684r360,0r0,45r-360,0r0,-45","w":333},"\u204d":{"d":"520,-373v0,118,-78,229,-208,229r-256,0r0,-460r220,0v144,-3,244,88,244,231xm127,-201r113,0r0,-347r-113,0r0,347","w":537},"\u204c":{"d":"56,-373v0,-143,100,-231,244,-231r221,0r0,460r-257,0v-130,4,-208,-111,-208,-229xm449,-548r-113,0r0,347r113,0r0,-347","w":537},"\u212b":{"d":"454,-280r-138,-366r-143,366r281,0xm357,-714r280,714r-73,0r-87,-222r-325,0r-86,222r-72,0r287,-714r76,0xm268,-895v-38,0,-68,30,-68,68v0,38,30,68,68,68v38,0,68,-30,68,-68v0,-38,-30,-68,-68,-68xm268,-720v-64,0,-106,-43,-106,-107v0,-64,42,-107,106,-107v64,0,107,43,107,107v0,64,-43,107,-107,107","w":667},"\u2132":{"d":"583,0r-498,0r0,-87r400,0r0,-218r-352,0r0,-86r352,0r0,-326r98,0r0,717","w":611},"\u01dd":{"d":"513,-264v0,198,-170,348,-355,257v-96,-47,-125,-124,-123,-275r383,0v-3,-101,-43,-176,-146,-176v-73,0,-127,46,-143,106r-87,0v26,-108,101,-184,237,-182v140,1,234,114,234,270xm125,-212v8,95,53,154,146,154v83,1,145,-70,145,-154r-291,0"},"\u01a0":{"d":"39,-355v0,-217,133,-382,347,-382v118,0,208,36,269,108v29,3,68,-2,86,-17r-20,-48r98,-41r40,96v-52,20,-108,53,-170,58v33,57,49,127,49,210v3,226,-134,392,-354,392v-216,0,-345,-159,-345,-376xm396,-66v169,0,242,-146,243,-304v2,-160,-91,-282,-247,-280v-163,2,-255,120,-252,301v3,164,80,283,256,283","w":889},"\u01a1":{"d":"275,-538v78,0,151,36,192,91v25,-3,54,-5,69,-18r-20,-49r98,-41r40,97v-51,19,-102,49,-161,57v66,191,-12,420,-229,420v-149,0,-235,-114,-235,-269v0,-165,90,-288,246,-288xm272,-57v116,0,150,-106,152,-213v2,-114,-46,-191,-151,-191v-111,0,-154,100,-154,210v0,107,44,194,153,194","w":676},"\u0357":{"d":"-329,-794v86,-5,137,114,72,174v-21,19,-44,30,-72,30r0,-40v32,1,61,-30,61,-62v0,-32,-29,-62,-61,-61r0,-41","w":0},"\u0351":{"d":"-289,-692v0,32,30,63,62,62r0,40v-86,5,-137,-114,-72,-174v21,-19,44,-30,72,-30r0,41v-32,-1,-62,29,-62,61","w":0},"\u031c":{"d":"-289,89v0,33,29,63,62,62r0,40v-86,5,-137,-114,-72,-174v21,-19,44,-30,72,-30r0,41v-32,-1,-62,29,-62,61","w":0},"\u0339":{"d":"-329,-13v86,-5,137,114,72,174v-21,19,-44,30,-72,30r0,-40v33,1,61,-29,61,-62v0,-32,-29,-62,-61,-61r0,-41","w":0},"\u0363":{"d":"-335,-595v-38,20,-19,81,26,78v57,-4,92,-37,81,-105v-23,19,-81,13,-107,27xm-319,-479v-71,0,-110,-88,-60,-134v29,-26,82,-27,129,-34v17,-2,24,-11,24,-29v0,-34,-26,-43,-62,-43v-37,1,-56,14,-59,49r-41,0v-1,-61,45,-85,101,-86v56,-1,103,18,103,72r0,151v-2,17,16,16,30,13r0,33v-34,12,-71,3,-71,-36v-18,23,-54,44,-94,44","w":0},"\u0364":{"d":"-397,-614v0,-99,85,-175,177,-128v48,24,62,61,61,137r-191,0v1,51,22,88,73,88v35,0,64,-23,71,-53r44,0v-13,54,-51,92,-119,91v-70,-1,-116,-57,-116,-135xm-204,-640v4,-71,-79,-101,-124,-56v-14,14,-20,33,-21,56r145,0","w":0},"\u0365":{"d":"-301,-749r45,0r0,261r-45,0r0,-261xm-301,-847r45,0r0,50r-45,0r0,-50","w":0},"\u0366":{"d":"-278,-517v57,0,75,-54,76,-107v0,-56,-23,-95,-76,-95v-55,0,-77,50,-77,105v0,54,23,97,77,97xm-277,-757v73,1,122,52,121,132v-1,83,-41,146,-127,146v-73,0,-117,-58,-117,-134v0,-82,45,-144,123,-144","w":0},"\u0367":{"d":"-296,-481v-58,0,-87,-31,-87,-91r0,-178r45,0r0,174v-1,36,16,56,50,56v95,2,67,-136,71,-230r44,0r0,262r-41,0r0,-39v-14,27,-45,46,-82,46","w":0},"\u0368":{"d":"-390,